50 45
-0.3047842726196339 -0.9928355282498393 -0.940458251101217 -0.6812382454615631 0.6701650651921547 0.09014278590438063 -0.1773950564288591 -0.7460299473430643 0.9570466695935564 0.6266500098994674 0.1467909706899091 0.01221695578666493 0.5547375129196723 0.3051192384701822 0.6514975426039744 0.5221485510252173 -0.712311859521493 0.4163567431788724 -0.5504585489318128 0.3112235831278576 -0.3281349722481042 0.9654058145740543 -0.36242410489040866 0.8421871528049039 0.9916934874657133 -0.9004112287953852 0.40427654492496257 0.2045723775798458 0.5270271424900999 0.3566961421201784 -0.17088801224857075 -0.7869510366718504 0.027372513121973308 -0.15138216063422494 -0.36603330440640747 -0.1429840572329033 0.2513010115442904 -0.830460612146982 -0.09816290631582447 9.133825642206883E-4 -0.32781622579226877 0.5541556903606686 -0.9087245788644898 -0.7476935386823957 -0.702912437238413 
0.6101818288083807 -0.44779108902380016 -0.005127139529425451 -0.04612673956332625 -0.18923168238596477 -0.811785223629774 0.7260038992907685 -0.6277585510109533 0.8562576269338396 -0.08771557572700739 0.043805740137148996 -0.08232684507422783 -0.998954459627516 -0.892435819235375 0.8958674571946956 -0.06708362578163385 0.49013998032592343 -0.5684879293821212 0.032239128199315514 0.299872418821274 -0.6386624306107906 0.991363946747776 0.9976423183461927 -0.9445608352501726 0.04276639498178847 0.17075515866911473 0.4530129380272272 0.6780718739087204 -0.5881281213126919 -0.7982031825786802 -0.8659455021646352 -0.9924757950735981 -0.7192499299233548 -0.04614051852029721 0.33455849382405445 -0.331563326918102 0.6340620672138775 0.3497695485862313 0.4448261259701596 -0.6608583772234566 0.3695896356473749 0.32207711678251916 -0.21939619028368962 -0.7597420168873819 -0.22217804863158475 
0.28650720330608803 -0.2944761944500105 0.8133510686339989 -0.45420964671930397 0.7366592208366347 -0.11988194719974721 0.7181370825206164 0.6816967063281545 0.7534727154682841 -0.6369473400341621 -0.002586198479083146 0.430708705761931 -0.02506951967032056 -0.7546920252201808 0.5421035350726895 0.9886240736364338 0.885923958429649 0.5156078025051523 0.834495656519481 0.6189331733583507 0.1651572386305895 0.9354782996194364 0.355981133448688 -0.35986196587797514 -0.7345785734491292 0.8448970508529814 0.016273294993959908 -0.32598608754531244 -0.5944777559903525 0.024569075364581305 0.4943126626558647 -0.4681727665413802 0.7165980355492858 0.008446125429342644 -0.5232435251988206 -0.8356470727792618 -0.5874818297693951 0.5701824096871089 0.4381574012466214 0.21286063393820154 0.5435045518057888 -0.5002003957886865 -0.17236180899166254 -0.12793122376800614 -0.8559271577693617 
-0.7580895202788649 0.31007260363624867 0.01239346952904774 -0.599157470915546 0.48442975184834247 -0.944513875389249 -0.19235356385225688 -0.15728178701519968 -0.6332215572594553 -0.02140734194172067 -0.5243347821671287 0.49539762205068594 -0.3808339662167246 -0.6989128247373557 -0.836813352510356 -0.5558843482583153 -0.35038650250601644 0.8425171187505713 0.49260265111068113 -0.6870147704476948 -0.6370427307251785 -0.9587422444456519 0.8370658563635329 0.7962507073140572 0.3261536482425973 -0.13467849937516596 0.0017401419278684216 0.5662217989853768 -0.21322006561146978 0.49343253181985425 -0.33718007022194496 0.6346086698147932 0.006708062066309584 -0.06999780107451214 -0.3477301465455742 -0.4415665682151957 -0.6094963401188307 0.5633439462813834 -0.024935855789128603 0.7586444372485805 0.9681816029084203 -0.9153314272356194 -0.6929654586862328 -0.34098507235359654 0.9345280161908645 
0.1561050714044634 -0.35473840310408966 -0.6451411104817615 -0.8477238667211031 -0.250805327375657 0.769274866859162 0.08555148866576112 0.7940016751613714 -0.8289916750147286 -0.7798470581862338 0.9117938606457989 -0.3723185795941204 -0.5467570198341472 0.6159445895211761 0.68801537163441 0.843437578776846 -0.9996477458829736 -0.7043405044494135 -0.3277409110410654 0.774067209575646 -0.8240271658551168 -0.4795951026447929 0.9303507080564213 0.37953569627380146 0.8526095573071202 -0.24092710187038624 0.06810244628133688 0.945690031607461 -0.14225434254353386 -0.0526880562129195 0.7647580499690487 0.0900266571799111 0.7202480909557747 -0.9676571177575988 0.08283722820897998 -0.1275734096743837 0.15414009124572137 0.6025088645869547 -0.4060081835729592 0.5763481247684108 0.3125178059504974 -0.05072326168477481 -0.012561999774029164 -0.4439535821934233 -0.9974111022188588 
0.5207349572615145 0.016983137507413426 0.43796670573943297 -0.22648390925598183 -0.6005382244820323 -0.6053818590080111 -0.08046374578885551 -0.9280493662762483 0.17396515953984326 -0.4469001151136933 -0.5738418602144539 0.5058437663154047 -0.6282754699362301 0.0769010096886904 0.9672887356714328 -0.33467164218170486 -0.5168081614092952 0.04035741402483817 0.6750575664750262 0.9201645521087518 -0.47006166616888745 0.49379795326288667 -0.2860321380562807 0.14644785309941266 -0.8835388813242067 0.9028917325097743 0.5177931644530982 0.4309802334479709 -0.046008242139755406 0.4734049165410983 0.6398636931865214 -0.5400920594366474 -0.04402294472229862 0.9830078596267098 0.895515064702803 -0.48106581439068985 -0.8212687426108429 0.9937307965474902 0.9305486730691566 -0.18438462070064943 0.11708539166884835 0.13311597088008664 -0.13286748005865578 0.17995585757916022 -0.8363105250014287 
0.5090694381102374 0.25864854911077084 -0.8922832636838909 -0.5980502559758774 0.2628677200087124 0.22757124679473173 -0.4184416210595494 -0.6735876055793029 -0.23327169221980126 -0.6344603532948265 -0.8616598766111287 -0.4292671995903341 0.03680528750762857 0.7423640271347003 0.24660208663029537 0.27219750193579917 -0.4405740035333088 0.20078566144654486 -0.783541337378119 -0.6869053504063454 -0.08216452630082172 -0.9936131720525665 0.5848361797156725 0.3530557753822987 0.3586712152852114 0.8771261583450418 -0.7978113772447959 -0.697178564040881 0.7518415790792232 -0.5654473530504438 0.09253167145882357 0.688709672605613 -0.7255642520537229 -0.8011706982025697 0.5668347286606334 -0.7816041842852801 -0.41125432689657826 0.3922763715010511 0.04051714646458726 0.7824395072377823 0.28643380066282376 -0.9787786523715243 0.5389949751080452 -0.8876772465897693 0.9353332043779712 
0.97352194905973 0.9709305368848318 -0.6354082901635671 0.19232028741113494 0.19920531676009912 0.9070374919504132 0.012022506481678574 0.135153015355727 0.4342458570814871 0.8229994238500034 -0.403440321556088 -0.7818792849598477 -0.6174183350539169 -0.45173801447605677 -0.8648964529286527 0.07080508703113164 -0.21095211251109292 0.008161692294963219 0.26805174477526705 -0.2637953452788129 -0.5840170640043305 -0.744941711489628 -0.3981722096117666 0.8839282869733187 -0.42115716871889686 0.2548399543199622 -0.879542846189004 -0.963883805610223 -0.3987647125703673 0.9283744387497666 -0.9724191360469971 0.9082010273361156 0.3173651363897976 0.5431815841550893 0.9291232567999004 0.5935728073287387 -0.4200406918741504 0.7088068043497064 -0.12184043652437992 -0.48933296832149575 0.6243188875581451 -0.04992292048553626 -0.5226432623022419 0.7829460464453311 0.09422261456659409 
-0.8843750114964313 0.9706893340178233 -0.9633012552947697 0.5529860307135004 -0.2752307072369131 -0.945039670388711 0.4785358421182804 0.3830565707387732 0.7640433608115451 0.0029841159037145015 -0.4460890437098486 0.12010490748856273 -0.5846340364394427 -0.3858811901513908 -0.5100482911405433 0.4726497822121063 -0.26894738093063286 -0.5058390679053586 0.5903372185955018 -0.45416811174834604 0.3665679622941156 0.21544562583751525 0.27691241514853315 -0.881968888222185 0.14012324321952585 -0.9806779219677186 0.5621814041322417 0.21159854182958737 0.4089261677035436 -0.10299655122552087 -0.11122265282038768 0.6540540178066392 0.03509342586609843 -0.8788828732466689 -0.913543180338104 -0.15632324224514238 0.05993880686509678 -0.40088917317044115 -0.425878089360304 0.5134956928656429 -0.8864458393881651 0.7809971185413938 -0.12617428447662715 -0.06973563647126224 -0.9426978041618466 
-0.7222527338053739 0.005669053868568197 -0.32991771778801415 -0.6099560018871908 0.8329738780763629 0.3969514115700694 -0.12009612375057355 0.5446275287056284 0.8393696121546959 0.5658900164791902 0.7642540024298308 0.3593656593709702 0.20269675384109398 -0.9703242846120181 0.9290464989631635 0.7299358337479684 0.02995222238252815 -0.3614134492990506 -0.8305183962586646 0.7303373588866025 0.35465881377482433 0.8523337198696768 -0.6934255071742286 0.33724358056900283 0.9110628956654578 -0.6482332788529379 0.7569473257056465 -0.6997087194892258 -0.16965391166583976 -0.1814808822491616 0.6630936032988695 0.6715518466750103 -0.9442123407877692 0.7171276776578834 0.616402519993742 0.04063132846288431 -0.7398590140197414 -0.5213876861006579 0.2728091036018896 -0.38244872599446533 0.09731680988247349 -0.3885431040261842 -0.508985610401538 0.9637632967079601 -0.26820624462491893 
0.95538317656255 0.01579664190582397 -0.6076446486117173 0.7630042545041333 0.545265116976793 -0.8159852218731998 0.8417093556413999 -0.10172677638651728 -0.6330179654338821 -0.3515184103997169 0.3725742087131507 0.026713274778416674 -0.33603667137977333 0.6949630264001141 0.3467197161537514 -0.292189538743411 0.39263068716421 0.3701387476720477 -0.1839577216384205 0.5122607172340725 0.9268958142923263 -0.6565644233104082 0.6841939213661823 -0.861053143187033 -0.8236739648433915 -0.8067748302464608 0.7985113987386763 0.7807725698177794 -0.09045753890112529 -0.3620451664490485 -0.711775984838374 0.8233999683109814 0.2638689195364754 -0.8746418772078364 -0.8143778060963396 -0.3652370297140308 0.17420254552546388 -0.85202990430384 0.6500724699359333 -0.060440933257484675 -0.23146914920993034 0.6707515548465641 0.9604666005470961 0.07174914604884264 -0.3455277786102091 
-0.8632978709070065 0.8498971375951729 -0.7405771401470642 -0.5393293362307956 0.6589228078386731 0.7270533183280228 -0.9797842835600938 0.9988285682939582 0.21266504509641404 0.8620356740897401 -0.26820742234381423 0.9766140047751659 0.9084822146107017 0.7099895465577672 -0.5092608565717538 0.318632738411756 -0.24232275248231905 0.204162223052055 -0.5154678518093372 0.8421080285015923 -0.26618147488998667 0.0706904703191642 0.27508678992699087 -0.7141357895453118 0.3891740544527251 -0.9993715338981972 0.6287081233541227 -0.4943362802632918 -0.1975078695012331 0.8604301123277052 0.8261011481977605 0.025899359203969352 -0.7853652428464926 -0.9696982491203057 -0.2525777096726747 0.07709847079215693 0.35114871708688833 -0.56945482246388 -0.5488163770012511 0.7506462153418034 0.1359362002232427 0.8292132239375616 0.45214898767472955 0.9665914040646302 0.26776622785609194 
0.6201047766320118 -0.5478111954947336 0.5773482812424704 -0.038554220470332634 0.41832717452848645 0.8893898679168606 -0.8804363316338129 -0.9519529368810662 0.5413585942032022 0.34454261727259006 0.4783696797878749 -0.4163335959467751 -0.2732541275695519 -0.41954156141295984 -0.9573032800298968 -0.8662317360298355 0.28327565756351114 -0.21160351273599742 -0.192725542835394 -0.019754918732030724 -0.7193391474725539 -0.5227927125201244 -0.6835994363116014 -0.3590973915478317 -0.6465133554573421 0.3646304512778733 0.3465121229920638 -0.7038410313269134 0.22836407991539343 0.6165095641449785 0.7890449202244079 -0.014677902506948115 0.17894193093649124 -0.17148302173236618 0.3220222934421857 -0.23510970224691086 -0.7283690235631362 0.25630874092039724 -0.8517347793892716 0.41389746089374513 -0.5144022056194062 -0.02614131979176504 -0.6699293749915418 -0.2735968661839221 0.5737882506736665 
-0.12395259400462955 -0.935343203692732 0.9488055329517098 0.8774438843142991 -0.25958791566570194 -0.37837119972338384 0.49973428695895805 -0.7852215025998313 0.9242889180817899 -0.39683117695698433 0.7528568315965904 -0.5648166533819541 0.6974100632582567 -0.3103890827325091 0.3680112929055186 -0.7364652381539158 -0.30365617742661266 -0.9024888067388355 0.42365672544501143 -0.34512052744966826 -0.4640046220842371 0.6042789095939549 0.4337092574256205 0.037976811254224474 0.22471371138262852 0.18288648619881998 0.22441149446972863 0.5468800966544123 0.703377855340853 0.0421292744966244 -0.3980402337965332 0.6229421153668417 0.5651647690610331 0.18235980812956587 -0.24080704818759768 0.21533324073197946 0.8115277009216251 -0.5464262192962552 0.4497239071829393 -0.7836360809240117 0.3612440301196089 0.5421784482827072 -0.8995269036520253 0.7386057202922878 0.9532174820400898 
0.3147267461043084 0.2386420261126887 0.37400894693552145 0.07005012821912793 -0.4886452660849283 -0.12325787919678888 0.6709178678472532 -0.4417748513635087 -0.09138881534919907 -0.17062709693110611 -0.2769130113402649 0.7320717856643444 0.7608236575201568 -0.6719783526312628 0.9855063725830522 0.9225106723052439 -0.4189038110367955 -0.24476561046690803 0.21504521823062506 -0.332094101622308 -0.8625115638669139 0.8370863516943625 0.7796281076566878 -0.9568208387988932 0.9168786974168452 -0.7870412548540435 0.48785957024458027 -0.015331669323890074 -0.751533843138549 0.9442056236896044 -0.43828286163685415 0.8920420637872568 -0.21917868816886443 0.22837422197610824 0.4081354747775401 0.27490911111375893 -0.929153882742465 -0.6467813802657079 -0.558992530502781 -0.23941012995315125 0.6699592102336704 -0.24517361125542436 -0.6366689060367245 -0.6091544241520466 -0.7177264637973595 
0.9367546080409141 -0.9600654254781869 -0.19081152546731084 0.3214886403805943 0.9621507279428276 -0.6255853387907395 -0.323275042924023 -0.49232927762163015 -0.7515886491740267 -0.5503729719295669 -0.5466887461290566 0.022049010327575003 -0.5259899272091979 -0.4007307996447609 0.5421295010641076 -0.8225916091032535 -0.4502957554041185 -0.9511978662381471 -0.28037959109850874 0.5636118514938446 0.8114081040484686 -0.7028433421673672 0.7590366414966416 -0.8077598162604966 -0.14040203617314284 0.5063769433604699 0.2047089833209217 0.29128835758925975 -0.19980709423897758 0.8245541737869251 0.36544616527683593 -0.9096882714272474 -0.9655659106964227 -0.21189220069887194 -0.23068353173915024 -0.8116314188682563 -0.7996386023801065 0.7326748977502002 -0.4416122541262615 0.9115577535233674 -0.6139334590981418 -0.5124294136265442 -0.3991689711058837 0.4439044826633838 -0.6850211930675527 
-0.463013910272863 0.4591203194108362 -0.5452006177551707 -0.15398249368143468 -0.6982055777468519 0.7768897276819517 -0.5518504283341623 0.8365244002139087 -0.7709638178752711 0.13333690210790383 -0.8771459907282211 0.1834663560862868 0.9718610173787223 0.9628904509069158 0.6611672895798402 -0.31152312256483805 0.10090463117380555 -0.2508136608268565 0.05097058034560775 -0.7151157189205464 -0.4912175512376582 -0.6237729229825306 -0.7000792005763423 -0.8800491275426168 0.9525860097552059 -0.7440748185743469 0.7139021263673591 -0.9968734382958502 -0.9750301386447049 -0.3499391069255846 -0.7108427586138886 0.811198543832442 -0.7473789473084134 -0.5339881497024426 0.7069291952241405 -0.4162041840740893 -0.008394828995527126 0.7294407962028624 -0.5786024755352246 -0.7522127624359727 0.32228746242339 -0.07654426384711721 -0.10385484902318987 -0.8233122670036035 -0.757771017024992 
0.4325843773691149 0.17134606953063303 0.12126692288637742 -0.886337246003724 -0.5587663263054308 0.6333174167888103 0.4401326847367242 0.5428564275463887 0.8101327969151777 0.11003120136077049 0.014138784986920117 0.6518716939588016 0.6905862158792837 0.23063594400829657 -0.2539546082094011 0.048934290569984995 0.935191772687691 -0.6360100953341838 -0.8730611901598502 -0.2881693730011823 0.7250064332334913 -0.6093380145943625 0.9934946806993576 -0.5305490532197992 -0.7430288419396869 0.0648088188454361 -0.6947525380430095 0.7998016174463942 -0.17826650392232746 0.7867896917748081 0.5386067162061252 0.25851248864835696 0.15083574361075014 0.23433451594634258 0.1244391263041944 0.010068475954324141 -0.47643639736062515 0.4895327903368918 0.24861343171680872 0.6546970503098319 -0.20242055317293484 0.050864683236385266 0.28998293673866704 0.8270475239782131 -0.736209027502021 
-0.5660511507469503 0.1878591697961014 -0.1115001300126186 -0.9752638952502457 -0.05836622359017696 0.11110799165901852 0.4431452110706897 -0.542909023396448 0.6235140870397469 0.9435775685506071 0.37818188020270527 -0.7572617558373247 0.4469047499361847 -0.6943544224029732 -0.337324398475487 -0.560841623367593 0.26576050103670035 0.09925186969002953 -0.7656660629344925 0.10873771479157357 0.3009799984341459 0.8938601050502917 -0.03785040794062411 -0.8620872699794222 -0.4650117113785055 -0.1366297182128169 0.8934693140193473 0.05089933660587098 -0.32455657149279094 0.43908240545888844 -0.22275110801166043 -0.14091602185868202 0.15736633369913355 -0.6386104105710657 -0.7990426687072556 -0.7140189556488878 0.029946958835390003 0.39295672109826807 0.5867971490993402 0.06898999084576318 -0.4862679218684207 -0.401280687668917 -0.23639001352438171 -0.5369875596330489 0.5158529060237032 
-0.19688494830762626 -0.1359595072715183 0.5573194275595774 -0.544594854940204 -0.3974611548499303 -0.10776552762931457 0.565884806684402 -0.6219542820855801 0.14109017461806173 0.4655500411733293 -0.13726826714179352 -0.4716749347921292 0.7502598075587141 -0.04553585210553135 0.2076642937421409 -0.6997750262001128 0.5082807491850561 0.5280594346844638 -0.6559129246294091 -0.19917233316317473 0.7924469144873809 0.45818029683457984 0.9494416496399629 0.13899241288830755 -0.022219269166646516 0.44354894280570356 -0.2198814007230694 0.9903709721760114 -0.4219909254428633 -0.3141630130818087 -0.2234696586203615 0.9920453425929443 -0.6701146416570989 -0.01711068839060914 -0.1196403070577774 0.08452416262190199 0.9894732964493949 -0.799997935647071 0.36482588066830623 0.04578896447972802 0.9390863422288156 -0.8616421318273757 -0.40986137094999675 0.15153154331693752 0.096154526848927 
-0.9595737464316016 -0.7298611237131025 -0.8523196282249126 0.07036912836457021 0.7553388706490962 -0.42754718115798185 -0.46423577996794596 -0.9669667900568077 0.9329531738021608 -0.3266860449535183 0.5486160857167248 -0.6573758055458312 -0.4764788273746139 0.749535943799087 0.1333723279363832 -0.38684653140255376 0.330582644589716 0.8139476842826316 -0.2393234746009132 0.6169850298783173 0.39790547323842973 0.2869294474096633 0.9434492883813723 -0.8186457216661303 0.6069997490756076 -0.2544826452113629 0.9755389654718729 -0.9320944239005302 0.01993334257450141 0.9028718142741299 -0.40997818754867366 0.7171459828912115 -0.7771176002657636 0.5447333548063151 -0.011127817371769932 0.6947893758194159 -0.7909488568073775 0.885817432115714 -0.9898225298656771 0.6945451930454385 0.18529959229543036 0.6079280221553638 0.0760251350025214 -0.968017283664037 -0.9049790968177194 
0.7028980914170371 -0.9963576929308702 0.7066798065202844 -0.3794871906586985 0.16729270674221297 0.7643217876295538 -0.6850550161321447 -0.038709289744593756 0.5821391417705963 0.8391212366929048 -0.6370227944306557 -0.21950630185741282 -0.34022372674397827 -0.05272475235098861 0.8604080225561712 0.36973723362545785 -0.04875671484361255 -0.38728626555121126 -0.5332520189937817 -0.696530394967503 0.08145708921716333 0.2860328604709881 0.918337103963724 0.6370927792607897 0.115753920926843 -0.44628287025549707 -0.019022282276287772 0.0488102846013625 -0.039798823157116026 -0.6566340478729933 -0.2464935518298763 -0.7666304700313653 0.05941118662506195 -0.02687008198706997 0.7901390563681439 -0.6734323806701545 -0.9205809641685303 -0.604484801529839 -0.7854985894542941 -0.8274068178182177 -0.2504873160776868 0.05016823793197611 0.7658369685411164 0.8419812954149739 -0.41426649739477206 
-0.6327943806268423 -0.45204027604098096 -0.033841294589910476 -0.1699082791235944 -0.847892972816138 0.1440995347006142 0.1752631197729535 -0.3866286233689693 -0.16485732967378763 -0.28413512092344595 -0.7908791912420641 -0.9142746868833538 -0.11724074486911529 0.7221266107908173 -0.883028610846585 -0.941908924949399 0.5453023119964859 0.9737033917594788 0.3697311997198276 -0.4412153291511516 -0.44509497109014573 -0.11769089509383379 -0.3207105582383174 -0.366541028266518 0.38932764773810535 -0.03270097468510191 -0.14746416939713036 -0.29705954101039955 0.28198380740947626 0.9513311755132654 -0.8964805702053014 -0.15771321370700053 0.2853443688645254 0.10613623814704098 0.9053437558523183 0.4557355424220897 0.38436129611546876 0.9021681470419627 -0.31589543588132774 -0.003957216513714279 -0.09149220861263108 0.4709854626299059 0.440380899937058 -0.3869623324045306 0.305484451002777 
0.9067919626308771 -0.27050753608166134 0.9150488654166107 -0.2834064398792695 0.013642351636308225 -0.6600594174113679 0.3881842709194212 0.7332366561979959 -0.252602180795104 0.4801512979239735 0.4422765404765103 0.2159452359887557 -0.6934057607052064 -0.683155824443521 0.5386324463211847 -0.8781948524143053 0.5939632235246302 0.30405234842384243 0.4035538961534366 0.913090410301804 0.6004254606710457 -0.09997699248389402 0.9429261283062591 -0.6906257180986448 0.1559528312632843 -0.010069777267759816 -0.853003902299573 -0.10266145306215169 -0.553225386967525 -0.38446446795721845 -0.9892067602320165 -0.5730439768699578 -0.2840188130805579 -0.5413654033594624 -0.7055277598519099 -0.5003274014742269 -0.3553439558574516 -0.06666860317188084 0.809185293020878 -0.20632921618247546 0.053246205080581976 0.712884729422548 0.8379207329337013 -0.026752894171099717 -0.23204184149477158 
-0.9499252845813999 0.2870714929483733 0.9937910510954042 0.7645453171307253 0.3457400239740267 0.21332582110628295 -0.35919471163859495 0.03193078230260027 -0.9216599577014457 0.4818008589199343 0.8308599664514971 0.9906872878298087 -0.5719010405576166 0.4851676459008847 0.4543276417208557 0.7564745802774022 0.7124922648118794 0.08984368421130817 -0.6458021298076884 -0.9438878526011767 -0.9044613582537049 0.27415864235603316 0.4122242069428277 0.18404439277451234 -0.05843586373756282 -0.7152744633414849 -0.34689112467926475 -0.970468516420909 0.6548079400912299 -0.4389215765521761 0.7793837873200538 -0.09002020088250884 -0.12055708299285395 -0.8350337333312734 0.6141001986537176 0.7134017628171374 -0.46971379843916505 0.9995197248972094 0.5553914286258674 0.6830743135982345 -0.7173205544496415 -0.28516362304754006 0.33642665662976445 0.07004308895630884 0.8707204373843878 
-0.12964176932379057 -0.8637720998796012 -0.16580307741280964 -0.17376846141278746 -0.3392570034171858 -0.5987271102817415 -0.4077836482913477 -0.8634467439176736 0.31075839143360096 0.614763043622246 0.09077750315264344 0.7074544906615876 0.10605860350772445 -0.31011432182305954 0.625970264317371 0.48815409436335666 -0.04947234646554133 -0.33464477699319906 0.03496919094659168 -0.35134866765442907 0.3272045146035365 0.9459691961916248 0.15357194303795674 -0.7047335170888602 -0.4113677310834485 -0.5421298727780581 0.963299938100292 -0.1315049635392216 0.613801527436661 -0.22234480538454382 -0.9556673082389202 0.5879832869864563 -0.9573135372919661 0.5464308164555636 -0.5943741330489953 -0.9073649816759459 -0.4642991495913018 0.29436094444062055 -0.7188580857515598 0.7695629719072343 0.8042277264780846 0.17821165359805313 -0.9388012353488604 -0.8261986436657327 -0.48029299490278543 
0.0738475421674234 0.17052163686852695 -0.5886007047316706 -0.3674092855804918 -0.032411139999636296 0.4096604585917887 -0.6082821281113238 -0.8811939688173387 -0.3452092613486024 0.044013595728013444 -0.5495435224143472 0.7201926146430788 0.38095993533944683 0.7547764921976496 -0.9968621921300351 0.8567106330701288 0.2501769074945144 0.45871254827746677 -0.39051686760496307 -0.43795834668122136 0.9775444272719542 -0.041278680515316246 -0.8876862039646181 0.03053552409062288 0.876837044718056 0.4047569139209113 -0.639683454445555 -0.8377180236272608 -0.1485210983644225 -0.3752718319055852 0.43221494357825874 0.35441512893119964 0.5964304770100703 0.527590269597477 -0.7494092811096398 0.7105873562365788 0.22051789852436143 -0.014084940960689574 0.0068036381641667365 0.8268759614054864 0.06319160241864252 -0.1271941669552079 -0.08584003834794296 0.36121564215460245 0.6066544551542581 
-0.7418992263769155 0.4646842013574135 0.7047765385685054 -0.9262480184661683 0.1613863719275841 -0.4144492256376602 -0.7524629279021915 -0.4460284214860961 0.7144220024506223 -0.12556378674243862 -0.03337271760222338 -0.6856505808017073 -0.8968477473135654 0.43875480690624635 0.3648487373191971 0.32903775697856874 -0.7604348161306949 0.7719449511860457 -0.8518974303099609 7.381578299396896E-4 0.7562296351564788 0.5706748754870856 0.4542877066517186 -0.4508407501120717 -0.3785752713075694 -0.569958607286448 0.9325578135292438 0.6061110624374473 -0.5596477430321054 0.9495369245994305 -0.4793451815387062 0.1838006796436813 -0.661999233982522 0.9407642109670646 0.3793637816786406 -0.6276527223379855 0.21180823263268223 -0.8514196492178854 -0.8830369668357672 -0.12551215748059996 -0.9026514608764111 0.18055631681537787 -0.8271287710322928 0.7998977121411468 -0.5921549717924832 
0.1853389931555629 -0.9714790315865043 0.018503800802634363 0.8883921243250141 -0.77129137080828 -0.2251829195487347 -0.18837964468707669 -0.7316549353826973 -0.7131744795691064 0.4893654949619606 -0.43830820006736615 -0.19958517471768245 0.30936343443718495 -0.13701346118744517 0.7858786313226918 -0.8574158282439492 -0.09906816768049453 0.5638557587429993 -0.05432289856617434 0.36903881133995564 -0.17261059502398335 -0.06105825815999455 0.15421483985414142 0.2888854209555143 0.7743573556643966 0.8262401378919004 0.1548199193027453 0.7065066951187351 -0.4315582740087964 -0.512369535719037 -0.24108890121484516 -0.22501850328863626 0.4173786727857993 -0.028990084141248484 -0.6917870933457706 0.1740770665888025 -0.36648097211759767 -0.4283121706155837 0.6657507772635429 -0.5131031015390475 -0.22422806977129883 0.4868513730514126 0.7420345309183745 0.8543472301946267 0.17832984301774757 
0.2432419167327784 -0.37270738941435333 0.7541635356338077 0.43020151010831853 0.02700896057210933 0.027571650283624072 -0.4186854188876492 -0.47221877666527856 -0.3439624421218921 0.8919696361067211 -0.4008179948532993 0.14338687417708917 0.6088722270617508 -0.12977646135167853 -0.21400970065535763 0.7359020137842245 0.2606895193072136 0.5543262591531739 0.11854028172159992 0.07536012403609949 -0.724401299720494 -0.6652002669970694 0.9153771404601265 -0.8384870437629779 -0.03412154471980666 -0.8582947247588071 0.0041034662040315695 0.48712697737605315 0.35258573715844865 -0.6575754683494464 -0.31737629471848927 0.12995655098038306 0.6483013218051699 0.6326977850428004 0.7116864265682814 0.2530435993625664 -0.0683968583665453 0.8843601446589162 -0.09383164686252732 0.2511989845345368 0.8941895895902927 0.6026679029096769 -0.7148783792187103 0.002221646324193749 -0.28460048072132027 
0.8980616974804783 0.19568473865107028 0.4646165889807672 0.3552070515438943 0.6916657467387555 -0.6564645885733649 -0.790725696415326 -0.1444050421876626 -0.7492243429998324 -0.7573585040701873 -0.6192208137657462 -0.39845986946980294 -0.9099599711553554 -0.7603554496871501 0.054715361673415064 0.9166720339306369 0.7759951938717784 0.9732887504847287 -0.009456487389624124 -0.14500696570557703 -0.7629361302666713 -0.10311428916621757 -0.6246756041222281 -0.40112174293076186 0.8080841845129831 0.3218840274470538 -0.6882320106671744 -0.5150997092643272 -0.5721146518426989 -0.6668092851192651 0.5247901976792633 -0.6471480643470808 -0.8396172145252869 0.8819696254622624 -0.9560371461038917 0.6496692637611661 0.5241160070152282 -0.6207803980828093 -0.5350551177126492 -0.48121579609721077 -0.00789304589288875 0.19351454637071241 -0.198813365191286 -0.03323510022185183 -0.536630351959839 
0.5988641125100487 -0.09209853843714422 -0.8770702240929729 -0.4906456435005089 0.9237330351534623 -0.006497268690198732 -0.4060505906348191 0.7630635470546296 -0.08016541670562605 0.8294070830272218 -0.03572129691152015 -0.05447082927304425 0.6993922987118897 0.9273077213356047 -0.3954105528964895 0.7137949442772771 -0.017858262119188728 0.1737249775694385 0.12420198489716427 0.7664985989101438 -0.15157778208110906 0.19484451857847618 -0.9601570572327345 -0.5423946264069583 -0.28771283955578486 -0.9296433838077449 -0.46811700406337686 0.5457929553708232 0.8086390999696482 -0.07678759575387373 -0.47946142101315004 0.6464451935332278 0.1309737427875468 -0.6170822408405645 -0.2816522269327275 -0.5448375724881402 -0.5386037890360591 0.9531865626256555 -0.19844006552616267 0.8761504517437966 -0.09785062992105154 -0.08952008721315896 0.3919064088177546 0.8158028684426051 -0.8520262235020855 
0.5181599358214826 0.1515472134159237 -0.4087546453409503 -0.3688038953684718 -0.9383095548945821 -0.03218195669553037 0.6555626897981064 0.6265204898427124 -0.5064803755595904 -0.05927146457324106 0.6558824294555572 0.4200773431622169 0.32198321836558796 -0.3150080754922817 0.7174440631393713 -0.27264065040167007 -0.21323008056396642 0.31969395997895833 -0.7137675569905593 0.6872555496259392 -0.6658072041039835 -0.5574628069825995 0.8647104834819261 0.9644702687314517 0.9387156372983763 0.3719243836178874 0.5396374911352153 -0.23980712485130984 -0.087115814405611 -0.011026064397489987 -0.6720870354332484 -0.13903782742249748 -0.493983184379176 -0.3771126635048949 0.05583909931187869 -0.7517525987337941 0.8127112818713005 0.5969173441535034 -0.2608518437827916 -0.7536537918481943 -0.704571543868592 0.2885133215363431 0.24559395841290743 -0.29622272671165994 -0.4288842551925338 
-0.14395120904951542 0.3988600424484283 -0.7165758318419262 -0.9799628678202637 -0.8541359477693466 -0.3780100139879574 0.579265474896991 0.2456794336418775 -0.28281522236222556 -0.27950162343766505 -0.5173973655479716 0.44780717919113555 -0.5911941699757555 -0.5302250953521572 -0.011722533905786259 0.36644259528710754 -0.579742386438713 0.29834567580754 -0.5385527725295531 0.6127490152362052 -0.5084997631304891 0.548010340543277 -0.7219353706765466 0.9235004630533934 0.43901930238992803 0.5438261255523786 -0.29271183326199823 0.15902208670992968 0.042524564348904725 -0.978636917179629 -0.07837477566010809 -0.28980960822810475 0.07528179232285814 -0.6643920079670933 0.10069014315420066 0.38828449453023195 -0.8675650553143011 -0.6846527631369288 0.7370361691818765 0.8421827358417193 -0.1644942308415882 -0.37118709147471196 0.4575990939807866 0.08060297304184272 -0.022416035688635594 
0.09082833072306418 -0.05813192202368023 -0.22721289534721056 -0.7774492548048346 -0.5313564106990887 -0.15202190852964215 -0.3407660491679716 0.08300609783063129 0.03310327213448194 -0.9495048705058198 -0.3752126937827178 0.07539839972352591 -0.6462563806642745 -0.05125492983297564 0.7695900659986263 -0.8128173910564844 0.6508675279566145 0.12211361279922484 -0.8408830438115849 -0.9103374649740588 -0.6053994685945738 0.18882467832566152 -0.15729673259171872 -0.10850081834043235 -0.21961727674400877 0.3672805003887676 -0.7993116372552707 0.6516972609173981 0.21230589304378955 0.9441272019979965 0.7134975184796644 -0.6427919375259217 -0.009842969775254673 0.6207854332335847 0.8416872158616191 0.6191165780292123 0.02298392792017001 -0.45973370411087444 -0.1358163493601181 0.9527080811496287 0.5814503073502459 0.6886678406447362 -0.7573542042436208 0.1805375242107412 0.8532018129681698 
0.3208289016663719 0.36308895085517956 -0.7660459821516699 0.37991756602697313 -0.9228077037475753 -0.6483932031051527 -0.5726407355095187 -0.668326034416955 0.5390091623298856 -0.9307665209588138 0.14080878856627255 -0.9862978263173516 -0.8884057050393781 0.36169055685171636 0.7703911383373663 0.002572404237407122 0.33041913218161256 0.1729662212944456 0.7921501699352667 0.873291849068961 -0.04759082036643347 0.22737812913930533 0.8341416125300556 -0.39424347498709333 -0.47511114903874585 0.6429732088609277 -0.2374546881740207 0.44844988696902166 -0.48280370193027 0.0598224677562198 -0.03841901053774399 -0.7307658461199567 0.5550680601451983 -0.3500299021643376 -0.7766954050952248 0.23753423583820932 0.8154714915483865 0.7215008629252644 0.962189953302317 0.059166308252955435 -0.7803578551217889 0.5373921888753737 0.8307283348981063 0.9245164632991931 -0.2953403472223233 
0.440520314626756 -0.763892615019574 -0.16727129515693484 -0.44102483932084646 0.4093935623543903 -0.25564170695188926 0.01901351612985236 0.574881005872266 0.7648887002745357 0.9071885896484935 -0.1608578059813064 -0.39900844018496784 0.9064686211701003 -0.341953831690081 -0.34535501978286254 0.9703820266256185 0.6770646897395276 0.09778756130114807 0.014184367932980502 -0.7648897635561251 0.2390079401456382 0.22665265500089915 0.7410275103192108 0.6554250580363417 -0.8109019429259099 0.9780753669760838 0.41349552100501885 -0.027957658492037796 -0.9508985390836662 0.7711882430745371 -0.8352800453272242 -0.867551909303411 -0.761326642956835 0.7227070086234826 0.7299905990689344 0.8472663523674575 -0.8290989644442568 0.6452093000257018 0.23443076978213018 0.12030767521720453 0.2063697632048822 0.007649575219650817 0.34069053929323534 -0.7740080773382276 0.8598551343103655 
-0.8547186880454325 0.06580087789782052 4.1725586146279525E-4 0.8744487988502507 0.1799838793018178 -0.1717152883090316 -0.23257422612871048 0.5611281528325489 0.3483221522436888 -0.8989256775193459 -0.2614064501646147 -0.8525168997287034 0.7334922861911113 -0.5772624486013755 -0.6938481455786385 -0.21248335745763458 0.7586377173114958 -0.5410314222420787 0.29042354452854346 -0.6448614155827903 -0.7771546377856722 0.3082513756663874 -0.09156200037892104 0.17717539124627546 0.1474623657630343 0.3100582832779015 -0.002035694980341729 0.45742216203006336 0.2491993200346172 -0.7591015997681321 0.8612823464588528 0.30146521570737117 0.46781672391863327 -0.02701635137810965 0.9855884174606468 0.9727080984765655 0.6500172301284066 -0.5777658870673112 0.8520107083671817 0.29323564661475365 0.22749560696571036 -0.07320331176778261 0.06278739476387374 0.9488549398499866 0.5259265874662893 
-0.925795442705938 0.0962391921587682 0.8658544123503198 0.20299791835982184 0.4347578875211613 0.14174564668884382 -0.20227414676101607 0.23742511465044158 -0.3393400031288858 0.672012710903396 -0.20670320230761519 0.8772118280631318 -0.025104985193409757 0.6774973854565753 -0.6865751797218917 0.004248061118541591 0.20078770679719504 -0.18206672738362517 -0.5783932310467459 0.4836671071475689 -0.8273621425690256 0.13847905408672845 -0.30543889925696077 -0.7597910756297599 0.6197761099981833 -0.5469101242802987 -0.7179571924202779 -0.9598325127828313 0.4308399856619871 0.01528990190546975 0.8908545692181078 -0.7436737283191299 -0.4179771593887476 -0.32339743505660157 0.37622089505657264 0.25461514569429045 0.9525011588185694 0.37547268347153806 0.09439429689566747 -0.5349505623753681 0.752199205387851 0.5045933279943655 0.20356692058980808 -0.31415956125605593 -0.6484977926224296 
-0.5278721048699635 0.6958629368313916 -0.2816049840872792 -0.07051621046786338 0.6023964015613652 0.10139117792709729 0.042248729561179976 0.5466650965340081 0.4141731231100616 0.5260396572440857 -0.08719267680001352 2.7724562093589533E-4 0.26982008583819406 0.9678975953212008 -0.9989028195239686 0.13445088413857342 0.406060544846667 -0.2971065191704816 0.49355485767371987 -0.845288764426106 0.4372728298487556 -0.06156015654678004 -0.5687859728467806 -0.06439224305522084 0.5647648577978472 0.9045804452291106 -0.008524889485711284 0.3122637580349801 -0.06943367249398436 -0.9146630197774077 0.40197253278885814 0.9110815451649916 0.8218545135242665 -0.6113438404990734 0.22488110904688807 0.201793399000336 -0.2377923136660165 -0.28843846282010177 -0.13866736768031585 0.14250183804090177 0.9184578607501648 0.5778168886117436 0.2994409916916827 -0.9586950980335907 -0.2930068147327227 
0.308611648526957 0.36576212182034595 -0.9274443615083223 -0.9990620754606478 -0.46751858865010343 -0.9611558425556199 0.2627590275670313 0.9197167712421896 0.7488806490009206 -0.2551496415992105 0.700560889783812 -0.17491258959643563 -0.8694737378629687 -0.0209342480694934 0.22723842842112907 0.8528047828136844 -0.2171639753110961 -0.9165730036684678 -0.07144674230145975 -0.9233433379007085 0.27448658723730435 -0.4409575483798589 0.37578288168875984 -0.7683096663656936 -0.5886793188461361 0.9039978753426736 -0.2468022588183778 0.8160271305058273 -0.05346437182648467 -0.3594282298176248 0.7612057093652889 0.3457391867561417 0.20328833841246063 0.9323109891557835 0.49883803301537055 -0.4451569027581863 -0.5684451308663898 -0.009752285544197825 0.4062040880614617 -0.5874599391465103 0.129286568488576 -0.6711354243112866 -0.21300397693842155 0.972413659070066 -0.4713927199682406 
0.8562447606945642 0.43307610647932004 -0.7266284877482279 -0.019001087445806863 -0.23082948968778627 -0.5623656492859299 -0.22030235775785756 0.0711269586061487 0.2727631722813577 0.4103563633608782 0.17765837856382127 0.9471593400615745 -0.7444155077445669 -0.0025063906520119694 -0.2613155189874281 -0.42386369318333705 -0.7750520873110143 0.8616835154624698 -0.08577044470995521 0.4161510978260463 0.04351675688214973 0.09081763094517514 -0.6550175371245026 -0.6571951057092116 0.30709368314353824 -0.6177887743950217 0.04719055311960374 0.5756029283412678 -0.43516527057099275 0.2877789156187682 -0.8185719546940962 0.8206608907611745 0.006948562288210169 0.30787599485866624 0.5142222049577523 0.8792945711758422 0.7312706525730237 -0.31408345356840806 -0.5494721299243917 -0.43223124169281757 -0.7510711779956811 0.3828336418372009 -0.6548807464614634 -0.04831572658659389 -0.4993533087955817 
-0.10010037719305509 0.6935462709553437 -0.3808148566736933 -0.6709426480149527 -0.629622578578729 0.758380084339872 -0.999628689230178 -0.9112700939779106 -0.34507202821891503 -0.7959489219351465 0.5860054818560638 0.8744381927126699 -0.9473500219799313 -0.6063386802409627 -0.693194931842124 0.7095294652173396 -0.3209163080633548 -0.8562703644861855 0.30531422674771114 -0.039920226652440105 0.5644618425689698 0.9379086435737309 0.8655539346528462 -0.7731509925961768 0.08994458891170964 -0.13171220910797787 0.3613504503531666 0.01587927967392999 0.5065286236681978 -0.09702268167300954 -0.2575535293998219 0.5999060035186705 0.9707733702481673 -0.5287551985682206 0.298202222964816 0.6565805548955073 0.7834401832060971 -0.18744586280985254 0.22189659680134777 0.5058314033817919 -0.6684054623574152 0.05343573820918812 0.8443415057684156 -0.9324818478588084 -0.388326991901357 
-0.44380630820316713 0.31372644071088707 0.02186145934180006 0.1504710413227095 0.7260347355386361 0.9693124072058112 0.07896013518899547 -0.3570402311566112 0.1682816363753623 -0.3102016935414109 0.7500343123409825 -0.3097058007652307 0.8549112182701422 0.09288542067619421 -0.4381380368537515 -0.3516727681840026 0.7897368908993603 -0.3792309092945205 0.2672043802171662 -0.21360184399685989 0.5541313365567673 -0.7330101780796405 0.27784395128623673 0.7081160242692344 -0.9297341936893422 0.9832788942696391 -0.7168139542098548 0.3003128760858633 -0.0635820522041961 -0.3492630516751831 -0.1837952519126087 0.35329405971250427 -0.23101942273896858 0.9078869876176874 0.3898402060911541 -0.5650336946623462 -0.8716195336598771 -0.901153267794685 0.750783872018159 0.6033767203004547 -0.1888057451254317 -0.8619327175106357 0.7839156124167299 0.10665033615381447 -0.4416716769852558 
0.18379022520778943 -0.3505150118455549 0.34626558900756654 0.5592051665178606 -0.3294242326035537 -0.15354267423093027 -0.9309390429130464 -0.4755205108545437 -0.5280397674334449 0.06927277445767199 -0.9946810376722934 0.5548830503763329 -0.25249747880057094 0.9615953051489923 -0.015273180221426541 -0.4486227144060875 0.374182928468207 -0.8305437054032823 0.9389661895953034 0.49186948830649047 0.7703211052299206 -0.5424745616375513 0.1391376024752211 -0.45767245754636265 0.39088264576685194 0.07607066915933558 0.5181783693125435 0.6752050788728392 0.20624700938902163 -0.9475047867571733 0.9928853449888293 0.23566874875608446 0.07221263679333023 0.6301701558514146 0.3271081489338261 -0.2738043490827953 0.057218593439570364 -0.31139305010239937 -0.7328694334953876 -0.027312012001923458 -0.4865358673854967 -0.3471556141738037 -0.5677890650255435 -0.20966931027390157 -0.038187577560056196 
0.1362507471780905 -0.24229331617714944 0.2849943898689371 0.7060660057469434 0.35977144788709703 -0.8348402020411829 0.006065635393927682 -0.49959432242192725 -0.7480198913156366 -0.4268259801027132 0.3091635943432227 0.564488034233358 -0.9418811326483263 0.3648673178481534 0.49228103173260207 0.7738982119056168 0.2726421183819776 -0.007863124447014203 0.5364649138138771 -0.050640062024368104 -0.2413937243714912 0.5239258945039929 -0.3877689355061569 0.8263064106903157 -0.9714247049446187 0.6351357738102481 0.9054841380887537 0.5071185742852113 -0.16445860156015701 -0.2152202460738286 -0.22820635230911512 -0.018457814154318575 -0.5413130788311493 -0.8535728274943108 0.7454541000590078 -0.35350395530999834 0.3676423689801862 -0.769059124823938 -0.490164971080455 0.6646884147898608 0.3102234372957857 0.0809635443986223 0.5781062895890026 0.47216117446430683 -0.7075415441202708 
-0.5814387508398833 0.13850078934329368 -0.22191568289439267 -0.5939551814812669 -0.8081137156333713 0.2858549330816613 -0.004173196003404822 0.007202107954663806 -0.40632572467040085 -0.30875341822867175 0.20253274990544412 0.3622171647108854 -0.18615653629005524 0.6541266623561364 -0.5548648104511473 0.5488046291306479 0.540417454151882 -0.563579919837071 -0.5060577850806183 -0.8612653255788305 0.5374456213254439 -0.2043514239002866 0.9906346230745562 0.9860078043762386 0.5055489578917678 0.7142077373068454 0.3457158115290111 0.30618420609354824 -0.1298285223406046 0.46450643172283623 -0.28884095289161227 -0.8436955990198629 0.14457099751742586 0.35475774950317995 -0.11280026494975837 -0.5888353754772282 0.07903650788003835 0.7677858155826516 0.11792355087730688 -0.6194603277060264 0.9347715400892849 -0.5647071004976738 -0.6114958941685307 0.3232735551319157 0.91033678171979 
-0.7173908530089514 -0.9423518058016478 -0.712013643859196 4.982630219505513E-4 0.634024393406367 0.4420078493009325 0.9464740867006516 0.38178021666659023 0.08638051460640339 -0.6849770589953383 0.38470620398187383 0.795975509815942 -0.061319145474193704 0.19086129169855215 -0.8223461783878354 0.3423183225064499 -0.2919490824970554 0.7348252698965754 0.498009683675638 -0.40902131500771466 0.9674631875656885 0.6747978488993056 -0.5048112304558139 0.9949903901816091 0.508216550266877 0.18400430154175162 0.7298271452413319 0.20467674851862516 0.6602393122212087 -0.13643207827953252 -0.9396754716244649 -0.9219068417371044 -0.5041371614763668 0.1740427570014198 0.05180349479242996 -0.06704330388307178 -0.4022094624606918 0.4483074629045347 0.7141877399719578 0.8999879547041649 0.08956613408849035 0.4639100354637413 -0.8250711535115731 0.11454171392156964 0.7069218028881792 
0.9611534500016561 0.753239415256471 -0.07714202535161263 0.8309661486739512 -0.5360816337886749 -0.17348165494031176 -0.718784074697612 0.6092493599316788 0.29341910187241527 -0.13401657084761798 -0.9092713692735808 -0.44167859212484073 0.7607950699841368 0.06735224294581221 -0.6625321197424978 0.37147709327044964 -0.8173590610756634 0.11374250996109314 0.5970625488332535 0.047959925198232334 0.5842828100590394 0.7817905421893412 -0.28513407129210355 0.9149748902339769 0.7388106887157364 -0.6616862130335215 0.2872428163750418 0.631438286823621 0.5355808533060398 0.9736730914101686 0.9464769277439842 0.842471285665503 0.5801040625344811 0.8793168913802007 0.39125595166355476 0.7962210041426692 0.3979398324900927 8.186582409364096E-4 -0.3933582033148073 0.9396727342015812 -0.351580818932141 0.9840470171464595 0.7818880375386033 0.2776928330211579 0.34972185288680135 
-0.6190649254571741 -0.938579929642648 0.10962222762650975 -0.724962982502166 0.7926453257729313 -0.5462545568084045 -0.34968326360811797 0.4002393732540186 -0.698247113002731 0.9750156382455832 -0.00239034549308359 0.5667163828181465 0.2813990570029097 -0.5815860800025325 -0.07425012379434492 -0.6313154596850838 -0.5318048084617297 -0.9825035095202717 0.06444648557627541 0.6825362538412056 0.04698422123372148 -0.288932608979968 -0.8342700313839213 0.22646233228872337 0.41939639714525145 0.7191211202460082 -0.6340830712451078 -0.9282027614656587 -0.6855368390093728 0.7038396090503709 0.6175446715495412 -0.87676115210201 -0.051618460521335896 -0.08341641598191485 -0.20378116237028343 -0.7567045291083254 -0.948150664179364 0.42127112043041026 -0.620103318737514 -0.08298132246613732 -0.2427802011508855 0.7364902119279308 0.05320584672725692 0.13628089389395348 -0.42594774133462465 
