50 45
0.3532640859989049 -0.8896885299669317 0.6696315660205665 0.4394798046756958 -0.6006453720260008 -0.8606766604425311 -0.7663709176329776 -0.1427787600352206 0.7976499631716716 -0.08038667936622934 0.2478426739140982 0.9021582078939645 -0.5886437708679959 -0.4840929553313573 0.7943952682915036 -0.8635760721328618 0.7317761428722236 -0.11780024592824923 0.08938161592113758 0.35617026652100026 -0.17158567762461496 0.26724727326415953 -0.5087903998682195 0.19632444539385863 0.39982298236682046 -0.9066898560819139 -0.27114677512850616 0.7996935572117541 0.3124560790691926 0.3775479813953251 0.2929491499917447 -0.5354589596290527 -0.23324674791436983 -0.279460629995387 -0.7841274133088176 -0.07891365301466147 -0.45587252558006575 -0.09602006621595915 -0.6873701159117573 -0.3137919101837847 -0.33451520349239305 -0.7803093333274731 -0.6373893902626722 0.8069580932079645 -0.7686447352421122 
0.7946452935834944 -0.31705737986723825 0.2273226983049974 0.21567024821501302 0.38180493506851687 -0.9226014380382841 -0.0010046863170927178 -0.45032812753199725 -0.645874850470822 0.24050461634002662 0.6057525856487662 0.9593950514527045 0.9691797139058205 -0.6452950126814501 0.7823544957585198 0.7096152283913439 -0.6355773131154057 0.8391399538846092 0.3827172196450046 -0.3408925866386532 0.19818949063974167 -0.008202712205707341 -0.9115650870912175 -0.15348335775143318 -0.6308858204051995 0.6125003621587997 -0.9524443229742645 -0.7969081584489726 -0.17327943762382025 -0.3975999139258717 -0.10515580511085365 0.9279885571922801 0.1285204951509873 0.00633936553077441 0.028592577415464948 0.563799543457725 0.10403262020102755 -0.002336525213205931 0.5053681341141698 -0.12557496447762695 0.7537119601314946 -0.09924760066589089 -0.5370845308821912 0.2543472418409771 -0.6591405831171964 
0.5047531034295347 -0.4072415166694685 -0.412172289160333 0.5271581007307338 -0.3573046881483197 0.8578757118961358 -0.7715020052104098 0.3575613621886278 0.2933748661882294 -0.6128495790529775 0.08426905529417095 -0.08216392518311189 0.3090934976936457 -0.7228743157754709 0.6694354702856009 -0.4318576389375788 -0.7194532174956259 0.8929221128917515 -0.5746938408606985 0.7986091161147686 0.02085427304764509 -0.8159958037383688 0.612644891164307 0.9579433067717653 0.6839302822610012 0.5168096715847332 -0.3563429648388867 0.37368816630476864 0.6280954981601323 0.5750836959828942 -0.15178681169465413 -0.2871751130009894 0.7940338599682537 0.9900890617275875 0.3584521236532643 -0.17601098598791087 -0.4130980004554632 0.5366903003576078 0.047859923863740716 0.7576522788958397 0.0356008180823737 -0.03236173160032063 -0.7246263785456337 -0.8218024944704285 -0.652076710986518 
-0.14278920965080322 -0.4379870620137907 -0.03810621987072982 -0.11150547422517976 0.1866913814705553 -0.7330052406245144 0.41735513134715063 -0.9228758530680792 0.8279976463286411 0.8322397294786907 0.27014662249055066 0.738393047395729 -0.4319019242692217 0.22863211347043833 -0.6792223721629327 0.029001373073322956 0.8656852941040329 -0.13565158043774206 -0.48459835743408997 0.2276058069892022 0.14290006624521268 0.40502279135458163 -0.9388806995007919 0.39257876421409077 -0.9112695588033708 0.7074696817123982 -0.827139988662871 0.1763249626685135 -0.8129623840004914 0.38313944491429797 -0.9436049624365455 -0.06950716791320555 -0.5190121890787376 0.3844327863642556 -0.1878860494693686 0.6446236952727178 0.44699855451234605 -0.5535443192302316 -0.9132269369198787 -0.768518187434275 0.7751351820815953 0.21874820146126162 -0.4944955263297066 0.20551424902551862 -0.16077817349825252 
0.48597370224614655 -0.8160494079895402 0.8965907628274188 -0.311240883656118 0.003508929054271137 -0.049531726632234596 -6.221458879172026E-4 0.5060688786442014 0.16332754397726834 0.30092503411694893 0.4794046268073948 0.6459146403497951 -0.04247645953072854 -0.4363136691304963 -0.3599206162041837 0.61117441177659 -0.4787261031902146 -0.7300267183056108 -0.4993776511821755 -0.38302930323434725 -0.08600719287128333 -0.6951533772859506 -0.4569211091080523 -0.24300988049594907 0.7368830347656685 0.05665123620319479 -0.6427156522189499 0.2095546462297686 -0.31295682733337893 -0.5121658289289939 0.7458528315164528 0.40733268724401794 0.21274254208554289 -0.1823732802064888 -0.5530345366318099 0.643407589691773 -0.9385711408856656 0.3371595460165493 -0.20906241713683604 -0.802250461440873 0.7014862478026762 0.7701575542525239 -0.6727532555198039 0.7419633311696319 0.350715569675069 
-0.45256017372385604 0.7419069453405063 -0.48348539881296726 -0.341039366263594 -0.6189721211422226 -0.7692225089939762 0.5734638084006587 0.9692581024047437 0.6037433502067182 0.9025974428147641 -0.7609340148044332 -0.47865817629059815 0.8827548920002275 -0.24375879758265895 0.8744226044181862 -0.0367155054094912 0.12061147378742643 -0.6901075592609391 -0.001301066543942131 0.10151489833690874 -0.37512155269009284 0.05553688883792374 -0.11174981290593977 0.9463988482317409 0.9575694571527937 -0.42962094017226504 0.8763260113690476 -0.1999713717087952 0.2681466577234133 0.33748881700187283 -0.24814764443182935 0.38481588854854976 0.3689392941060252 -0.8888109012296135 -0.10788280431935426 0.8259378919300622 -0.670591238965643 -0.9916027356741044 0.06301492965757616 0.6776394506260666 0.9457664422334942 -0.5846626375000086 -0.8181676491355983 0.12284608043090217 -0.9149709290817625 
-0.7302576448680176 0.7613872191488777 -0.022502903246630845 0.6076738194011577 0.311869369468581 0.24065861879648476 0.1954604566740068 0.3406339375251415 0.4933538055654607 0.9558764000955682 -0.8031558526499174 0.402454443108633 -0.10886880630505291 0.11736504628627542 0.5319726071037052 -0.92499632101343 0.19435911318076005 0.8312656479483973 -0.8547512829081025 -0.628783429780005 0.11547405578780778 -0.05841262147848414 0.8175765206772267 0.4659230619586958 0.922222287582966 0.26686852716950704 -0.7570289161684691 0.2368922516110339 0.6957055097380602 -0.33294511894587764 -0.36556295492225765 0.3058022180425428 0.890186239242786 0.30003160798987083 -0.243851003172467 0.17392335296713246 0.3036008380613491 -0.5864275984921312 0.8434207029583234 0.3148802480000439 -0.33656936024905937 0.06729877853626487 -0.0010972861865372607 -0.5830634625832178 0.6907858613346551 
0.290569488930565 0.34290219953863055 0.3598246076005278 0.7262584451354122 0.3560487312489855 -0.5523294759463571 0.966219905229234 -0.21569497197213328 0.08502967766380798 0.3999581125827365 -0.9144614580822488 -0.7513770895912781 -0.6005813701194507 -0.7869109017390128 -0.8521858279307084 0.3291857075519766 -0.3033881420389428 -0.750738799611975 0.9679887827435163 -0.12769181733945945 -0.9526731185907804 -0.18527038376179594 -0.7139697981307656 -0.8516869558368101 0.7027769445352421 0.15498692312170292 0.2958664166879208 -0.16292432660816392 -0.05359372427826159 -0.2959966872367099 -0.7537936430438379 0.5899258923132278 0.936731392737624 0.6310458962569241 -0.9111066676526205 -0.7329114923556856 0.8616615349861985 -0.5194518772624779 0.1055170493610742 0.2330482357886008 -0.5389989135264985 -0.9850468289095122 0.4605864835582041 0.9379272191968406 -0.22733771775030753 
-0.7525904554237866 -0.2903541483601486 -0.5788331056488023 0.8194473412715819 0.09064843362314412 -0.5667073397610503 0.3445083188303393 0.8770852476642566 -0.9496722544128449 -0.6268645995013653 -0.3055306907246449 0.9505378462580307 -0.04442164048882824 -0.28669326600378997 -0.6097810801659789 0.13441724341638706 0.8464436557879753 0.481226333966684 0.6909532992785177 -0.35531498139108475 0.8273546054226515 -0.566115405217889 -0.48242007307705004 0.4826318763974613 0.9477367742619147 0.2509981659614633 -0.4132788671719756 0.9284641620983858 0.9852991960477469 -0.6260352260416902 0.6007493187109019 0.360652408858847 0.38450637652080544 0.4096243538901956 0.6457711047221508 -0.7414758433639486 -0.45780976424655195 -0.33958965741622427 0.42017965413509817 -0.3305868152539282 -0.865790333461381 -0.952445819989425 -0.05040176722895806 -0.09199706369956506 0.24152025547505573 
-0.5384163055268294 0.03974057301754774 -0.19566753591048847 0.6609686364301746 0.40443383630532526 0.8769173071791554 0.4282601400352637 0.9755798109104736 0.6800671886510967 0.9066202870491276 0.8920082039774557 -0.28894152291620245 -0.1544207707148333 0.40382048960013206 0.5687401908932816 0.21967874691771772 -0.8476587078264484 -0.005682587473577083 -0.13604901550532222 0.8096897944608408 -0.21318691181002336 0.7946819047041698 0.5377772492211796 0.07781769947822759 -0.6367663103198238 -0.19096352942479666 -0.4998353802254274 -0.595602540030306 0.8254789973108312 -0.24587826584679595 -0.01284480863779991 0.13512211601593282 -0.8170488056362681 0.5797988383242303 -0.9246115709694334 0.10034821551674655 0.8354442653504623 0.6103426283530033 0.6032350278454974 0.8123517379636953 -0.36549289284347064 0.4525824320597882 -0.25918696608179115 0.9328798169384438 -0.7160950172982845 
0.6001504541391594 -0.3125377281111261 -0.5822022779410527 -0.8006432024066037 0.008801861121152443 0.2740823308903073 -0.8774157910540696 0.5278052242650246 -0.1740278509374027 0.6090665678758425 0.591879673707896 0.6690535720056234 -0.07155780054306504 -0.6696062119814237 0.2582469341411373 0.34768266089972477 -0.04481671842312451 0.5127660757324821 -0.6602443221290548 -0.9492623229887207 -0.881841752287029 0.8275104451010595 -0.6470442688281979 0.47675413155446433 0.23205753644993243 0.1642896510219265 -0.6527425034994236 -0.46572930232856957 -0.8753475821294725 -0.40250414244203814 0.7186903606715036 0.3830522023751588 0.8726507992083596 -0.6834715326842293 -0.22453662276559005 -0.9711718166235026 -0.8463566631770874 0.9379859738827636 0.10470642033710909 0.06242648835316866 0.41293240166356115 -0.5208697154269917 0.2292210149037175 -0.7232374030804936 0.5147376005546951 
0.19580875501757644 -0.9549741416580344 0.10022161317832667 0.08047591920582042 0.47434856142874415 0.0949332446705573 0.05254916650073005 -0.18748234551988285 -0.9842343404699381 -0.13965393273127713 -0.24055562413455633 0.7600217689912474 -0.3380412640452115 0.9429191424642536 -0.5453723847110137 0.7041577994712402 -0.6126135860915145 0.2596805806845093 0.3532326405688506 0.623224878876137 -0.7839451288278223 -0.8103375292195385 0.7979514989179006 0.5438809564056986 -0.8775299555371865 0.9870437760829829 -0.3405614073405945 -0.007101113537829606 -0.663461978697752 0.7152604882402469 0.11505831925749588 0.73456897852614 0.8962242010960313 0.45849202517069876 -0.3648611970272735 0.5120704510313736 -0.2218898144114394 -0.3686144174869386 0.7734725769730915 0.10683853349362593 -0.5151836396187963 0.8348335611118607 0.188883162157786 0.18815506322845987 0.579585011961212 
-0.10492822357443354 0.21725417125265345 -0.8541043724508732 0.3321477610167216 0.47532011465650603 0.2684962744240391 0.38256795017062895 -0.6236711657462384 0.9636393566217301 0.3405051287784415 -0.6135195490613201 -0.9213358491664292 0.21763227584181344 0.022242195424494238 -0.6839183156401263 -0.8213561242034313 -0.8139308171421693 -0.4993534512165423 0.7962161385569897 0.18501480937467907 -0.5705286201281676 0.29116695293907746 -0.839756457265104 0.9989063537305778 -0.8738598193824687 0.6792786121580865 0.46767290144761553 -0.7166271029599436 0.2770703656036497 0.1904293625666742 0.2851649245922623 0.21027216623153433 -0.48735817154960137 0.798436361011299 0.43946060157388755 0.38922929517235816 -0.844064175899992 0.037434353572783685 0.7339952041616458 0.019762017820163402 -0.988025825856446 0.7000530088670471 0.9666622834811418 -0.39352735465012234 0.7291346542518593 
-0.6154200123465825 -0.50560715189457 -0.061460575092492364 -0.4815516912830815 -0.2035557819428888 0.06092079649125637 -0.5414319050116909 0.5184362763321768 0.41443171520992705 0.6373059502100993 -0.3678066475571684 -0.8424005997819337 -0.10037488060780464 0.6204915723930462 0.4786468763729985 0.4936243420251458 -0.5448645755755748 -0.1066250311637933 -0.9661618957505749 -0.30217500721027024 -0.762727070472754 0.9705732601358237 -0.8086799244107892 0.6052900093791442 -0.1261173063799721 -0.26273013590216565 0.10284354411905605 -0.43433904389196654 0.163147552050392 -0.8657704045859325 0.11902783930362193 -0.2935813798360887 0.10623999591068256 -0.44972553495818457 0.11200715266331751 0.1600075671470813 0.5697826749847799 -0.3457856294367194 -0.0542621621994388 -0.19191664690241073 -0.9208452549158332 -0.06856957228959515 0.845981309917003 -0.3393815479053168 -0.4887400555522019 
0.28601224190504526 0.4708044557436284 0.11455746690662183 -0.21454939772472703 0.7275528543984511 0.5937680090463331 -0.9738355319565071 0.0438785632441856 0.38240805952522616 -0.5141981712883623 -0.21684172544948055 0.26762458964606406 0.852431320796746 0.3180930947561409 -0.6228142857816601 0.7925329388410065 -0.7101033331382145 -0.7928571622705562 0.8541347456965382 -0.23124146506166587 0.46552696572228847 -0.11552671026871386 0.4592432308233849 0.2506107742044692 -0.4227537425824923 0.397297015929825 -0.7040881361248801 0.3083567821675568 0.58047997127243 0.7327877599796992 0.38158361997336665 0.3212243600570217 0.4165276383054586 0.8074191666426005 0.6110036801046232 0.44092404832912324 -0.3262613605534006 -0.12583247288419708 -0.6733709442365998 0.10758705970335036 0.9369214895646711 -0.9257979208191749 0.9479080255034245 0.455094094787446 -0.6363767543168382 
0.5960141059226893 0.42560462154057377 -0.5396518228826159 -0.12838330088921945 -0.2962350222925303 -0.83570507101396 0.7711233465384801 -0.269863066662442 -0.24203895223917193 -0.5043838880159437 0.2896979461191982 0.3181120857765227 -0.7246090148557001 -0.21319819313051802 -0.20543911202455112 -0.6541639602122664 0.06159034930696827 -0.16650953842562166 0.15005587603739867 0.932233591929015 0.49792525240752217 -0.6872528126355637 -0.01609203002946935 -0.4119273304640356 0.17671581276676185 0.7616912367040272 -0.8948456742036683 -0.623819832910431 -0.7483527117483468 0.7990762602948884 -0.609921051359384 -0.6970781099080661 0.10704673265508857 -0.8783779466354094 -0.6186697711006841 0.34091020052553467 0.2484287376748262 0.18385020873588753 0.42547686511568994 0.39110557624462206 -0.3219561090205221 -0.5903700148664361 -0.18316257760747168 0.9631815901294742 -0.5570093938970115 
0.2855918529538477 0.12049548236982766 -0.6137734548934404 0.5297801183335178 0.7510218084948899 -0.385008317283124 0.9575572310493621 -0.17192916542050396 0.9258005021122369 0.6252607947182596 0.5956239495555689 0.4976186693343525 -0.5925945666615886 0.40896159208473604 -0.7163109737137336 -0.253684030142181 0.11994802258640735 -0.7855760100467335 0.8741638555796034 -0.23647876222252062 0.012668784527020138 0.14601714457380366 -0.33080703731756644 -0.6482910179867221 -0.21773090714377497 -0.44718077755092955 0.6012766715043842 0.6607983085999845 -0.7670906682571337 0.7990492006737675 -0.19157306109408512 -0.6466546209527264 -0.11034230147626367 0.47979750665622634 -0.06844597159390009 -0.48488538920141755 0.045625952356129984 0.4131715057629568 -0.4425149935582544 0.6743707588846981 -0.45001747549985716 -0.9299498957831567 -0.11078198351475255 -0.5954382127516857 -0.6665140778036369 
0.4952185153611317 -0.05428051332159822 0.15889190353451 -0.07986588252681015 -0.7712659000708717 0.37677458694233623 -0.7783892077514731 -0.012019865419780507 0.25395123437387834 -0.6758958368364558 -0.040325995528808 0.41911556672840544 -0.42128853146882017 -0.3318353649208583 0.9197573099337231 -0.781722132739378 -0.30121656599372937 -0.5292492577253245 0.739436496536106 0.18149003837129163 0.8977154451196092 0.4567237844046894 -0.6723288602460182 -0.7394053404128207 0.10484091549725938 0.9738909618148519 -0.6814399850893389 -0.8035030740749305 -0.13674394748411567 0.028265236835841145 -0.5863363680759228 -0.8166148291141293 0.8521663780675433 -0.28736258005241244 -0.09798294323156864 0.07814963942669162 0.36307727219262675 0.6295963362426371 0.38328493860986557 0.9836740012025207 0.14688203869174044 0.7558346844172295 0.5183387280476928 -0.08837271226595811 0.12897844222965316 
0.6027827484922654 0.49286333090823997 -0.33016369928540246 -0.36787676836012806 0.49931421640493334 0.8034300824457097 0.12127278442872114 0.9518126818363808 -0.644528036775738 0.9617995841856006 -0.47385850831743137 -0.6034456245602462 0.3618647732746494 -0.237953224197053 0.8055099151493967 -0.7645257446418681 -0.26241112687860424 -0.13357109465143946 -0.7456281452604605 0.38828102694362454 -0.13976857777210316 0.639744932030929 0.4839918520366344 0.14768786901805298 -0.10528383591103396 -0.6017375341613236 -0.812170949929333 -0.2580303365296497 -0.6165450069654923 0.5381177931181094 0.7022936382230274 -0.8745877247518212 -0.8315286964685078 0.369421416256279 0.27304075741475 -0.9730119962642987 -0.5131347044267858 0.9061302894082528 -0.560538916653943 0.9926703582974954 -0.8858063500989373 0.34807590834118884 -0.985520194915088 -0.0756217016964198 0.026039796238811475 
-0.4596346141922445 -0.23627142188365835 -0.5513810746632821 -0.7937467528110949 0.3067013594654604 -0.9223910296814213 0.3404762065556046 0.9510408256300273 -0.7730064661684986 0.6817184030291554 0.18366973599770398 -0.6987057238085177 -0.8340354401282537 0.7455628525781879 0.46498773561540907 -0.9187565562914941 0.6582786232076807 -0.3735660054516088 -0.6185247819153596 -0.5702743350041679 0.11705231974842256 -0.0752193571372366 0.7813365751030013 -0.31893318867437825 -0.24356768570586484 0.5293595799380781 -0.13540925487837163 -0.014228780432157029 -0.894745026746997 0.8949009075297312 0.5370943180567038 0.15692132841797668 0.03762974269530606 -0.07802101320266774 -0.35837380668309105 -0.1136082082106522 0.35761703424363067 -0.5017680436326311 -0.31769345735205534 -0.30431607416769624 -0.8510013587548833 0.012025367921599361 0.11369923475363697 0.7693920693451448 0.3374680807893966 
-0.03589002860029189 -0.21647336592118105 -0.8349857073787292 -0.7886052633655805 0.17977561612154558 -0.30199704972300223 -0.1989755995022997 0.008645731085601405 -0.9365429494460307 -0.0786298128227636 0.09582461948600152 -0.8992243702388893 0.8397004794655543 -0.8736998258159081 0.16340213384251134 -0.20777619725413454 -0.2111478973684262 0.0794023310155727 0.06721473123597832 -0.6990138488080067 0.11278428568763976 -0.8238429501217521 0.7920352288085926 0.09855741378907834 -0.7445730287697772 -0.967829228635845 0.3141860681106501 0.4607667600645631 0.2548255693487962 0.09272846191393702 -0.5661997555319627 0.8174585196244486 0.01790005350583823 0.2401965793811156 -0.12155407310258526 -0.7122014112345998 -0.7139679812447288 0.45890757027420226 -0.4043426418890148 -0.35068675797871585 0.4990606109857232 -0.2402642243303168 -0.8773845038038937 -0.08740283635065338 -0.23277844223757116 
-0.2283478131874137 0.45442725130684436 -0.3400452921158097 0.725014980339288 0.6751236337963207 -0.07184659031095952 -0.6449333989043582 -0.8320571844450857 -0.5176994971764672 -0.702060334458082 0.9421026197098614 0.0625087306838894 -0.9384853221050318 0.3973077706214623 0.22652829101963712 0.7718264270027577 -0.24131170327436746 0.5678668972879526 -0.2338167393550099 0.15363607964025827 0.9858306709798335 0.3794089524967337 0.3000350475723965 0.5644809084224474 -0.27311922842837344 0.07455401969059738 -0.8966583522402056 0.7432497951511958 0.5537289576443789 0.6418156970574358 -0.9182157525915156 0.04924450663912605 -0.5496691913571747 -0.5458409737735102 0.9034583592649483 0.5943833870163331 -0.4895959610857683 -0.9941729023212182 0.016441963434369544 -0.5638937851640216 0.40427671233605267 0.43841481762840173 -0.9890157158939803 0.186998919464765 -0.5969654507834254 
-0.7321272044695819 -0.540809115739153 0.14910829186011654 -0.29680839487019717 -0.9926742643111539 0.10140464247146852 -0.6046276469735214 -0.1873117996906446 -0.7737058296518868 0.04731413158004005 0.09754248009323097 -0.1609029737029244 -0.004888734403845962 0.5211458683750159 -0.16057104273715495 0.663497234661905 0.6340286296539841 0.6041278103938599 -0.34374713049607375 0.18855353390151408 -0.7802905534993523 -0.5862629544248568 0.10534161158792843 -0.8830830021662179 0.39750982297024984 -0.7919251635518343 0.8003576774958128 -0.9538597472033046 0.7061519414126669 -0.9849610037457859 0.5307041930141712 0.05887994882602143 0.842096376603481 0.5597921754449267 0.3397025196392405 -0.5577636977243474 -0.9258759041083855 -0.49964697335563657 0.7495926743391166 -0.3123424161588506 -0.6356590228334702 -0.7200355890843482 0.6983573663949476 0.5029166570380883 -0.3399781676803446 
0.26622223530754785 -0.30717346606192075 0.21024308416446313 0.29141324878130526 -0.7292243587820515 0.18447028245814567 0.6097744959538447 -0.5561817527167652 0.029737522367357716 0.2387425493364581 0.15506673146926553 0.267988267030731 -0.22622700493250214 -0.8042100796861014 -0.8825170947855232 0.3510521313850776 0.6281611308941752 -0.7902057835234637 -0.691142964631001 0.990913245632224 -0.743046755473334 -0.6938304780943914 -0.11309154771250673 -0.9997488551006115 -0.0983200071482706 -0.0897114758742441 -0.21454030897522025 -0.3880347329188467 0.7638860879841101 0.6783648619434655 0.39158888631749766 -0.5338977588780576 -0.45789839350149286 0.900573042219246 -0.7655728224791778 -0.370987779292419 0.857685358529169 -0.25156148577436 0.6553874962899586 0.12868107244998273 0.2903044345300043 -0.7970142460618312 0.6971913979383186 -0.41411031471569837 0.7926423114006929 
-0.3729166933672461 0.7791371723633878 0.17905438665393514 -0.6347438391971107 0.6348799495667357 0.1186316502996243 -0.5986941548763267 -0.9536684246381562 0.16317703324402233 0.31408555429623464 -0.1484339096065943 -0.49258854779964745 0.46403707386544824 -0.9781492971576615 0.6470876089349284 0.8450039961863274 -0.8851189044794956 -0.7600448978641727 0.9531209129336662 -0.4806976600377024 0.08177938306742227 0.3539713373009421 -0.40392026274259996 0.8150775978575215 0.37359572214914527 0.8054294283921835 0.7597775243068308 0.6861332693709989 -0.11090441364258585 0.010766178359062684 0.36000998382857485 -0.6064600491071952 -0.3139158436290168 0.9888791457187298 0.8509637146705793 -0.04080623179688936 -0.908908269728244 -0.9520674976022254 -0.06236763037320636 0.13007420157467364 0.8200780282535292 -0.16286052170640786 0.9516259510446292 -0.7150991724578684 -0.4049205273012997 
0.08682545465061642 -0.5065385093606154 -0.48627909588846263 -0.3813230585193763 0.4401519521503361 0.35262649932309653 0.9622836920424742 -0.2923852053210785 -0.07753819997559575 0.6874100824041769 -0.5431109729031249 -0.11114561218834695 -0.2007170360052135 -0.020300600437170857 -0.588276384824761 -0.1742005692038744 0.841606310493179 0.37564216122989325 -0.9304725134719076 -0.4306173537456055 0.34713170766957724 0.6812792722073897 0.23776093382013053 0.8181573063982968 -0.3412459382862214 -0.49704503647883014 0.8562707704688628 0.12348909302776234 -0.6233603531445477 -0.19448580145670458 -0.031217937562893594 0.2903987541778492 -0.022179451944724482 0.5070013027591238 0.9693705291569339 0.601556504852917 0.13731432609535243 0.636775714275031 0.35639862707174097 0.4313850814732769 -0.312647722256836 0.05466525263883648 -0.34977427293429875 0.31917961773623493 0.8563800216546948 
-0.23802139507191966 -0.382667900612885 -0.36539437992936175 0.19707042786278994 0.43090404251336856 0.49232405028540094 0.5958911049278892 0.4426676815771753 -0.06297745641130659 -0.4993849964131949 0.5904799937802392 0.4235600868124558 -0.5996321631507011 -0.3415930577851993 0.49986838685334933 0.13105619451349582 0.5236684534047267 -0.437077273025966 0.04479813789820852 -0.9670826191713644 0.8621104487561781 0.6846706182025373 0.04393480923058202 0.8252786734787347 0.06716176946672991 0.5348471411220079 -0.08138926867747931 0.9481670866795309 -0.8822964019319615 -0.9951840165280559 0.7781671535132237 0.39690485534260334 0.08491558680173994 -0.839074397535494 -0.015118214328387447 0.6292635188877287 0.07306676566155801 0.8267593430325135 0.22442201749470692 -0.3016871299253716 -0.3634346226393621 -0.6037630881892249 0.7972169015413435 -0.8665136451949655 -0.805674730609824 
-0.5051829485707346 -0.9019062396294892 0.5474631345774024 0.7457088140744943 -0.6576226007375543 0.06597915976586322 0.4640452736850065 0.5380096414988829 0.970176214550577 0.7624163563784214 -0.557713909689664 -0.7563577492496907 -0.19437058560890308 0.17710492102175146 -0.785295627278306 -0.3240924231066862 0.5624637121772371 0.8606215383895872 -0.7375030879339164 0.10540717236415009 0.8601345387879986 -0.9510672615626226 0.018240012682680495 -0.16511746949433515 -0.45477305010569413 -0.42873381348213546 -0.2833507203688945 0.8484580900162919 -0.7011157670216677 -0.9776430140054089 -0.19345603492422692 -0.9280300201886738 0.7881377894846733 -0.5679590294087915 -0.20775864540629874 -0.9357341045390621 0.3553404881311599 0.9796196010997853 0.3901846641112485 0.8050648197911388 -0.9612673657077728 0.17737285882589604 -0.033314705928243704 0.6531673299112584 -0.4215012673785541 
-0.6129481131618479 -0.6347609536533949 0.5195120239802573 -0.01349861472777647 0.5351342317042376 0.4369542631873997 -0.16722519445025474 -0.7557943318164708 0.4570789229219796 -0.14479285947419562 -0.029086899874623207 0.7421373352459351 -0.5722290101208585 0.1257182929619789 0.4902577857875825 0.18554436021815657 0.12479911199210614 0.09582247164523139 0.7044609658296179 0.8647607617806583 -0.4768381860390942 -0.2782182019308628 0.9488090835345224 0.4250995103122128 -0.9655481575829539 0.37057018843862166 -0.7888845700198763 -0.4300712816541712 0.5805217249688199 0.5126358743575801 0.7186079242728951 0.4919148630042327 0.23108476606878448 -0.695273976983332 0.5409321884597278 -0.7487567373743211 0.5366618499832112 -0.7330633442382863 0.3025927606682157 -0.19404451886026752 -0.24726583604192376 0.025727798138455826 -0.30614234595180645 -0.05162906543642265 0.7779182288561339 
-0.07527650873832337 -0.37264376314702297 -0.9871123981913348 0.8184303601442391 -0.8023070068182039 0.6083018584621336 -0.10571387465016158 0.5430620880569759 -0.6468112867507392 -0.8305254708431256 -0.34801180373856666 0.8073409266453833 0.4378938905745067 -0.932197493601671 -0.22545008686824541 -0.09749613383178057 0.925811431757902 0.3475837147397889 -0.9600030393030803 0.7243639526884469 0.12300338162003777 0.3460920768028477 0.8314384222679583 -0.7408959719447621 0.18266845211658178 0.2505161250576733 0.753723263650323 -0.6525158640738551 0.09292380284568069 0.9108810363295257 -0.5542685972626422 -0.18409745010598733 -0.6702657710548265 0.27180815842593686 -0.4057796552594115 0.7522038944543943 0.260011330463789 0.006668896297433058 -0.6710247793648003 -0.043920111436764664 -0.16501744828026865 0.7208932685696885 0.4153395736272767 0.40836251057706097 0.631508169963803 
-0.5631032705461483 0.9590313586978558 0.9804620179392551 0.879102694389114 -0.018708500882690382 0.6994768404192466 -0.4553449567844037 0.7529954111522146 0.36575232650942824 0.39172403664360345 0.14788179425737136 -0.08135791647848944 -0.7138910021953462 -0.7366758900975849 -0.023835816176817293 -0.9193209610219988 0.459941862071763 0.08139872082324806 -0.5362906924162611 0.11938838137503804 0.6811593124800175 -0.023561893479163487 0.09021731424159452 -0.7096789385101658 -0.8092607947593808 0.8432041643923791 -0.8381362949211977 -0.08219673811160799 0.24601950034582631 -0.12456085242279324 -0.8141187291918559 -0.969370964975866 -0.3833733598171174 0.589910954493168 -0.674381140025534 0.4683205524683023 -0.8566669537577207 -0.44334795311645037 -0.13759291194792223 -0.8710841861401728 -0.5331615551251583 -0.02392167151101643 -0.4074844045366688 -0.7656792039476403 -0.4333274232945896 
0.2300021808339987 0.6519376882237884 -0.24315750848550932 0.8461205717892768 -0.4176178983707113 -0.6113070582696616 0.48059566628318406 -0.8427254406800966 0.3169787434385576 -0.40820934411423937 0.5640567334467705 0.3810186982787944 -0.22708332481785387 -0.362049565029432 -0.07488658889601019 -0.040041487836874 0.9754780289700133 -0.06837118951112564 0.28753927462466367 0.1280066834388376 0.8582827604177425 -0.6091450351963383 -0.6921007208478382 0.4885433449943919 0.4343389922803045 -0.32916932854050307 -0.1555292927812575 0.0637688465912194 -0.3027262572232252 -0.6807965810306058 -0.8651578510356197 -0.028926657915245402 -0.47961620867193466 -0.8786259199360444 -0.5835686234166011 -0.5220522385550934 -0.6300265310034823 0.5211548254299561 0.354240674619978 0.34516606561463803 -0.739224542334479 -0.808455389360174 0.532746883314213 -0.9113295106634216 -0.9449226764540242 
-0.41765629730052733 0.2239011662138659 0.07379491305201968 -0.056494019428256825 -0.4142180986498274 0.6607914582015595 0.20116549695065045 -0.2557502205257114 -0.6617127990607712 0.12659966941952394 0.3518187713512495 -0.4811739285880725 0.6159760883931438 0.311061901583656 -0.27021677337522476 -0.0736697546796925 -0.7166010781691365 -0.40827916493757566 0.7735711288561897 -0.2755695547473327 0.8195269820847384 -0.8351655417727097 0.40373198349522266 -0.1257996813182911 0.07192171664393676 -0.719113912332136 0.03182143047446373 0.8172100800279827 -0.9205214885261466 0.23221733414059376 -0.02315734106888767 -0.332875448786373 -0.9439082306351514 0.19538354979312622 -0.28157915670859546 0.29438461973382357 0.4420405245644643 -0.45158884805970545 -0.23832623920319018 0.5813772545098774 0.3068465772278952 0.8632119777882066 -0.20305482651298967 -0.5131732455251645 -0.673188709632085 
-0.5840101127349606 -0.691729655502737 -0.018031848008661866 -0.9376104621532015 0.7635519257542425 0.8176472656372678 0.4073921461724601 0.32501232792417256 -0.29898513402071747 0.5478882110374625 0.34827897412088227 -0.9500764086252826 0.7464757823962769 0.4450317593736002 -0.26293387818944924 -0.7189514044093659 0.19079405173495045 -0.7780032276642945 -0.433576093622446 -0.37413419267278725 -0.2942904451872175 0.3683638639295521 -0.6682595204898463 -0.14729390212897875 -0.4789000662077285 -0.08312737942589798 0.12114579359429123 0.17985657149023115 -0.7377406298780733 0.16542590471697305 -0.867567223300947 -0.7546997141903449 0.6806570972775694 -0.4759035581332167 -0.6799385577744403 -0.2521252887953864 0.7167141235543679 -0.8101672786844722 0.8617603578829567 -0.6849134815378985 -0.39928654366832994 0.44726571336060017 -0.8169323589728621 0.2797718419201678 -0.971962234546796 
0.05221977532592548 -0.6105181957916896 -0.26275399382903397 -0.16249336534193692 -0.6247642802593536 -0.8702788923960318 0.5065379736653828 -0.92333676304385 -0.23438463960492273 -0.8500817141589643 0.43375950153562637 0.8554386841629287 -0.05779844822719005 -0.9025954673487233 -0.1473888016101701 -0.03029924296097697 -0.8746898678863568 -0.5059327539685663 0.9564810114152724 -0.08122912048408426 0.09493310131504629 -0.7769090988352438 0.3385438991566796 -0.35392736539161507 -0.6064638303419516 -0.6407788189883821 -0.9792755633960297 0.09965185382957986 -0.5125237630297808 0.7215195290437153 0.9193375719854808 0.5393876212468063 -0.14073197308179686 0.13890330384578609 0.8846750995927357 -0.5897089035915652 0.7236319512947853 -0.9074047357939108 -0.7962404791135036 -0.4436331558118507 0.34345835751203846 0.1359337951528472 0.7699392607724311 0.5670905860272049 0.7675266786373274 
-0.7091759328782008 -4.694504925328857E-5 0.1286340222019502 -0.7799791752521663 0.48143772846713917 -0.9814563420017255 -0.6054532255956706 -0.6574143211706582 0.9895971202379292 0.6326546417521484 0.5956824957026174 0.022872180580868928 0.9026084476625591 -0.8183022622638985 0.376735559219854 -0.36077771652906443 0.5731360106499563 -0.5226704881845503 -0.3231685689641821 0.20934692497995755 0.22203791633951675 0.7356313726703914 0.364193131896013 -0.8484444294139135 0.9889118060447548 0.6565389150866112 0.28998395377518826 0.15029599761671508 0.9714272354547449 0.6198196462094268 -0.0559957780974496 0.9634688024541296 -0.9066501320849647 0.3438515523394532 -0.5250008015472905 0.9171828983919585 0.0024894004363429367 -0.707091443249954 0.4809114125666254 0.3043210880839946 0.6236337138092591 0.6206109370425841 0.679491551096528 -0.06351061093332966 -0.5221430572788768 
-0.49834709078702666 -0.6627428455425204 -0.3053749627284712 -0.5715802124821516 -0.6691277910017706 -0.835131091913216 0.08174299532018581 -0.8751929813050454 0.4581796655658954 0.2795713019595214 0.5020025249797269 0.09027571880283403 0.8798201105734971 -0.20957747265134308 0.27347934067154567 -0.865383751753533 0.6208888116068174 0.5796168868887746 -0.7722684435003837 -0.42734489123650055 -0.5790190535188848 0.9332815023872467 0.15745136767390555 -0.40964179135848355 0.7743046093935118 0.8177060457955121 -0.6558037223741828 0.024220483672003024 0.3775410872963709 0.8020438242358883 -0.06860159668786614 0.8059554835974256 -0.396810692507245 -0.10390069345365771 0.0035525689615594214 -0.6266720548901423 0.7430842267196782 0.9018965700841992 0.8906867812867807 -0.5407006926251527 0.4562323423479384 0.27030010612508515 -0.5620773754071577 0.8454848463148661 -0.8929395852925044 
-0.09096181796473912 0.7631356784691314 -0.09775098330934973 0.4946269688282978 0.9060574621236404 -0.6285704613637895 -0.9634060221340921 0.8502985847427074 -0.2877854746079562 0.40333950568149235 0.5303239181360042 -0.07915284045674631 -0.030110778794845583 -0.7356140295479161 0.6747963823767167 0.45587596989621604 -0.12081775873456246 0.9168001971630391 -0.40510002238184417 -0.5170625886603197 -0.2390620125531817 -0.2900519836637585 0.703725104134312 -0.6193437995433335 -0.694089140613416 0.7841812306136946 -0.6592760157864457 0.949627329990119 0.89197300321079 0.8035477177314654 0.8199826937078003 0.43280880722779624 0.3063372008170333 -0.9440033225271167 -0.14844250935730363 -0.248415697957991 -0.7726502572761265 -0.19458360824560583 0.09765487777133508 0.10062292164813003 0.9004833427243237 -0.8119531081917897 0.4867632870624712 -0.5158837708559221 -0.4142598815145906 
0.9165112157017883 -0.16732718816439673 0.7779272262802635 -0.44124786314749476 0.587914033162785 -0.7083534237240738 0.4666368440584221 0.7154454928176879 0.4881575940579628 -0.7601635099556041 -0.6685710978790316 -0.8397887292668593 -0.5571704169207985 -0.7356363780436013 -0.9457937457733265 0.550105707602726 -0.5142801262219552 -0.8646882851705275 0.955283998808391 -0.577320360251107 0.8992262906896722 0.8622103807126373 0.8964594854185228 -0.7473845248464708 -0.47338704873003024 -0.7625867845185634 -0.24178833874680383 -0.43757236995716386 -0.8357124733458039 0.6301032190396054 -0.16076529724448285 0.055061715792707355 -0.6870328568652224 -0.7815133686457814 0.028465190112890504 -0.5586957987829133 0.5998057804816814 0.3340648965338484 0.6642145819929817 0.40249382583650095 0.7792587895823195 0.1407011888016605 0.6219715202699891 -0.04089657320365392 -0.6213362873504247 
-0.5174723070993079 0.3618926424634292 0.4083392545630302 0.7752194245179318 -0.591433541883948 -0.581047502935389 -0.051017348756956515 -0.22575078656513847 0.6182663683938405 -0.8668226857902654 0.12927746164758358 0.6043354000719006 0.8709849152589895 -0.7056600632264787 -0.6662552424131003 -0.3468819264129268 -0.7362262558145287 0.8149462212636907 -0.33261612631545234 0.23825129130559364 0.20565332212536935 -0.45270281946605007 0.800797583624113 0.24121588266895366 0.9028909813597861 0.924863081069192 0.6073574328194293 0.5273885665347318 0.21862514186921267 -0.7648402906505063 0.7536022505920903 -0.2660279401591623 -0.11849475928001008 -0.9792299850699497 -0.20335692701148944 -0.7719068678742613 -0.8081532800899305 -0.6428929921642121 0.7974232187575012 0.8205786610945067 -0.3898727359623517 0.5699673565572994 0.9762627018884293 -0.8333765988815882 -0.08852068696175652 
-0.6671215917439739 -0.48280698898468266 0.6927658395324707 -0.048838545373725895 0.023693589683224214 0.2701664265045747 -0.6397083846376526 -0.4901798110240867 -0.27815446536230537 0.805303211942558 0.6083873924599714 0.17368065514138187 -0.7078817382238105 0.040916631745113285 0.4160712179097714 0.7536343870740656 -0.3722464132177261 -0.502864914264247 0.5801278993566295 0.35851839420395515 0.3151598938758957 0.11951815502681962 0.026982304997631434 -0.08828950338723351 -0.2655559309418847 -0.427858266599767 -0.7403552496154182 0.6364910530693089 0.9244415398680406 -0.08279433865775987 0.8865681182743805 0.8344522967044332 0.4178712782940537 0.6782945514749681 -0.41254290895932866 0.14256223219997244 -0.3083033142297291 -0.5729977485840891 -0.15822519968060145 -0.6216807284590817 0.879725766611569 -0.7622934465890014 -0.721105509128783 0.06876235010985976 -0.04106217057598749 
-0.37713930939877693 -0.3954531772324834 0.8079279790945197 -0.2520238750624173 0.8912448539511821 -0.28358262324191386 -0.30132473739996746 -0.25429991156263965 -0.7357998562637615 0.8424508316272372 -0.6913727278874258 0.0896426457624071 -0.46005519687650764 -0.681377499369404 0.8063049794568105 0.7286727281165799 -0.3863489595935643 0.9686404532155641 -0.7576404567691644 0.2811147026232572 0.7410387407478494 -0.043755069230997146 0.3021346094592383 -0.010969206681374688 -0.9241794166963477 0.45147419435042324 0.2796207695278792 0.6813247641279068 -0.2835888720881812 -0.514529880323837 -0.49080952334378813 0.7227792442239114 0.2648907641699856 -0.03590079625899123 -0.9596686057647126 0.5530910439116727 0.7312930412163183 -0.03113229840409515 0.9519231364289265 0.6094227485372175 0.508862517603011 0.19431357956000017 0.3764311040479149 0.1779420470690214 -0.898991483596429 
-0.34573997868827355 0.04071887504887495 -0.9657273490525462 -0.701742644329568 0.6350191705741193 -0.07099044534984711 -0.39026538787837817 -0.4164148539768464 -0.7181623715503545 -0.4651470406889353 0.859704436266939 0.6870899795000718 0.17557795814832144 0.09278590918739393 0.012378694162982207 -0.5839585673504568 -0.21016548459859874 -0.8333015565299016 0.9406779670401415 -0.846076684898547 0.8143840410059002 0.020749465816035872 0.026981009782137244 0.7521630191849471 0.98907519898138 -0.689998363853985 0.07983251564150784 -0.06918030689770993 0.31296414614702583 0.8017737175205841 0.11371999964497581 -0.240418465442803 -0.723293441956083 0.07503801952637335 -0.38253004056289885 -0.6920002760357329 0.11191891132541221 -0.555983298523524 0.3137649594925789 0.1339667011315362 0.959426631482476 -0.2865395761139473 0.3517378759076075 0.9220214409720198 -0.6709826888573303 
-0.20307976553307028 -0.6234485472915519 -0.7118540363132797 0.2565230355176158 0.7156518043386162 -0.015674555628565123 0.5352929165885802 0.15975699370068308 -0.9553804345709085 -0.30227415968716875 -0.02603695376651527 -0.4469665419850133 0.4833956894394109 -0.2130154084399556 0.3147301943143097 0.5007033320052428 0.9035776658643577 -0.9869290925744207 0.5946881319038706 -0.02665933477714999 -0.03932348555619636 -0.3158115318796335 0.11737307109032225 0.11591848184631082 -0.8427453389919803 0.2937258243870906 -0.03420730358396784 0.8455147319901013 0.10542211907917931 -0.5527591593141437 -0.20922833983180933 -0.8332055128554674 -0.3393734818150178 -0.21198747411309649 0.7819007217675444 -0.8732855310817058 0.5850013527910027 0.19514742860859857 0.9959556585393301 0.42560197780911047 -0.5526352679569184 -0.34481949050688177 0.5477294249699569 0.35996151746786764 -0.42171106678888437 
0.8975628743021393 -0.439200408427441 0.9930669662770524 0.0724894988641811 0.13638385056574287 -0.769168428795677 -0.7674015542778585 0.06711018788419021 -0.9248747147417089 -0.12840465199437823 -0.15971126680845527 0.8233091478246999 0.708201704790248 -0.6060478365162578 0.30674421152115183 0.4998783465411478 -0.6075090212948537 -0.6893539919039287 -0.0046889449302780495 -0.06854175310006183 0.16401509693662408 -0.9351881386752923 -0.007940884569559659 0.21023634340321218 0.3393818885101807 -0.7523078560331524 0.6946590044583636 0.4188467489525076 0.06855327873698513 0.10112957778659104 -0.668868090097712 0.47351655676462956 -0.30504177940779553 -0.4070161650072728 -0.6798457838222807 -0.28966732979496346 0.5309208600627711 -0.6913030796945658 -0.33219861919039606 0.583829893994755 -0.029171138850478062 0.4198105458384582 -0.5586789561329075 0.6459312477827412 -0.2585807503856743 
0.07031685017558598 -0.23127509620281073 0.8345975150970919 -0.4719882187586468 0.6643017970703704 -0.2163041105152308 0.02537236817146038 -0.7825255115275835 0.7434191814018616 -0.5314931570264536 0.785337452332169 -0.4368427450457377 0.4103105822371802 -0.5566474080880777 -0.6821807122174508 -0.7960159856533262 0.5841652490722775 -0.591301107943395 -0.3024813707197007 -0.3406536119896164 -0.2328077025709947 -0.8320442748205947 0.6695609590108706 -0.8266051279958111 0.45585432327056563 0.9409847635605384 0.5222944921476236 -0.9032228070960899 -0.1517081028304681 -0.9753449350039096 -0.15750938955174876 0.87082580340512 0.07944423278896084 0.7648624139218043 -0.6770704535469771 -0.38134921807156563 -0.14204871730887292 -0.7248666427802661 0.2161826711212227 -0.15045413286100362 0.08399908758485286 -0.6298646392145997 0.514730073126149 -0.15242944506845846 0.7948499493722245 
-0.22188023221949393 0.486381119549089 -0.0578779644102656 -0.3851243447290309 0.8545263548552737 0.8052930771133793 0.04776622300234612 0.7794909738925808 -0.26031842016814966 -0.8072885482007315 -0.3874519829083036 0.7574622193558282 0.18672566288444759 -0.7821158386233438 0.42845582805043336 -0.48635506424794106 0.13160712858641443 -0.2915716192395248 -0.3653326077452561 -0.4657190470165091 0.4851861364240406 -0.9192412778912729 0.6836577335923484 -0.12043517771598822 -0.40180860777769656 -0.17498727259060987 0.042202790179972194 -0.2667323194071658 -0.6170219171340374 0.3652373517648395 0.9637654933843534 -0.8132168143944247 -0.8282618915140849 0.5644292139600309 0.7957043874591712 0.32504046357672434 0.04901624750891109 -0.7446511526433928 0.9741977967350153 -0.9256946394048333 -0.38291029873384974 -0.648142408508648 -0.8882704102098453 -0.2730297285862924 0.9359711036185869 
0.3318532454277048 0.39643611401428 -0.42398925750360483 -0.2745017539836707 -0.8182895638311449 0.8995665979557119 0.6718655766839454 0.8251774595663326 -0.7465429556392706 0.3267625839193018 -0.6429259294064689 0.37814969707176505 -0.09025074310580705 0.25081489519005973 -0.060916028470759276 0.23885259491826938 0.3180332589523023 -0.07198939789908687 0.629220161970377 -0.3003459456036448 0.3041116375509416 -0.5728659983251172 -0.29411695369976565 0.7899364428208178 -0.21334080193735172 0.9896405484028776 -0.24737597310347437 -0.8781863816996602 -0.011937587313805897 0.2914742335434133 -0.2231773704271831 0.5398660752581623 0.3532837609105388 -0.40854672376942225 -0.9677310991179846 0.6779822331800074 0.9072805716160235 0.6281011548613435 0.44903198628250474 -0.06540217190858799 0.6428371577209973 0.5662537267954775 -0.28342499588712267 0.34832786253658776 0.4544949046956335 
-0.7032735980194158 0.27115310458334907 -0.6108114673065304 0.12059587847677355 0.9567773066531766 0.7061110119656226 0.7763109045867964 0.8842810553177212 0.6660577161240679 -0.5462264957326501 0.09124896757194789 0.29561454888228655 -0.8378085938174493 -0.01979878877406427 -0.8233091261556682 0.1508317545834894 -0.7279198069546413 0.1891610533566166 0.09358187596265455 -0.3989619811683165 0.9694845931156699 0.24924069823865325 0.7553738430836285 -0.19848651664487793 0.14638160052243077 -0.3618875475339365 0.26631696243140723 -0.1658943943882254 0.16505614188805384 0.8405311018759727 0.461413345570975 0.05902180057015549 0.759833966244468 -0.1582708598524183 -0.8211442043880106 0.5386603751954993 -0.07818182040078847 0.32544899383587755 0.3914769084568792 0.7249475543464374 -0.9730555194338528 -0.6840680043085852 0.4819382701587822 0.2129758159903541 -0.34287717376903637 
0.8957603185239096 0.6670910215229195 -0.9624329656780279 0.31618724613600113 -0.41347213756121737 0.8601440169778869 -0.2742876735385571 0.5568273698727171 -0.0031076655219788307 0.10497696549670565 0.11666793903163608 0.9116297682395125 0.42264059428482215 -0.8748591530510559 -0.17718411410526147 -0.539190547730164 -0.7740235259045529 -0.4992101578078101 0.12822420186390127 -0.12883492288639675 0.026318590443449974 -0.48000744078098156 -0.8918278507159156 -0.6947550670847493 -0.9975260436519708 0.8465735138110144 0.8017319219285792 -0.27333660902566836 0.9361315658566982 0.8048389294376563 -0.6191725733633062 0.8169611073550211 0.01919697809965637 0.30224380856329613 0.4330188622334392 0.9713549113690398 0.9025693716863112 -0.8057394780611329 -0.28841040603442414 0.6551772475734243 0.981537899857533 -0.7585873745622669 -0.9946599851795481 -0.22024330898071787 0.49305479370629657 
