50 45
0.26148004792527857 -0.5658482580940336 0.5660816810515106 0.8666507281576792 -0.3825077594560866 -0.9635903057135113 -0.797732517693142 -0.5150992385977695 0.4783375614734895 0.6937424911299577 -0.1647710730441394 -0.9748912649886283 -0.748957261870411 -0.2940678831551793 -0.9496578414429819 -0.5779694086374902 -0.20525444368162393 -0.23952648313796754 0.4185228880183738 0.7731173167144731 -0.030696853001451307 0.348861144340445 -0.7251758867367406 -0.3243750693943044 0.4074437692926811 -0.07458410065049126 -0.6329084537512766 -0.7315471633241089 0.38991676513043494 0.5577366760504596 0.6847966242993937 0.4475229066145001 -0.794949566320035 0.5229396906794175 0.8113702212535534 -0.7901625453976027 0.438578896061699 0.0714257953742854 -0.2609374322573079 -0.3698161130178148 -0.7334467315392865 0.4099944875468211 0.24355855500556278 -0.4142185900906623 -0.9863950443044187 
0.8487026459306086 0.636280267996379 -0.9820069588196645 0.9907824785857446 0.010941483670312335 -0.004487404234663872 0.2565551059674469 0.9416360497375642 0.023786372403011624 -0.17681035690124425 0.7306032109644665 0.3021772461294503 -0.3142499080360335 0.48238376834490393 0.2521035730676169 0.9197947123281773 -0.2483508082112751 -0.2587579098378796 -0.018874969725324986 -0.12184107183931459 0.6793711313396602 0.2823175088292387 0.16871595504069714 0.6396036529072326 0.4509078006437659 -0.8680539565832062 0.8219788224622133 -0.1565767988569382 -0.589900614873039 0.622523723473698 -0.45273783471949924 -0.21202067728714247 0.45211028828702804 -0.2787593783767095 0.0012193365306791826 0.8764633693246588 0.3547377793042512 0.3420321330156857 0.6158096104268316 0.12061334166449811 -0.440769207018892 -0.3967894360733517 0.5621474611703123 -0.826361954495614 -0.711624027372878 
-0.09855553159655539 0.2794322019625175 0.3030541781785496 0.5321849204186198 0.1434540215497695 -0.680980304847969 -0.7839051297079531 -0.86340440805346 -0.49000358473252215 0.7400242708591986 -0.285198577688792 0.9981781764329485 -0.27758352109441176 0.841669557563179 0.7848634931504967 -0.8020851995053004 0.9402414966549355 -0.3710680219451148 -0.08827461249609181 0.7996996136983254 0.1390028632632414 -0.9181479110193531 -0.8305701163317005 0.9942845665415063 -0.8993306407812178 -0.9647857750495721 0.942124157808524 0.28697391291365326 -0.00521946459723277 0.2741247180925068 0.015104436392054721 0.5074491562868391 -0.0634282896354692 -0.6876534343212535 0.21173106918743678 -0.43731645310799916 -0.12091452628674748 -0.7559233567583761 0.7544966976260183 -0.9410163494747943 -0.27053298445931007 0.046179395177059934 0.09298493548074438 -0.8132257072463207 0.6753444484770788 
-0.2432804585336159 -0.9315908373729693 -0.4081798404182482 -0.6346019474581039 -0.9330360404805509 0.9738750390602351 -0.6508438868261504 0.8089255136963489 0.03785162040155621 -0.678537907566138 -0.38892346556595747 -0.3575864934833144 0.8882578648713471 0.9416744335587832 -0.9818880582743281 0.7568290320588622 -0.8987919210658373 0.41776273753214554 0.5419986971756063 0.18754676377572044 0.45552343780819293 -0.20312706205514375 -0.9277728467708282 -0.3604675604317764 0.014210066483185235 -0.9780693059234091 -0.237170013595688 -0.9463954962972596 0.5872304494470695 -0.4073770330005635 -0.07634802897523096 -0.7846994965005374 0.7351247150596627 0.5907923179356487 0.07041987748794765 0.5660768908583818 -0.008723279953665175 0.3950109036684004 0.6405093387619016 -0.9027258837080259 -0.34555093586710006 -0.8389432581558118 -0.1636157337039863 -0.5095170648453851 -0.760461808972124 
0.45946541491178894 -0.9237390294423082 -0.48635030803446044 -0.5266703074998695 -0.6617146072507658 -0.38836995112087025 0.09046236025394716 0.5833615191409938 0.5186168917379768 -0.9861564740292024 0.4312621033631139 -0.44816863107633154 0.43246858281444545 -0.5629434119835812 -0.8530724966323464 -0.007188132492682131 0.3769186848872772 0.8323883239999739 0.3628833013119419 -0.6401332407496918 -0.8144796887908345 -0.38175375223069286 0.5085868399269267 0.3024874730508005 0.5073442423471766 0.7043360508141661 0.6785493900939179 0.16359950339921037 0.03600528228139832 0.22195687008416343 -0.7558465076115668 0.8467146038253435 -0.1545284496793604 -0.16924002026821183 -0.25877174438673345 0.5801338771247682 0.3664092027347343 -0.9477717297259152 -0.03344943003208911 -0.5330652609361501 -0.5237320741527647 -0.2772908269428269 -0.31285922602780025 0.13330256217914438 0.6782660206818729 
0.3639157893350349 0.3994261472203251 -0.7259035917304837 0.4088873226577425 0.0363850203790701 -0.8289521690469202 -0.5566340367016058 0.14045378014237486 -0.9285371243814968 -0.24370972039681282 -0.9511350324142038 0.13479318356082248 -0.030036716706246525 -0.10318460964380138 0.18343511717750727 0.4559720237003948 -0.2892744002945542 0.002586580819489148 0.6624616023764376 -0.8354814311912513 0.7298741517914331 -0.7464291301281751 0.4354303950619025 -0.5074867635461118 -0.08833885049051649 0.5710110730012412 -0.5990549124282354 -0.7616231529394832 -0.9256475624349578 -0.12223778693055598 -0.42161077868755714 0.6221406232211164 0.6396934329715316 -0.3996098062198621 -0.42425155592120367 -0.5935653067095141 0.44207137805557495 -0.538566651683485 -0.6580652735505561 0.21538484624639032 -0.03643238814357952 -0.7315687475483776 0.3032829052242796 0.6730608441736519 0.6736715357431153 
0.6270275871224418 0.15771821430603472 0.2350722984929443 -0.3924932314805101 -0.7113426168083479 0.8364216146502979 0.40136183375505596 -0.16600228484523516 -0.810967868820557 0.4416474064998257 -0.6248028625664748 0.04548239504326412 -0.8581606810430471 -0.6693239790255106 0.17281856226578562 0.14285667849963968 -0.37722435707263036 0.9397136865799545 0.6901499375486493 0.3954119811179926 0.11223712181283618 -0.5721231011037775 -0.7025647959848667 0.5221074946173714 -0.939308264010231 0.7702303815642662 0.15961526094892253 -0.12890432681176778 0.6989636121740774 -0.4598272316543346 0.6697134280528583 0.7668977640862806 -0.3636391083487931 0.29529442405519046 -0.8655494278023015 0.04970481930325654 -0.5272172927912642 0.2171584013163157 0.16576422729266094 0.8488573614625661 -0.5033568638174899 0.45428463964312793 0.10885922888414568 -0.28736540428911495 -0.05134548480145407 
-0.5210544527719978 -0.7231298639242809 -0.6409366303696524 -0.6977862383334834 0.6922082130243656 -0.2358302196920965 0.5175336935452897 0.5443402619953039 0.49798849195510986 -0.8251901512566655 -0.4014125848997665 -0.4631845466888782 0.11570832422259492 -0.2704656196687969 0.2593228593170229 -0.804620969522664 0.5124771327100108 0.9042583619242439 0.3244386769048997 0.4455380479197628 -0.9904541654556069 0.004858442451503464 0.9780155208755643 0.6967494636512748 0.3541099603990341 0.8975744891928723 0.6587151935396633 0.9224397782444478 0.3463666874544016 0.49127450706329645 -0.3288474541276334 -0.65847207943509 0.4730591399026327 -0.49271111429475845 -0.8312247644207442 -0.8321787572073653 -0.577431991691312 0.5744721956423853 -0.1313362465529062 -0.07314300436443455 -0.15705916014369192 0.7516045059746199 -0.3737579312266437 0.4354657620979696 0.25307544730053366 
-0.7938025844636116 0.8279686582987038 0.6975353094144767 0.6286028384711739 -0.03177756132147014 0.45265383054860897 -0.30984253466568146 -0.14215586139047254 0.42923300301915934 -0.3928708278278028 0.29754249629278506 -4.582327908269068E-4 0.571805175769649 -0.6404280509721927 -0.5042093360250264 0.07289583500936714 -0.2088270002826058 -0.22613383922259955 -0.7001891216850897 0.9717630470319596 -0.3896093974910686 -0.8090406046396994 -0.045617562478246 -0.9812956027898443 -0.40769625155508016 -0.9917468078817904 -0.6154431881682418 0.6608955959163909 0.3160680057342593 -0.5243573395896994 0.016300781011826748 0.8587428379405224 -0.5870963093714523 0.3568992997428617 -0.2635156266487362 0.8293739004196463 0.3452298489189549 0.697668672091333 -0.01797852387665233 0.9810036381093603 0.8652747384366024 0.39643351574836916 0.7311729557084128 0.11049990251594899 0.9037108646531977 
0.7923699632482339 -0.484274545557543 0.23530534133741488 0.01581762533465003 0.06410375700890714 -0.5190371732797718 -0.20780254159932365 0.45212751274810414 -0.12404960584030311 -0.008950349200038232 0.35919802336702555 -0.5775365623727156 0.4133023575252941 0.3106494316863282 -0.45672846263822064 -0.8132697960382995 -0.28359631841967414 0.4893036367808785 -0.7747207431677365 0.23277434165810318 0.05183096447580282 -0.26669967201223566 -0.03501521669616081 0.9910805179826818 0.9535776791451354 -0.7295354594231513 -0.95726556550353 -0.7119741864651414 -0.4792828942333962 -0.003493766500675788 -0.6492359012369966 0.05386621800254243 -0.4238034432526805 -0.9627371437910124 -0.8540872712872716 0.6785825664880551 0.37139513176091987 -0.23062026565870042 0.5368494716667811 -0.15183339656365225 0.6636534213808831 0.8126714545760814 -0.4972481501402968 -0.30411896592706333 -0.8009362951252588 
-0.9593870302268692 0.22669765997344804 0.6674801537565551 -0.09961413021433763 -0.24888934732456547 -0.42413591149757046 -0.3736690529501543 -0.6099671771597586 -0.20209223475087623 -0.3280464346073424 0.4138279735756245 -0.12935246307303006 0.7036812511199306 -0.33090431355659833 0.33244807239135366 -0.15912776359963954 0.559090082781613 0.09280103215349578 -0.16675573821507195 0.6414869534556569 -0.14226129077700844 0.39237248334954056 0.06653114398946447 0.4071746793693689 -0.6747781426995845 0.7205063043529245 -0.1060324317945538 0.6417473871284367 -0.7288794683122268 0.3776443460563821 0.4621950982147749 0.3397452204799163 0.026022013648142384 -0.1550335410038568 -0.4973557457271549 0.34489968168884144 -0.3786606939846153 0.878740477868883 -0.8509266988258173 0.46603022945718164 0.027909837208343058 -0.24992506932527703 0.2538576380903681 -0.23647976663095194 0.9900544332439443 
0.3879484874892134 0.9360012533480611 0.37459820551378553 0.7749829845443654 0.9197171453486148 -0.5917056851220606 -0.7367726148883527 0.0031342907786855445 0.9021296278153184 -0.992005824668577 0.3604845450957701 0.13324215965649833 -0.6027916059209486 0.7948610586451061 -0.2961118150434967 0.14662191462840957 -0.02881740749770345 0.08233103486580373 0.3892132570325244 -0.4916242891892446 -0.31901316993200624 -0.16793565254081821 0.41590808833719284 0.5789165805584262 -0.8383315555568451 -0.030942297991553458 0.8373078956360571 -0.6925836923426849 0.03937337712443134 -0.6360351100439068 0.019416131877461718 -0.7405165672978711 0.06840919817143587 0.48122109227094034 0.2671043473734669 0.8145819850165041 -0.3727878667322342 -0.49397983595922335 -0.40584161805039165 0.7144042394959185 -0.4931273845588855 -0.8598520170482999 -0.0063223328477954865 -0.9483857654090233 -0.7127973447427665 
-0.8038732357206673 0.20791157463761611 -0.740918798037796 0.019155482666522783 -0.37892054647639606 -0.29830411703596105 -0.3070738984657704 0.41873736503089076 -0.3538242075527951 -0.6887701155225969 0.9984068793040368 0.32637812319279447 -0.6155250219721184 0.8700128606191948 -0.39412826966226966 0.7970563430116258 0.3894332814506902 -0.9936627398423532 0.42471205252797306 0.8603024875853913 -0.5617025667400437 -0.7381868079799432 -0.9135490720855961 0.7255318104905661 -0.8809416344545968 -0.3020221973824422 -0.06619521522617955 0.0069864407987563215 -0.32340753044694814 0.2381210049908118 0.3607606204744329 -0.5961047336000764 -0.986928470204294 -0.8659635699900363 -0.9205874562286538 -0.804713306279218 -0.26032600031642206 -0.8475141183701578 -0.5774940176904295 -0.10478058322712913 -0.2589143035977848 -0.6562572927025698 0.8863403023758945 -0.536977285168925 -0.15877126883653103 
-0.4153422615022393 0.7768834856109514 -0.42553274874511704 0.8481124659402324 0.4812702488625553 -0.9573431746703012 0.6336144121964149 0.5076523468096796 0.6710635724858325 -0.8388513356622358 -0.5585786860650297 0.7107560774211141 -0.9174560390474507 0.2912218644857405 0.7360058768379045 0.6749294392921419 -0.7101013739677455 0.8121807369536385 0.18080523973917417 0.7611074201205941 0.743067964472917 0.8408667835653265 -0.19931194780098682 0.08836961083529138 -0.6413560036374724 -0.6486428060275038 -0.6475897390719545 -0.8263490855941942 -0.2754136691600986 0.11754063433165696 0.6646318011851482 0.45051334879175364 -0.9981762062356481 -0.14294987739830778 0.5940387996439571 0.7104965199992179 0.4983895161099887 -0.32426500498789523 -0.08205437868805432 0.2625183150251109 0.8468138288698026 -0.8049429683025149 0.22007828318364986 -0.07975056440850903 0.733078730404263 
-0.40950069027058933 0.6250685406597576 0.8043403899772397 -0.7944852001552392 -0.8227209032899261 -0.9014827765639455 -0.6141699686364737 -0.2653993340900873 -0.8496403029521913 0.9533122812587582 -0.8009792200906047 0.39970191475487726 -0.3810412615329446 0.18921611601550126 -0.7834436451876996 0.8463655804358994 -0.8285463332511338 -0.6584357194154109 -0.9936078278131371 0.9878641137231365 0.8647892319551191 0.6262459008849397 0.4798020047604943 0.8172604892528355 -0.2468071662254634 -0.6580355194027696 -0.7084838141304919 -0.8486551589505389 -0.145790861882654 -0.27289413055297684 -0.2324584201659352 -0.3546292844861765 -0.2042332311932109 -0.23263209286330677 -0.3868349720277622 0.9975971295760708 0.2961934948667051 0.8116346390661922 0.5930964217819554 0.9052215966897856 -0.9001999702821712 0.2774065600558322 0.8776594983495802 0.03836543920735802 0.02385472424588908 
-0.786574560750321 -0.1866070953744201 -0.9336463877828021 0.3684751110289204 -0.9640383316716097 0.5033757022254279 0.6006066691412846 -0.9008342865252756 -0.633441071880781 -0.2279540248888834 0.8110426254836296 0.9324335791292451 -0.42713991616767943 0.8412335520953071 0.4279631880524113 0.7381173562630416 0.35046602019776385 -0.6414193128094372 -0.14102165856377025 0.5177680260846744 0.4826066876103585 0.29647916470247915 0.2305998100452542 -0.37337703257323906 -0.22426690522320025 -0.3208967113848207 -0.6932866565091871 -0.12258242827610655 0.09296534551151225 -0.9029266741555957 0.44121766492619696 0.6974827661559089 0.39366184237114643 0.5337356305473917 -0.010305097944145247 -0.3937211535228269 0.7362010469746672 0.15399948471654046 -0.06494252824205415 -0.06128009780083232 0.31239678907908996 0.3961244135712991 -0.12530753030798492 0.9603456763935496 -0.2442044298571282 
-0.04119727960689046 -0.028295774528396933 -0.6963985859712332 0.20243244343034617 -0.9096616891490417 -0.009566959679665699 -0.9998108505080323 0.8814497690055043 0.9636727696227756 -0.8834935537497297 0.29265611479096143 -0.6256868795591339 0.8604651821711662 0.9042573620055308 0.8790913891802732 0.10518364856514606 -0.6106162046647561 -0.6005778942326092 -0.7219980840626019 -0.8886625976418618 0.028221987476238608 0.2526085697799314 0.596145026822001 0.6913482624995231 0.9064026290310592 0.46910370944148805 0.14029561252273082 0.14008003749626452 -0.06611010323643218 0.33316698799369004 0.034630820016326336 0.45336112085597846 -0.8655211927994586 -0.9999647104595601 0.2886167906976038 -0.3784562120125734 0.35588727945326504 -0.7335576740698877 0.6059863772466108 0.9299773392083348 0.4060283584615556 -0.8894664352204733 0.6335990452951354 -0.4542464042846588 -0.8957075110546184 
-0.2653631775433505 0.3196779139222645 0.5939100496564369 0.7386242592307037 0.04942570832201021 0.5841208981969179 0.9126057113677786 -0.0163702039617295 -0.19440870639272068 -0.4007118654201931 0.7256112471157858 -0.5380945002835289 -0.09078314100500884 -0.36213166122203333 0.5817841111702535 -0.17976983659783707 0.8496265212797423 -0.3348678188309899 -0.9149729765887664 0.44421793136865784 0.6235588490538218 -0.36391756490092275 0.17455683133680533 -0.2505200087358963 0.057092816111866895 -0.19628554093205564 -0.9858618906975936 0.36429882267146496 0.006833357813633034 0.2528036540239633 0.9102646789104245 0.45826969041109633 -0.4355599711923226 0.3443390407120308 0.10309990047224482 -0.026681899300527778 -0.9063378881293398 0.7889261154122138 0.7603149639302047 -0.4220444744080203 0.6966205598554536 0.6631852216845391 -0.9472071868994796 0.792588101015747 -0.4638441935876776 
-0.15862665594036351 0.8024922794641043 -0.07685396591806959 0.33363801443746577 0.03516240436859852 -0.13340307846369637 0.19225535467428556 0.3167154263211909 0.9177092064730255 0.15839949598503633 -0.22837358221337367 0.9090536203398836 -0.34614517397429 -0.9957976355588296 0.2962858921793201 -0.4658028203642015 0.5664956706567232 -0.6031588692603773 0.8807334504463418 0.04826327917999618 0.6398702020927023 -0.36973155626299903 0.6590569822160837 -0.4787453524323788 0.09370986900395972 0.785961170802562 0.4354922866602533 0.3543577412882726 -0.6420960212461446 -0.40925609889204106 -0.8411317993841227 0.05066997458479383 0.4355337863015525 0.27694889627394303 -0.3761706018775606 0.3493780444055019 -0.13716809042554012 0.24966092386147176 0.05368362978294461 0.8884870024073139 0.25782796515618434 0.6021241415625165 0.034172412842241595 0.07877919827086322 -0.2048565301835905 
-0.18078491822425802 0.6444178009239359 -0.5482416348606083 -0.14739731503870535 -0.6297848313167709 -0.4292493791955223 -0.6130857894423216 0.5460287487162823 -0.6840561191509422 0.49107877373171105 -0.1712803867035273 -0.09820153135120568 0.541641171657322 0.08190803942926284 -0.6286488170870417 -0.9875691583918098 -0.22418316406698957 -0.37292062855997976 -0.08079754154160157 0.6786888816063223 0.166612451832842 -0.6032582854978403 0.023835974888849476 0.7623767845032092 -0.13895128001523727 0.717030517243773 -0.046900047013511026 -0.2427825080945818 -0.23113952307103336 0.9653775224634449 -0.43428735701855326 0.9308992467227586 -0.5085508845621043 0.6033279135188518 0.14469550282091959 0.7995824777619667 -0.7421901347558106 0.7981965222562435 -0.5143852066849854 -0.3331382589243179 -0.36687937421844596 -0.8131541838789107 -0.25933074204692774 0.4923803788452583 -0.24799413616256283 
-0.10067639891832281 -0.21276046635356294 -0.5490008947595959 0.8773183513067726 0.0870491004948768 0.21959313783930456 -0.7983780739859374 -0.8033911296161551 0.8896916857781934 -0.5449828516732207 0.1054870718243548 -0.05771738541932092 0.026837386772187832 -0.0992718295387347 -0.5830671680959569 0.15776880755503853 0.014993428085994687 -0.35451123695993325 -0.18464801959253596 -0.2691417600379715 0.387432524900611 -0.2800644635903491 0.555251061334602 -0.32330792318261237 0.23383299476380937 -0.38779551779376553 0.982034165919855 -0.9232877613916857 0.8786229834637589 0.4305149817953733 -0.8056658058836199 -0.43378674025185604 -0.4186090711986412 -0.12804545100958364 0.22941713464297875 0.8119625625379798 -0.23032297562206616 -0.013218172547744489 0.3063886227449164 0.03268424905944811 -0.49608616647374104 -0.3798540637002834 0.3826349445972368 -0.7109692522265458 -0.3737627614470618 
0.36819631274103526 -0.43786668160681397 0.00599314134289064 0.3593418905521928 -0.09686282797062296 0.73997054235526 0.9895304693786042 -0.0014909749445111142 -0.3981430366452108 -0.7243893025499386 0.06052570783505895 -0.22061339588297924 0.5553433450034857 0.45815727932879624 0.3530046943058751 -0.9939441280148171 -0.7588295451631453 -0.9399429611046466 0.30988173051327883 0.08837120161238299 -0.5910755624011534 0.3713963744695379 -0.5416755765578105 0.2645129338167109 0.058511345042579155 0.7651449996596387 0.15815846847901294 -0.525853723431448 0.7838689165959938 -0.9355973492600329 0.6905602335539185 0.09953267238909369 -0.790317089540407 -0.2340892174323419 -0.7093856384980115 0.10639296978564339 0.7662854749262322 -0.4802089410251875 0.026140817514055392 0.4932741904060918 0.6279927129376777 -0.8263218089108919 -0.21347525605579465 0.897626617601645 -0.7172847716122843 
-0.8398835195980323 -0.9308904602031971 -0.29125124197013674 0.9057547128882106 0.039292349013027694 -0.26295710054569255 -0.8977871797383299 -0.5217230231226164 0.6048796045655254 0.47129259467510054 -0.9626650653298023 -0.5789693534665734 -0.8810244572129817 -0.749121993865949 -0.5512910661153014 -0.5935420614801064 0.9628107629721725 -0.1308097837600215 0.6147743709410918 -0.032576756775303695 0.2731175027015067 0.23060322806155353 8.430433003374649E-4 -0.4616376870793668 -0.02025511226737242 -0.029595189200677163 -0.24903793458397683 -0.3552664317236103 0.06831292338699169 -0.19759361795844144 0.44244322553677606 0.09923081208084383 -0.13760050957947434 0.922416849827334 -0.28115692987548146 -0.7317047091480589 0.6529584056940356 -0.2179050397475535 0.9816297423777467 0.7400425764287872 0.09836890492624306 -0.40347738246032216 -0.5522722942121594 0.05479808784287754 -0.5232784838841844 
-0.939830974555004 0.5695818839849018 -0.4479867149427583 -0.9073537128032907 0.9197451132016101 -0.9336612440486574 -0.1575871210306996 -0.07580551145030423 0.2887737146591358 -0.3708069592234242 0.9318006541038355 0.9409869285630852 0.8875314124825304 0.7409023284822878 0.6030311487460636 -0.5669550483667418 0.7533442571660891 0.988925740460499 0.30523075983548287 0.16042462886709874 -0.6099515116811782 0.7535949744221722 -0.4955686067301528 0.16697601273615637 -0.18824417625256573 -0.7828206219547515 0.2173574085535459 -0.30274607387130903 -0.5151099047561436 -0.7333396529134044 0.28018433652375996 -0.1861910985929116 -0.21620919990590215 -0.9475168941151 0.7966668722938994 0.03279074852963193 0.24900747760624387 0.7175065757914048 0.165110416090668 0.5789996539910753 -0.32626418366203325 0.12482650727353528 0.10124064457220006 -0.2927763850964926 0.8426761033038503 
0.2900982182434415 0.15410101905910678 0.944903206129108 -0.39107862118112524 -0.3365594942570902 0.35468887787523995 0.08186867966362876 -0.08168883144649519 0.40795410008507016 0.8421169233094943 -0.7339029843947187 0.3770160635706219 -0.6136590899374801 0.5796664865964356 -0.33986007120459116 -0.9930562376004637 -0.30593519867731245 0.6031756782842412 0.7710765838756799 0.9448885199601305 -0.7330531466197265 0.6367851284592949 -0.2124517152192531 -0.9848285651411464 -0.6569593042029598 -0.6338590517042018 0.04063566929638718 -0.6581509795540161 -0.6269122665029367 0.176733063028073 0.051041090993741545 -0.5346057919604703 0.3508047355592232 -0.2548740749947287 -0.46675639491163423 0.7900834025590946 -0.5262907413154465 0.5134152211809531 0.19799527149927787 0.6121496400201478 -0.4528587709631029 -0.2176762423801646 -0.772267827670128 -0.5349078625504506 0.6085932640219238 
-0.07407307044240508 -0.10482402047948791 -0.9326413188185521 0.8764137766744697 0.06107697333112938 0.9536044857176396 0.76894661114316 -0.6835981420426009 -0.6028274937306994 0.14797395600100027 0.06729564965546908 0.8717643728910054 0.44699882164169824 -0.5207216427113475 -0.5008248706656562 -0.2836401362842713 0.29694209737783206 0.7002333072193581 0.014093782461661153 -0.23189311725691142 0.2149587088167626 0.9285770875820649 -0.20390821015868732 -0.8611129459693951 0.017259237029831676 0.23498275896943133 -0.5754002364990283 0.19922661901434147 -0.18025529918813188 -0.40422064032845717 -0.7486203840368992 -0.4995066161360424 0.0678110255379234 0.6963829456300505 0.91938932572731 -0.07570105500323554 -0.9317850520106967 0.7295416474835821 0.060741705812023206 -0.8817508482752063 -0.36072583174533235 -0.4467982961474215 -0.615243490896475 -0.4708606113551863 0.9507510546773263 
-0.6439952308714052 0.6034316269483193 0.1591431303367441 0.14234875462928231 0.3241301527077485 -0.05951110482127531 0.5474976122221016 0.8898256492164429 -0.2886021374501304 -0.6685232333129116 -0.580359417634178 0.7303127073689204 0.1852526774094092 -0.1537583765885122 -0.05229193415165767 -0.33650328438922616 0.3544517569439023 -0.6485938196713386 0.6307542764633682 -0.6870907867719056 -0.020018174781507136 0.9793226143839195 -0.5699909120788598 0.7616411957484985 0.5289344659142379 0.5812960069325805 0.9839404938414871 0.06937948420274376 0.4517723780342362 0.016701104676534406 0.4798440407794635 -0.5672595915917491 -0.1533787920540013 0.8659446952409069 -0.9268671722884343 0.9684538908094416 -0.9800743450205478 -0.04594729168954559 0.6224559912636634 -0.8209704891066087 -0.1389885135518576 -0.06700938236728815 -0.05177389147011002 -0.6968867053144085 -0.08120253987930304 
-0.9053472033974772 0.8240889731959145 -0.04217598855297333 0.6021058584680403 0.572784717046823 -0.5246769363341497 -0.25206657152398515 -0.9792783623990424 0.1409312176247286 0.4851081609998027 0.8468353943769307 -0.35744532899431714 -0.07516987599525593 0.6990562381518475 -0.05317505999667538 -0.8370377828079636 0.521500579247212 0.9703514997446188 0.43128834450259634 -0.2345085910667395 0.25360223803701687 -0.5977024979916679 -0.8610186920624474 0.2990060082361272 -0.41352940458439225 -0.8779745960448562 0.6706526014290439 -0.19563708145373027 -0.9034392810933813 0.5585677155065674 -0.16915279874105482 -0.7054911216965045 0.80386115177567 0.7004566681411342 0.5028012299050484 -0.2749303277074684 -0.8328334607940424 -0.12754071980609738 -0.9780798397183552 0.6882077384485379 -0.4100734842098708 0.19801342490471052 -0.05659167813075672 -0.47927242125394964 0.895716452691891 
-0.8966162552872052 -0.007802618229368008 0.23811056242029416 -0.09379693566133729 -0.028492274286468167 -0.06160162162223726 -0.01063533271512429 0.9908072699761115 0.36795711873256054 0.15908079884403037 -0.42672233129625403 -0.7439067033273628 0.13839164142480387 -0.27273995570982756 -0.035135207710173644 0.9042426386620301 -0.8836645932481972 -0.9884474786847925 0.77150610100966 0.21379840140737572 -0.8179396631834854 -0.02496354119148858 -0.9285291630429491 -0.4178055039719155 -0.022187178624603954 0.6294333950331052 0.1832298443509821 -0.8815881376984558 -0.2884262669111166 0.4308050884612913 -0.427839916918078 -0.6145679149363017 0.1709952027251418 -0.20446303060735138 -0.6780517363334886 -0.9340130473483015 0.32110963144712645 -0.6295410072971095 -0.6187959966101717 0.5614307764636208 -0.3261388815108659 -0.7914684727344654 -0.8585043637596907 0.8323900219062983 0.9944609697109759 
0.5816027016445735 0.8112253960910949 0.15117333406714129 -0.15097675422524626 -0.19567757818022735 0.5204636731392518 -0.14024714353909418 -1.1076430413714533E-4 0.1483744921747998 0.12506471590424728 -0.2865439399370049 0.7195021963459483 0.6937681344374944 0.27409015423692273 -0.06066444369712376 0.720647379863455 -0.20599174311378254 -0.5372311360484439 0.7495120551151042 -0.409674032444999 -0.2754594154341312 0.5139257061567042 0.7236138502171905 -0.6335166579843698 0.038947035189062396 -0.7859858135370508 -0.7892350612991916 0.21126656960183654 0.17494481934417805 -0.32440858443140996 0.7004015610648393 -0.9885617353135285 0.932320521859852 -0.5937231298135772 0.9725242962412453 0.17602735415777437 -0.4124918182917854 0.03493976910857355 -0.2381772452069839 -0.09674920887157112 0.6145997399921839 -0.8209374112508334 0.6564364516352781 0.7531925800856192 -0.7498470029697124 
-0.9670684025460246 9.442101827246141E-4 0.48968040296014403 0.4692408508718189 -0.08549139723130317 0.6845025619335294 -0.15574739281745487 -0.667235349765817 0.22954096348059894 -0.1311181361754552 0.10706210434291674 0.12113043837667292 0.09467000404543535 -0.05252366363710559 -0.7359836718165316 -0.8130323519692719 0.20700128298268483 -0.6748065978522315 0.7764053034451781 0.03964544741795106 0.4558033215371935 -0.02954550597481953 0.038724244852530454 0.8169222087655572 0.2427043645618161 0.11436935859262576 0.0523487063236332 0.004139711691699022 0.5099597009876413 0.9584718601488964 -0.08282597808219827 0.028953840414282173 0.07206576147387245 -0.19876450130158263 -0.6297153150719541 0.18966960950707334 0.004199907333738873 0.6049138128864859 -0.20982895449168337 0.26782843431550085 -0.4383321312795583 0.698078687284506 0.8369646512362652 0.1307718111407261 -0.6122558186719214 
-0.9544410210861749 0.21361705664493136 0.6474854096826523 0.6129942624819216 -0.683691143415794 -0.09010138389559597 -0.6788952226849039 -0.1426310240162989 -0.15893622776280525 -0.26945116489885246 0.1840413619793484 0.11706726652167654 0.47547002946774675 -0.08913886460897724 -0.29323226779077505 0.051363410562229816 -0.6292976549832041 -0.8125605769598883 0.7388765564840938 -0.7196988153239552 0.702411690411002 0.8188160917833303 0.8311080404429898 0.9623576018233431 -0.4798265892984297 0.7400746535054736 -0.3203828477373032 -0.8581158771672881 0.053434635537893405 -0.7124268741681348 0.8888311137747205 -0.8606642748424087 -0.9537125960237309 0.7443175178757944 -0.23317463623616264 0.603000347773925 -0.007777658926575004 -0.6665120886980724 -0.552775939924838 0.7491462782449585 -0.49865418965544506 0.22707252641258613 0.2742100429247363 -0.21179384900944598 -0.5436286592146808 
-0.3614811947738399 0.09230632114923631 -0.43217865812126544 0.100025250680575 -0.8672372102732373 -0.1498296192592854 0.05927141816320747 -0.2546674988825961 -0.08604750009977136 -0.24228040024667208 0.4720186964050861 0.4115793605668472 -0.9593675627704186 0.12848510687746173 0.5017996190966714 -0.6374241051688234 -0.7298887182881968 -0.005830765405213434 0.5008979476679636 0.2601699321638036 -0.45181345095010506 -0.404040516051559 -0.7950612980740568 0.44479221984113826 0.03735385349253395 -0.06276964815850916 0.05874390996212142 0.7161411481903805 0.016081411198885398 -0.2751568246091647 0.15449496563019638 0.9109423464732358 0.983683055440127 -0.7686696590194444 -0.6713505421336654 0.5610481224412569 0.8697774045745508 -0.12216905916424836 -0.9402369347748001 0.9639682825587113 0.3742720985735033 -0.3322792995680339 -0.53242924826712 -0.8907468557135432 -0.8467328561279799 
-0.0065413134368812464 -0.06561573162598466 -0.9220224282736265 -0.18177733933069407 0.7942506799247333 0.6530665569670477 0.7689016611427821 -0.4698087783045459 0.5597076743031917 0.7515455366412065 -0.8962858390141515 0.3478665629508717 -0.7452446670923234 -0.44796485698196165 -0.7749093933987503 0.42765430804805415 -0.11637053932142405 0.9938317736478022 0.6251275294474044 0.6759240943558662 0.11586991426410798 -0.7182397413024113 -0.3719580722361371 -0.48194629282380097 -0.8351966874337569 0.4180440964743122 -0.8001467814209591 0.07583131260130727 0.9390839965617492 -0.5664203451534733 -0.33090690008997226 -0.7657667141429956 0.3804396094466038 0.8552963682609058 -0.38358319083382497 0.8305486289129553 -0.14415295360794378 0.2294877850760455 0.9273176459587162 -0.48672493117958204 0.4899411121295607 -0.6332975241769747 -0.19902591695673877 -0.30483662183317195 -0.5964616279057142 
-0.6180142169251333 0.36958811939893854 -0.5357589273315564 -0.033265508662477794 -0.4250329478324615 -0.4936000040920332 0.3185990240365224 0.38011373576144725 0.7274908687497281 0.386894136020957 0.15517768888376193 0.16518532173863787 0.4921918446056426 0.4165384393280165 -0.9302569100535081 0.47524143651533945 0.2036181773822343 0.24972715316157812 -0.7853046189945605 0.5304081749510225 0.6642105624580728 0.7984259695942939 -0.786693460069229 0.9357399046280792 -0.7593533574711357 0.3653459974062696 0.4434360214651556 -0.8412149977899339 -0.04823540123607617 0.33530149643147444 0.8807272813425793 -0.9768703418191946 0.13748232917852876 -0.7802659503001017 0.13074046924886473 0.7170038127486245 -0.2311682403659392 -0.7267854123208666 0.7814300217759782 0.5211120939706382 0.4924311310165317 -0.6129382539178747 0.27182890759241873 0.22743046605316142 -0.9015788741826734 
0.5140449939022165 0.099754898825273 -0.949212676393353 0.2590937067686869 -0.5105337284252662 -0.619193889257607 -0.27237395401836784 0.10614613541704121 -0.212254263880572 -0.47713212499744806 -0.5485759519534541 -0.502305087798846 -0.5100388631385526 0.09480468053128366 -0.6881780058437519 -0.3281114794123259 -0.46337759468809203 0.8449648843053841 0.9845934877997802 -0.6078397995816096 -0.7987117545555882 -0.7354215036958771 0.5621661113668437 -0.3401346191357102 0.6444610616042419 -0.9069176199716427 0.6194800789266541 -0.39674826122689777 0.39352476838887096 0.7268585695794936 0.8775512318689551 -0.7525876313186526 0.6433171284604264 -0.38017302933494546 -0.8428184667955474 -0.4719234190798567 -0.6167425805609532 -0.5462156930587891 -0.2921603951934717 -0.8672050729932514 -0.46922183847484145 -0.8916636386395234 -0.5481893701364982 -0.46372073020078686 -0.5128633288658282 
0.2747225066541039 0.20129513037007052 -0.05763943045111897 0.8305126043310094 -0.0652154887220735 0.48621117335134323 0.7532317316189421 -0.7773769274259907 0.8657864517502303 0.2730363210073883 -0.34265572242700526 0.02891715718210741 -0.16625723759563438 -0.4398993217569336 0.4605324342958692 0.6387388800150655 -0.7976322917989775 -0.3976779094057499 -0.6193601303257865 -0.9793246070244632 -0.6882896879057441 -0.6515473223080313 0.6841281621592146 0.6596368480224417 0.1699931548344722 -0.4335168922283439 -0.736150328136743 -0.3039600368509905 -0.24587387239739433 -0.9120697520368892 0.040369501206442227 0.8237987516085992 0.5288196300954315 -0.38068893032319995 0.9149249121784997 0.30265068478931245 -0.32882556188915046 -0.35081580321309747 -0.5896857341109707 -0.6983233059219582 -0.07292108397676755 0.12171870678020946 -0.8932904900928478 0.7147017610609208 -0.9723028011026891 
0.7528278209996679 0.5125900958238829 -0.42541113796164054 0.15878531043425625 0.13248265153873162 0.10669969853035233 -0.7577301849583336 0.10252499260362047 -0.9130990191462467 0.9451289185902214 0.6576828866047604 -0.6389816562291213 -0.8331183015452108 0.44833192895753093 0.11361543778189387 -0.1774603420592915 0.5836359776094107 -0.2339134813358772 0.2497791130084699 0.3460933833427404 0.4310431991991803 0.464111626275292 -0.7367288027273089 -0.9832190398480634 0.6133374900527002 0.18425855264488455 0.6929062074792258 0.7639321896834519 -0.4601898647109892 -0.5991047683249873 0.5587279895757595 0.5359093269782829 0.3531896078946135 0.4293067723660431 0.12434165693198507 -0.7100535789315778 -0.7740591181788685 -0.5623620015237283 -0.9014671870890338 0.6823380224255895 0.08880178556197804 0.37210678114403595 -0.2960305437823747 0.5337461658180807 -0.9515454227182976 
0.42592040604398673 0.7146098310529798 0.8963462009335066 0.7063066798295468 -0.034469377178645955 0.2997681196130395 -0.13601390389917012 -0.3920653059224599 -0.3264350398382043 -0.6883821782658082 -0.8565135324341269 -0.8671775452369492 0.07597652723497217 0.5142406109558313 -0.1553379171807816 -0.7233970947539963 -0.40834335400908883 0.17615633834132471 0.9485984911303009 -0.016908570362150543 0.7759579345751664 0.4345994036048162 0.47817031395070964 -0.04902405370279217 0.5252790554967259 -0.11136746678648501 0.5217417445037413 0.17010826425057068 0.6680647928177637 -0.010480975409240978 -0.04955840798623923 0.8349181189882793 0.5882788743271117 -0.029397822176669086 0.9213596492286942 -0.2624499509733109 -0.6893904959853296 -0.7047319724601528 -0.9265365658241262 -0.23909823654558493 0.822371241763006 -0.09960348477587377 0.6999876473138773 0.6718200191264803 -0.6847303655427843 
0.8740339855307095 -0.8794977218546938 0.05728824118833575 0.5008982067892365 -0.3701522203093859 0.97781767101911 -0.048481026414163964 -0.8129594755436238 0.12725274811291043 -0.7506614783287737 -0.5305582298059552 -0.10244665475086223 0.2349258683022517 -0.6105682429243511 -0.40784499889271286 0.47680977864396934 0.9467556281535274 0.20882647527658826 0.14248902733552304 0.3403844780088514 -0.1669013433303892 -0.1509831858142694 0.9439056084388806 -0.6831336297924724 -0.15345395413819318 -0.47590761181781605 -0.8264633643111481 -0.12861281743416964 0.4002284584544855 -0.42062642662537697 -0.9997560592589725 0.9096568913059044 0.49801865490857833 -0.14431768587823957 -0.2588408908083166 -0.6679982914203064 -0.38018301322653647 -0.6499680464436428 0.9752415358500728 0.04010113173536456 -0.948566285213204 0.7279730217101454 -0.6800302550724193 0.1948258556495035 0.3974117194670652 
-0.6302148582704563 -0.09263937195795124 -0.8182199007615103 -0.8735418004897118 0.3221576415584646 -0.011912562329496446 -0.03814427653896679 -0.8270143164025354 -0.22104456027168817 0.5475481302809835 0.26730826119430495 -0.14541259482511837 0.5291195081181306 0.33531078943986925 -0.5504320791917809 0.6641033078371612 -0.8132960763749668 -0.7105562705900663 0.6932030763784705 0.8562584719731765 0.9575058735465285 0.9798135168715854 0.7811544730601125 -0.8273147627198747 -0.8013036134354186 0.39951495342601384 0.6295640882702644 0.5354690914488203 0.0923144300354346 0.20117221623110249 -0.5937760599282789 -0.9118161198307251 -0.6195614202977293 -0.6950686676267903 -0.7951261113640173 0.5747136043430969 0.29930498844734843 0.6975399971355623 -0.03171928573304972 -0.28001716560845247 -0.3984075379339984 0.19699040768611153 -0.36376619598923754 0.013048612430270001 -0.12945109302593383 
0.9747780431888886 0.34029525093281454 0.091832484775068 -0.7934131236538942 -0.2920920649642187 -0.1246531924764438 0.7901014868862299 -0.19357136743616454 -0.6246423579785785 0.6486773643659032 -0.1688661091404493 0.9568342273229733 0.9187849014004343 -0.15944040028357054 -0.8611666845584032 -0.47060003626741453 -0.7451547653237418 0.6059656846369774 0.7858844333661728 0.1898664160231791 0.4565638057202772 0.80527718036677 -0.2901304036419754 0.2248296806276302 0.3137830715373864 0.9725451552949449 0.5020963108579373 0.14070197884321933 -0.06221334005358692 -0.9869382791468624 -0.18978952520140435 -0.9957794897905925 -0.4072223775895767 -0.5322944673343677 -0.8054981236426011 0.8707574612141584 -0.48303282525568747 0.08972853753269616 -0.36086642368868604 -0.41386334643505673 0.13860878988703695 -0.04964697961365161 0.3433571289301931 -0.25038501005254 -0.2026101302161727 
-0.677248204765178 0.9041018737465158 -0.30985829089185235 -0.15082800090193382 0.1896879551281725 -0.44984340995798 -0.0650411496821175 0.8621484089634728 -0.6217078696087732 0.6994882863215379 -0.16093779622052717 -0.4949341893449455 0.046160632443475125 0.7850717290637115 -0.2040065060402898 -0.3167645018303997 -0.4738412217963013 0.03093122039164431 0.7648881040640438 -0.5043626167950404 0.38301805458015936 -0.3410745922271883 0.7256556495217503 -0.3335026537272381 0.943019034119736 0.8681313350302375 -0.8863756018906996 -0.7527012546778598 -0.47124608728245687 -0.14748467220983597 -0.7130672911623746 0.5902644458166089 -0.8358329173257901 0.10890405490174104 -0.35559528157009 -0.13807413956433123 0.6107744215525992 -0.6639018687639282 0.13860007545795527 -0.3045276851484522 -0.7458350803407956 -0.6627009774989876 0.6181804557310584 0.9731533104056256 -0.41940742798878383 
-0.4881525783334131 0.6856899612253389 -0.8149167737883976 -0.23333213738383307 -0.24140028415835135 -0.42870254907503247 -0.6716231354315148 0.25086301768184205 0.9120979069174571 0.9000043028375735 -0.1093773896098078 0.06374709249045263 0.19401506441697403 -0.8307271036921176 -0.8957233146405563 -0.8354294965271196 -0.4138118886475788 0.2559838519463453 -0.6363577539019662 0.065021974762139 0.517876423626525 -0.663914945486983 0.46367333302366753 -0.38331617142621455 0.8087142316724134 0.22724630445192062 -0.8500774611491069 -0.003085859042805561 -0.5798484830255959 0.35428808347999197 -0.6384702771443314 0.6485884757386431 -0.7579924013164729 -0.7108939857206016 0.5042266126180011 0.2123362129633315 -0.12291151728510386 0.1312644717481326 0.10791052692653103 -0.6643902947429112 -0.8143517255231876 -0.127612423848239 0.3034186787916311 -0.34887205918383324 0.21280224519933122 
-0.6730722551568196 0.695712456860254 -0.8120606500605256 -0.9541724694601721 -0.7861543710698093 -0.5842407862064414 0.011551429385965761 -0.8653841143364083 0.538187991768277 -0.5990225290380946 -0.014721935222341997 0.6573708570845018 0.548503983600753 0.28418921586380663 -0.7968414028403765 -0.3750309014002078 0.23549232102580753 -0.336398626316631 0.8655059844862603 0.5912353666983181 -0.4107740046557571 0.9814164746787459 0.1513435111236343 -0.9272931296124693 0.6467533465239246 0.7562507000955707 0.9876946005682083 -0.9197072789372591 -0.2611712675746731 -0.5053840991734635 -0.47610873427225187 -0.47343963797988975 -0.7160225597346852 0.24929968280071058 0.5897712762898084 0.6962109819098912 -0.019945961470487328 0.4975566550718882 -0.5501631603033947 0.45363255145584236 0.3079061054917631 0.7796007154940292 -0.23884982021535706 -0.5897523972538379 -0.11129207630300653 
-0.6320314136258809 -0.1990541480112118 0.8857017350169236 0.42598234129253254 0.1308998870912177 0.7506411281773449 -0.8292341252709836 0.7152820510341455 0.707960435468427 -0.8938700198816663 0.33615423637193476 0.5189546221932135 0.1337108069159021 0.12994948219660762 -0.369712375629061 -0.01963140956104259 -0.874697791333773 0.6691092750625207 0.37036009307671214 0.691431302506218 0.3924588462062797 -0.3669205366630044 -0.8451053000257942 -0.47081798719392465 0.5333843425972429 0.9596342700814344 -0.7876967966799089 0.9416974580119613 -0.6522917137215654 0.9919527664402163 -0.25120889430271 -0.5095006507325204 0.7276662284619775 -0.15142004623965355 0.2702792111109489 0.14610716846700011 -0.3187146520283972 0.5885562255634038 -0.9731605026517038 -0.9146675855713287 0.49642625458125256 0.7572245195015721 -0.035527044720243595 0.5533633578163071 -0.42789143546721276 
0.24392964604585687 0.867883049440058 -0.26935658615174196 -0.97637348304327 -0.7089749935196701 0.7392285668159717 -0.51600229613238 -0.18945970787013722 0.9643074563336542 0.8816664523057756 0.38341753902894404 -0.15829622451617897 -0.5717974792261546 -0.35717585577739097 0.43036364327588483 -0.7209288669250455 0.9647258140142301 -0.677831982614699 -0.42959589572173296 0.09210005885063177 0.8334497924281559 -0.6424358042825502 0.25245407462489866 -0.19285070729095333 -0.2095918211295993 0.5801549358474143 -0.951160663031237 0.3513448980957048 -0.6329271219966535 -0.9369983561482247 -0.33514278241215845 -0.09203113469737412 0.8562418665744373 0.8877755015010254 0.5434630759104819 0.7805017126896971 -0.6401198035046465 -0.9848976421413322 0.7101622458549706 -0.5949722860823545 -0.7753424621507683 0.3679991361665842 -0.4948582407913644 -0.14420882152005965 0.7241312595180225 
-0.7758354691575913 -0.5858720419049366 -0.5437309561062575 -0.05777504371898767 0.06171801355947837 0.3364106864761971 0.43820366922934784 0.4708571362541494 -0.8856945054080174 0.3179264771679202 0.9836181246655384 0.7552766566862752 -0.9346777327538929 0.029247415233595975 0.4399135563851333 0.7038656250068036 -0.4526717555732642 0.0827746607092199 -0.9842727686061645 -0.4751273066953867 -0.5884387772812543 -0.3396107385358391 -0.15469234747610017 -0.3392563065997034 -0.9062193308114477 -0.13773426515431497 0.9517408124604971 -0.8385812793322824 0.8265033097021444 -0.31049289311583217 0.34444056820740343 0.8711691904866212 0.9340194160618851 0.6377135212374643 -0.7461061201959762 -0.6007503027522758 -0.004592830756224409 -0.49445153200501846 0.3367291931897427 0.00284479513807967 -0.7279090467976683 0.21182211193239375 -0.4232441185346465 -0.7685080137241815 -0.5296838502353167 
0.16656153773782556 0.562698967402151 -0.5346334532913739 0.6452431158607628 -0.944006980497659 -0.15906725960349122 0.3255165163633065 -0.14781062282490187 -0.2216864428499712 0.12159458478981944 -0.6576606886029595 0.011878432384988535 0.7065823440219057 0.25903879736098046 0.2392948077405832 -0.6196189581111913 -0.5429844592323394 -0.867332904927653 -0.2779479779672256 7.627393033908803E-4 0.9054213701676725 0.8217526085771736 0.7589712569031055 -0.437719046269996 0.3214657744002518 0.7979505680428916 -0.002975238404477887 0.2043008140061806 0.17991124355081878 -0.748232394223098 -0.8220364996190355 -0.024071023857950236 0.45992507759799306 0.12434041958806619 -0.7972594569094762 -0.10130777869567731 -0.9419934746307359 0.9334510775919413 0.8379035798689063 -0.12158496531374752 -0.6829644211151535 -0.9372139574969862 -0.03412580118264441 0.07377944510849566 -0.38660203843222307 
0.8260233591091377 -0.2482673913980875 0.7528783096178682 -0.5539036015906775 0.3224099753941567 -0.8676691110724897 -0.8445992286487689 -0.46379137515770186 -0.13192938599872694 0.6292610204632523 0.426917411835537 0.07200803078983875 0.6173667146800481 0.6454062399771687 -0.6969392764485045 -0.5754852657476301 0.8812024255219333 0.12550750404147237 -0.1047760848049697 -0.5898019967574561 0.6042528814421833 0.7443817409575568 0.6657302638251221 0.49200472963264574 -0.5193321957110029 -0.3678717290104372 0.4792523408845042 -0.8131589826211587 -0.732117987951032 0.05386676675935598 -0.5214105733700951 0.38708798007317635 7.417679181465076E-4 0.43225001422250253 -0.5432612864675879 -0.6943151466405304 -0.9867643007941349 -0.365799933207982 0.38352491097314223 -0.6812334304510059 0.9426945060067686 0.539018458626167 0.79388014399534 -0.8932042038646619 0.2214045162676892 
