50 45
0.8568376094552566 -0.7229547750839409 -0.814112622860871 0.5228802785293634 -0.7293160190059622 -0.14670883318647765 0.8732596103540335 0.17533145003033934 -0.24933303249501693 0.32575632221287654 0.1847530649778153 0.9298480453801015 -0.01751593085446701 -0.5337268412069265 0.23795929260531334 -0.5788002473005724 0.6608100542914941 -0.9545341483471239 -0.2770476759347782 -0.7881875578613731 0.16485379376075637 -0.4335931782432465 -0.5269584986331028 -0.7773385490076294 -0.7367863043210243 0.07952916702683543 -0.4200100441160566 -0.8338959100819501 -0.011770294623079103 -0.29419270242632023 -0.9535636528312601 0.6242681098863301 -0.0842671530681589 0.5440494052092533 0.0952090645568684 0.7466892209342466 0.7442960465247412 0.749471855463619 0.9446764577577644 -0.06652993223003034 0.28879356556545765 0.7445538039479984 0.11122876634540368 -0.6746895139842788 -0.21372079598517169 
0.7594984305247787 0.11444214904130368 0.43933763482436006 -0.24210329639905992 0.1984568530920625 0.837425508771166 -0.1302581342570326 -0.4212610795597167 0.6889957693787971 0.734307486919134 0.6148032520810813 0.37827501910911154 -0.9038783759318181 -0.42122890401034385 0.2969708423818236 -0.07283077817437111 0.2684991987768439 -0.4880016116942034 -0.6897638223769447 -0.23798400285318833 -0.16666743298137732 -0.22466025036535364 0.7591190600749382 0.9577214893609944 0.967703477461586 0.7024763012812802 0.9461630023789236 -0.3220369647328274 -0.25200862626936704 0.2977962437793551 0.11991553942666844 0.9173618721924708 -0.5846745790744166 0.04215952164259207 0.2129461431217894 0.6947076264337473 0.6938498067174652 -0.5558216179937103 -0.6204663111533066 -0.6352239794494836 -0.8400908846334596 -0.7054055510020905 0.2852325571406953 -0.3130155356367861 -0.4159096077730995 
-0.4167143980879042 0.30560506120057385 0.8223331722745575 -0.8456140812583481 -0.3971099533300968 -0.9410140860195786 -0.4742172551235291 0.5375687434267227 0.8899869005334868 0.028222632952142224 0.4594224677075345 -0.1527981880982614 0.3442269889860512 0.4189138577703644 0.7724856925909767 -0.2394709179046728 -0.8822403574968285 0.8567455559681554 -0.12252625046404275 0.26282478944572474 0.6817547155190522 0.04410355083460504 -0.302649352239009 0.796606561154146 0.8537728765555304 -0.9237815577078432 -0.4330244115612307 -0.04555560865984698 -0.49081124497632667 -0.2403223463554396 -0.557357050407369 0.2779273454224569 0.20182682649908856 0.9812171469591418 -0.8931975516061257 0.2116763182640382 -0.01657934053537602 0.9422832910563979 -0.3492648091188244 0.8101207234835162 -0.6615386074860119 0.9049340346521666 0.6761646414764637 -0.5939156639681251 -0.6595469550077557 
-0.012773646390293658 0.37748509519869455 0.12405395472284231 -0.11245406016087922 0.5013147101736553 -0.05050795277516351 -0.14266790086928194 -0.8100274876057245 -0.6549357648274383 0.6112039640084652 0.12710410952642737 0.5586632554106046 -0.9619405183453915 0.9445655891345608 0.10277732224157488 -0.016127309439241344 0.1354687149595526 0.21752875121915638 -0.013222020771263887 0.994599964417429 0.9583009851315052 -0.10579230332358858 0.9533208850775352 -0.14596010763173273 0.8461718616904865 0.6305096678517619 -0.120506833591147 0.27325549757440815 -0.531228388056872 -0.28815456752545954 0.21832328450772032 0.5147139990495488 -0.8751922442988938 0.11022624022180683 0.5373331457581794 -0.9907168621253579 -0.5877276685101203 -0.878742293244581 -0.517599085008646 -0.5752628332370879 0.1714617891864505 -0.11275578395186403 0.2255881097170156 0.5007744180577671 -0.8177440601397881 
-0.979180233034318 0.8169149340177362 -0.09499737129927643 -0.26025922747813657 0.014225690547837289 -0.7161055363907671 0.8663002932480615 -0.06266297277869293 -0.8474428553713627 -0.19103532796421496 -0.5935839178567743 0.25417603897595686 0.24500513005067415 0.8637858424548188 0.6176211795625528 0.8735411431356734 0.64632199401783 -0.20930119449507578 0.6236825447446472 -0.9482281630126204 -0.2385562603016118 0.9954672475908002 0.6133784635793331 -0.18789414496785328 0.509403483176782 0.6517561184405287 0.6502305585102068 0.2555120516858862 0.06837462924482307 -0.38337439258600337 -0.16092014341171623 0.8606459554755359 0.6318857232062627 0.11764878796364853 -0.13041297191766144 0.28763708289355683 -0.12304894039053749 0.6960889415213993 0.9586913326248712 -0.5945045014377479 0.37806503045865814 -0.12309942942881968 0.7785142290680285 -0.46949603400985107 -0.7032889264334807 
0.08514661299776338 0.08314797950573283 -0.8069610938150089 0.3342393072062222 -0.5602478161137212 -0.5627774736546698 -0.8571579453832465 -0.8433301753533087 0.22934319085291266 -0.29890384085999755 0.7578441076158733 -0.7168180238272919 -0.8887531284472094 0.7419703231797925 0.5392164724332182 -0.22424689865118452 -0.6264414287288809 0.21717976827109475 0.9554098488429863 0.9756129713730985 -0.0384918966932124 -0.7846353232192651 -0.45948788516048356 0.002884031290790068 -0.6068134630516493 0.04318289161477051 -0.14266041623323655 -0.2310204962270035 -0.8239777064191418 -0.49032585416841434 -0.2967489513735495 -0.15296411874828753 0.8842245968948432 0.6873414150307804 -0.23324515634963117 0.7038585230671117 -0.33126122620370313 -0.6815328582885474 -0.1644452655398012 0.5175624757986024 0.6450875392985298 -0.21286397519563605 -0.3882396967845727 0.08829393681510567 -0.6592002026092803 
-0.10811201030793627 -0.7924350218514549 0.1951203574437128 -0.8170433095394016 -0.469120645610005 0.47477297784126904 -0.8396187914111866 -0.13228723196723435 -0.14911720536448092 0.4641347822735542 0.3534936298805187 0.37747842998579584 0.4134091235483619 0.515528351404317 -0.10058910864818005 -0.6022223362134975 0.4956885840756924 0.7476026018071806 -0.047365331528775645 -0.06537656630188748 0.7712007911882002 0.04557579470998041 0.5558847757078542 0.04458129633423735 -0.6961028175412105 0.038461994858443704 -0.6767663488093576 -0.23648053569243688 -0.9577886864757805 0.012075284292136779 0.9707162837447885 -0.4436279812297199 0.8134070361061638 0.22173920359317556 0.06312814214717077 -0.0909293732886638 0.1957667689035245 -0.35129077305479384 0.2539282069654136 -0.9548734640244805 0.5855750536225037 0.8868913270272278 -0.23413335053880435 0.17317517779812852 0.27780679691744137 
-0.4484798072301619 -0.10684029784615356 -0.8418784480831456 0.44388130878346654 0.3690373674144063 0.901737732348356 0.05735413708668147 -0.48320235542433054 0.9374883471960578 -0.13770440103474857 -0.425177153345512 -0.31658113565903867 -0.9606648453432756 -0.3284226576083833 0.1596039950613959 0.9356267224561872 0.3436605917589475 -0.19946975398787825 -0.788095467697705 -0.55347883855119 0.35231573010367123 -0.8463328191563544 0.6582852141930762 -0.08520868702597983 -0.4753560923103166 -0.16782181072442115 -0.9807898282465648 -0.04016009630075845 -0.34201125448895553 -0.4359637347948808 -0.9841404040097386 0.6521933949091463 0.8062755230446181 0.09754490799273485 -0.2505309094382919 0.8281854185369473 -0.7134695563751108 0.9504783528100018 -0.46471150780874204 -0.03514637133200482 0.6532822037201282 0.5651689630754257 -0.4154198828662137 -0.9195577984762595 0.9133676122483143 
0.1405976977854888 -0.09809487284257168 -0.6221430418428622 0.7087414827910143 -0.8042505760387149 -0.9987249763596187 0.16287220736582997 0.7124690037509236 0.2641954165886238 0.34357242843256164 0.945841607144924 0.06315687520043634 -0.9719302051579795 0.7589745137490844 -0.42488151113137484 -0.6943422838132367 -0.3296903015534933 -0.4580599949420887 0.7523450733790717 -0.9890396756271604 -0.7427681855684589 -0.6073511045235156 -0.6557788036118828 -0.9842435398858065 -0.44077880287105775 -0.07238792706092201 0.5323187940278409 -0.9477466831697505 -0.12448880041501398 -0.9065035806272372 0.031959060484394675 -0.5686218805011765 0.14973712350251178 -0.5079611209304449 0.3631243853582178 0.39760028391242175 -0.05385190401630613 -0.63974883298338 -0.5291714657408855 0.7911745589730359 -0.2979338051412148 -0.25105536909882575 -0.13067640784526047 0.7336858011870271 0.080384291296002 
0.30393366374883213 -0.07602707167906098 -0.8046441376841755 -0.7834033955400213 -0.02189651571153539 -0.11342498629483955 -0.4923510188670568 0.18806059477884696 -0.011143973883513514 -0.1356255847846619 0.1522926713044075 0.1288901954749111 0.3842772668494181 -0.9700504220561879 0.48790682300257204 0.07208547015457589 0.6926948924619998 -0.9313786892314231 -0.5319861752974979 0.8212045706148772 -0.6958734949291612 0.1119773984451875 -0.14072063589670836 0.9370890558848408 -0.5315562763884496 0.22056289823467123 0.986412130449495 0.27085621733416776 0.09390761243689805 -0.14426122437985356 -0.38977084363682035 0.38257361497250164 0.8910580648237356 0.7201642772009431 -0.8120293056671863 -0.34426286013591945 -0.16923134372473636 -0.1516885447333749 0.4700275994967349 -0.049126062534201376 0.3716052218426351 0.8928744121117915 -0.8451778833329116 -0.7627030694442725 0.46045657550058916 
-0.8201129302599777 -0.846339717893297 0.8002396467665573 0.92173156968706 -0.7051811062091724 0.9099535018030553 0.3413033231434597 -0.4757525228118178 -0.28613140822691263 -0.8277157952355598 -0.42664788664718434 0.7512596771770697 0.3091306931291258 -0.361631138167108 0.7566938011541395 0.09791379312847415 -0.5667376628419156 0.9670493791316292 -0.9684114322324289 -0.41827229412968747 -0.27126911774426965 -0.2019771423072696 0.3728299778707347 0.07553922394053592 -0.19132417521958156 -0.37590302318879565 0.5253455055364307 0.05868396676385079 0.5208722298291408 -0.3716632413255312 0.3754684684648808 -0.5690044053780359 -0.366764984684661 0.9285468051123629 -0.12926559200047172 -0.8544513685019717 -0.5312420711120176 -0.9358895109581806 -0.17824040182214818 0.5898928322354511 0.2697327288152238 -0.9847132546464832 0.7029618568193401 0.8818552579006211 -0.1144518894201616 
0.5626423431172882 -0.08541306299230977 -0.4551846895591507 -0.24467884844855003 -0.6256239482804475 -0.12329306796069317 0.38868506538098857 0.09606623829368144 0.8518693285641916 0.796560599206181 -0.15334325985148123 -0.29093924612100364 -0.5311242129528189 -0.01619198384162157 -0.4958943783653378 -0.11848132373518916 0.10734056859659535 0.1839757930261443 0.10486624005516565 -0.5123619920528555 -0.277081810753377 0.5585716109743257 0.9314272486971213 -0.41746105396755206 -0.4341639477109731 -0.3389498300296636 0.12941801965769684 0.5345649273789963 0.13782828943688785 0.04101596021319054 0.28308930154551093 -0.944129781861367 -0.9165563147405149 0.9547515036859184 -0.6526828554064767 0.36817205778395445 0.29410896455528834 -0.9316384666452449 -0.09701152010236003 0.17999741833812855 0.6459063487523156 -0.9894707075407307 -0.37354601918438446 0.15370831275491614 0.9971037438962482 
0.16508114877023727 0.8500625632033945 -0.8949574297862204 0.33905258994672893 -0.8107383484576776 -0.8603801082411311 0.3048595971387098 0.32414803079939936 -0.5981778060865519 -0.07405891127202957 0.9422349173798021 -0.21287766140685682 0.4057308061431455 0.401496323070085 -0.9400012073323434 -0.6689773731916433 0.09351334815258805 -0.8705239502023219 0.08826904483610609 0.5668007512624864 0.5289392218641977 0.11143022158715943 -0.5215201326953411 -0.824478752299715 -0.8930315104986648 -0.5790348973167982 -0.1201371444194943 -0.39522727429994586 0.8645794002989136 0.9348079082386165 0.8022882810583387 -0.08405531808873046 0.8482999971213061 -0.8211206391867394 -0.226171243847628 0.06661030740054596 -0.9600311151682641 -0.14415963354975325 0.6283604645217937 -0.2576652142251157 0.5004543841742843 0.23190911415974802 0.7479694452785879 0.7448054861923925 0.11176441332307796 
0.23457181241024605 0.8368846471996192 -0.10174053891831081 0.5811821897742329 0.8491385839118184 0.11811176360348563 -0.5462387543020715 0.21676603256743454 -0.7990754167145844 0.720895588359348 -0.9490375200706958 -0.6082448608767064 -0.4288360109468532 -0.533409211564829 0.43955287171920476 -0.41387472488109744 0.5185929100944029 -0.737524080394369 -0.6323102654955342 0.42674293271546215 0.26496581144242093 -0.12250372451575298 0.31227248672412067 0.24326840708742004 -0.44840286388442063 -0.9991236014064331 -0.9439950129948302 0.31516179452363313 -0.714651194145612 -0.8260052210832485 -0.49123107920919895 0.20584895180811413 -0.5336876666564705 0.4378673509458364 0.6259071294779828 -0.6366919211731421 0.12576172936628205 0.353038821540423 0.7935958414814142 0.5120399764464292 0.30178253514503806 0.42563438955158284 0.631561954272819 -0.7304115751564217 -0.5586905724238747 
0.9127771169983645 0.805979850672002 -0.1085194598434851 -0.9588661925283475 0.4825304349919626 -0.8495396296155422 -0.9183401964688356 0.8267701014039146 -0.7320234547630351 -0.8393776202196459 0.40118746140780304 -0.6831014460285594 -0.518003395270338 -0.24218368029716086 0.9661916162697699 -0.7675705170086475 0.948770076837242 0.11014633145927322 -0.15325428468751512 -0.116936959439359 -0.34003515582650823 -0.7459840142852927 -0.13843771917999725 -0.5994546744035762 -0.22195789256430998 0.27700125449378166 -0.6909105916696388 -0.5133483774174026 -0.6139460119131535 0.9029315635798003 -0.41619722280319027 0.205253921097315 -0.2772362562050974 0.4626387599288371 0.597186209050103 0.271659138574027 0.6438728258057151 -0.5610884135444967 0.45610014019203615 -0.7212680841084758 -0.3854087240117674 0.04177099659062966 0.9469376443593884 0.3481447302485978 -0.3342582753754202 
0.6002607938711073 0.032172611228837855 0.8064251239035005 -0.5649604721074217 0.949524802998861 0.7866074393483826 0.6592990742585121 -0.33285407712010606 0.4470214625197819 0.9838295405885364 -0.12584279484469207 -0.6394571414824455 0.7693034746645679 0.8890911894275344 -0.22070208718496764 -0.8737674909745308 0.22086911076359717 0.7230283636407024 -0.7500687353806808 -0.7372834356524149 0.9291695237301103 -0.2686612467573881 0.7747540922460712 -0.4463357570670492 -0.9950650110419759 -0.17125874962126098 0.9832356453831905 0.8591309336845352 0.5145600868238249 0.38124296779233835 0.762580981670619 -0.8018580176080325 0.941367775152929 0.8489434091650436 -0.29533241820627176 -0.7900896991639363 0.7051479855569354 0.7323063574536108 0.2970790189321302 -0.367091501485894 0.26444714159623084 -0.45196338743650344 -0.9913134918494588 0.7554700514918937 -0.6563392041102072 
-0.5936012918372331 0.21905907553451476 0.6685467692186455 -0.0929386119201796 -0.8299807443888989 0.8023097796452592 -0.40929632618655987 -0.35552970995488975 0.14491823644032498 0.09981383637988483 -0.46261594071076173 -0.0616380583356404 0.7877161716798167 0.002563361076427295 0.1709325234569301 -0.45023472225248296 0.008668315536829452 0.9127506029296422 0.7948152487085081 0.5904072019446223 -0.6916195747487586 -0.5345000430862008 -0.8550691410085516 0.7411192418916173 -0.7932376457232195 -0.9345021668248508 -0.1171421646531634 -0.8683920497532891 -0.7940198869599076 0.5295966465038169 -0.48966158639930124 0.8142669428072942 0.8748700872792983 -0.5747024991637801 -0.1987496399212234 0.34478723405248246 0.5504814242136604 -0.9436546228414899 0.7867733724542922 0.6249004474512845 -0.3768835136754891 -0.5295035634601404 0.8314077681881251 0.8676667215250993 0.40444204912563064 
-0.6491518744001363 -0.5980420528684514 -0.6867008399748784 0.17394707308496216 -0.7990516689338558 -0.24145464917302895 0.15359266094846036 -0.8427737083804192 0.8452293503449886 -0.01383107525469529 0.015604772284466106 -0.08972878447994659 -0.05985991504569732 -0.46271559213928226 -0.6896866643537041 -0.13284532208048305 0.927678484277296 0.7703264709334812 -0.23044573537271407 -0.34580375062033797 -0.33814651579868005 0.8460517378003931 -0.42537919353302533 -0.8180991076222801 -0.20006525273769116 0.783032476581135 -0.37751635053591026 -0.5033348752979585 0.9741761098635457 -0.524414544595684 0.6806696519636755 0.9074481923473325 -0.2539731060571464 -0.9581279894371895 -0.550585380617806 0.9983097481998904 0.39367322125283954 -0.003140056994992424 -0.12021541061486585 -0.2040824188930057 -0.3049198085265694 0.4342898985248187 0.48903659789213627 -0.41816744249307813 0.04253292611349546 
0.653742302032968 0.8695701485426182 -0.3774188422963438 0.46100346584592633 -0.5166450977875159 -0.8946031827957908 -0.5637708908735681 -0.5985018790926635 0.9256923508339809 0.3901345349880807 0.12237204347236985 0.5418684370606532 -0.3062757504811069 -0.21688879605470812 -0.24683618627715553 -0.7486035433892264 -0.2941803471613389 0.7452400648076005 -0.14379597902287444 0.8617938986728231 0.6731206172311517 -0.1360922713115258 -0.3841883248964646 0.436081857854707 0.5396088910240067 -0.9938067537617843 0.5774132835093291 -0.6618525760955636 -0.27536548963422014 -0.9676841206258382 -0.639521967578532 0.5795994915609921 0.8696271472314765 0.15628613045303985 -0.8313652396642608 0.6568767515203386 -0.8948356364133285 -0.9416864580338713 0.7313095642772891 0.39038674433087395 0.7315249238219985 -0.06639765055052971 -0.28057453946405975 -0.8612161236148648 0.6453066678473127 
-0.19525515588692466 0.6484082711293588 -0.3146767478714765 0.846643676470884 -0.3700002832948788 0.8149474049292984 -0.9204464938386026 -0.07399114991795686 0.007320945513735078 -0.090338618234024 -0.23355845686272514 0.5565421277167284 -0.3959180408298959 -0.3939772769580696 -0.5536506289981549 0.7072974326054682 -0.16498408485422544 0.6465994813935612 -0.7168883497439094 0.5447543237823711 0.7659726930566644 0.7308729928753099 0.3137903606203267 0.8043938871204219 0.7386711840738109 0.8545958517985406 -0.7874881051362213 -0.20890872785168169 -0.20829720361551618 0.6588562199909058 0.9221187686002257 -0.8934695135238266 0.5956202520607943 0.8177185313751505 -0.908802127884857 0.7037995247280535 0.3250255573413616 0.5265127439109387 -0.25962647270405803 -0.06622090938208558 0.6581462873318913 0.7485486964245152 -0.8694167449930925 0.8748880225849998 0.9244703192839072 
-0.9637661889236457 -0.5826187950755966 -0.5727949642412278 -0.6864146443024399 -0.5367229049653657 -0.6508564912955621 0.40393705877887576 -0.9865517883235875 -0.5121358827367413 0.0033762027896169222 -0.8323412795113203 0.16388778427450656 0.41239140478973635 -0.6458436441154805 0.23570077958933955 0.5912221332051775 -0.48644795620224013 0.3250638928126892 0.7185172813687595 0.4324498446682439 -0.11273311363143868 0.9057903379049563 -0.5431837984638499 -0.037446809441539 0.5861589947785821 -0.10306161336992647 -0.7123107949546998 0.20602836516407397 0.7229728317510062 -0.10364500036813751 -0.003068598759879304 0.24383705551035684 0.8715410381067583 0.2516678270662791 -0.7958061925040187 -0.4804487534482411 -0.6823925973898921 0.8775242960551548 -0.32043532164763877 -0.0964587035906459 -0.5049851017182987 -0.927640704424848 0.40462885957610006 0.7916354331482542 0.2884731638937035 
-0.23165350479662328 -0.9319918020377316 -0.9052425701680544 0.7923213398501794 -0.9904834904219697 -0.37516214265621817 0.6186260139983475 -0.4145938683098367 0.8768523692034531 0.05158777860131125 0.03767980648448899 -0.38460208503830295 -0.4344979692361495 0.49209055905863575 -0.5650323369091321 -0.6184295235302406 0.8680747244790943 0.6175915722938525 0.2098233932824647 -0.7367262288099028 0.9293169943667325 -0.7869117871729687 0.047722168076116844 0.562031507080972 0.811291524869445 0.7541804501614631 -0.39820652533882583 0.10839898481320343 -0.8554891595546541 -0.946893305542897 0.553043658653535 -0.8695803422614174 -0.0606947436696601 0.9295920204681025 -0.20358014341233854 -0.5112786607722632 0.4930332972203604 -0.698409962520893 -0.35757565465789676 -0.6460022393438525 -0.7474294067153304 -0.9070485944629876 -0.8709326106661568 -0.06417795488414879 -0.5221588578022336 
0.9195063380978543 0.8065234675872592 0.9674439540306734 -0.39901643337281634 0.6420006895255315 0.6869360630328882 -0.6905758583956145 -0.7129274277203406 -0.4362210806357989 0.44439144235296024 0.2556631487820158 -0.6238557810555736 0.30305999957590446 0.405162864607858 0.9085850005273666 0.12260142546820596 -0.8158945325107856 -0.6140976259113278 -0.6640609389718801 -0.553094753399445 -0.6314675249449937 -0.9824624376901181 0.12988624089919454 -0.724216406373932 -0.11252309299909413 -0.16479333609982394 0.459739838006749 -0.5289803575701386 0.2372655956627312 0.11964566443732672 0.7429330568543262 -0.666791579758029 0.26570936841708614 0.2430171619360315 0.6544894185352703 0.2156989595182357 0.7030816148602836 -0.8977495050441873 0.35347547639934285 -0.6047323538178975 0.8813011194423559 -0.8844598313150838 0.52561692556225 -0.9801041494356784 0.9367893160783884 
0.21272681302667262 -0.8755354473889758 0.6903540566261033 0.10692735142679344 -0.7321348982752875 -0.46080256110352225 0.031121951959641514 0.6069897040462011 -0.4976410824584956 0.3253553936786999 0.4675024070694942 0.013885064623382126 0.5296241187173931 0.6054954770916983 -0.6503847709855659 0.08498834043925552 -0.08268441083539257 -0.22003042851149202 0.550285481945878 0.504800511848063 -0.5892647997338016 -0.71627521010759 -0.287332223037319 0.17912626563497858 -0.7088860681875546 -0.21676991825346992 -0.5652224491736244 0.3859122934456467 0.7350403559581837 -0.5716636584380257 -0.14807232736757991 -0.6561572030806091 0.49638540484507865 -0.44291951363240045 -0.6856027438142323 0.5742414455783762 0.7496521144819204 -0.4028532695072786 0.1564868101879784 -0.19121813818853317 -0.4862441752233535 0.8159012472139842 -0.08555638669688159 -0.8650374464864672 -0.28217960672289144 
-0.9583794503541272 0.774567347254745 0.5732550823429627 -0.32434792356312214 -0.4882643879323678 -0.4808638420914526 0.344286740188557 0.5031323870652387 0.5996181434594199 0.7866192759784014 -0.28862641811542966 0.8428484597801253 -0.6703623106088454 0.07397296684741339 0.47317057663123707 0.15285806245638067 0.31092189324274777 -0.4173582397696056 0.9331615366411143 0.7715643542914532 -0.9965450613492142 -0.2537816228648795 -0.5128379821668221 -0.011746534152435206 0.07585300823678898 0.07654041078485885 -0.15303678011077215 0.4289264103083379 0.022357697855330372 0.8263331600983286 0.3576971573343617 0.20963471492989338 0.17729220767823306 -0.10966657719916162 -0.13154303658842026 -0.48539264846113617 -0.2015714735726979 -0.6468405620882225 0.1801591872390773 -0.4759651040789883 0.9864156004943254 -0.858981446280084 0.22158773949760224 0.9464542553682678 -0.1343766258873429 
-0.6543267964653627 -0.2059871050149682 0.8032565729272991 -0.3275407477250907 -0.03708594037179935 0.9767313260287982 -0.43208182828270636 -0.8195825714488691 -0.9758835219641486 -0.8996734544780818 0.2801322358605416 0.23682456571210797 -0.6017145063130289 0.5714023987685055 0.8350985877941413 -0.9055519454550667 0.9033220110158682 -0.22800562408687597 0.29080513999370683 -0.3081632130374319 -0.2109287090341705 -0.2411810081664436 -0.25878592203716355 -0.9305328736951519 0.1410428412362923 -0.4480287619075294 0.0708434149235424 -0.295530475918115 -0.6974806437929442 0.4296362218106764 0.7363125715639904 0.7049157170544551 0.024099310240465632 0.8348329297140527 -0.38700050630673033 -0.47465254412432434 -0.27645237644150855 0.25216080752422165 -0.09996666212999772 0.14843316414945762 -0.024844377440910836 0.7269739723444861 0.09442754612799908 0.5233399534041467 -0.8533598657486081 
0.5763602792959066 -0.8747670859833825 -0.5403867792269046 -0.037060605349911624 0.2807556765810555 0.8811715482814237 -0.8539420138002751 -0.2999076089778747 -0.4530219330235912 0.5702883416915909 -0.0026801660947344264 -0.30128468240864925 -0.9020832251142865 -0.38226373028493565 -0.3734332476874722 0.9354174309460215 0.8710679880604728 0.13788911885850852 -0.5991250532980537 -0.49817301337685094 -0.0024406127873828343 0.4095537360028194 0.2566268959815645 0.014725675127674975 -0.8147403321078905 -0.7618686037907136 0.23543087988370792 0.2171180374600432 0.9440226449226363 -0.39384232830049015 -0.45322379929651757 0.3288909654914849 -0.5319316314319715 0.5937258097222382 0.8718398243803587 0.06704591231216961 -0.0700434854548988 -0.8071211761071218 -0.9064351251835172 0.6793150871575133 0.4425611012726083 0.34513288135058695 -0.3286670746752991 0.8213004535181598 -0.9900917488116485 
0.29887261359528927 0.4742565706909705 -0.3438965302314918 0.4146915598793821 -0.7865630827176895 0.045321117113414466 0.1667399771773448 0.1797340380605199 -0.17070716534154395 -0.010692505314665812 0.345464768584524 0.4926166297208616 -0.021227917523542805 0.46063124761049257 -0.3395429902176792 0.29714861443113727 -0.2705766011895969 -0.42706310365216504 0.9991461097401548 0.6323068156465756 -0.9678872716937641 -0.03951161538745995 0.14878665316392237 0.7387245395241593 0.8885799838528425 0.692100325447522 -0.20128259916461322 0.45476323896301984 0.25824026620602325 0.27155839399432713 -0.9649303733607744 -0.011345226158482324 0.19159541646099898 0.5541788708093491 0.3475164167492808 -0.719846765548992 0.007699483716457678 0.06736220419454941 0.2789829963781123 -0.14541008751659423 -0.27429987491658037 0.44369688712350097 -0.9769321020652815 0.3241777185947652 0.4155564617143137 
-0.5416251817199376 0.5102502087453411 0.5058636178539515 -0.3493892059707706 0.5083803955239743 -0.1772114650038048 0.5019825539333462 0.8247711233317774 -0.7208787219899107 -0.8604557428024755 0.029417690626618587 0.7396392247926182 -0.18513120178311926 0.8357904658612847 -0.2150740965230138 -0.42800415680508563 0.24258232821428072 0.8493951375559596 0.6987403114568238 -0.9003652407805576 0.9943924356802216 0.9735963365394928 0.5555150070930261 0.8936140266544663 -0.467777879983422 -0.6520850705036083 0.6511294138567578 0.07757160001347141 -0.7012714775925284 0.09257755340132512 -0.0941756708994701 0.20983013234224956 0.9019501796781186 -0.2318472233362503 0.16859336471422304 0.861594576902255 0.3867477960016268 0.14092888227941502 0.3247072721818649 -0.45537621887241375 0.8543310395735764 -0.4041078057179035 0.2577022390738275 -0.21566478449921012 -0.3381353608905264 
-0.5370084263324995 0.7191148820653157 -0.6606189509663829 -0.03264703168736682 0.5087032299875784 -0.27629820884346046 0.836310807826768 0.48070281528763625 0.8937379458016783 0.21483300793010418 -0.5819853515852293 0.9400689432012361 0.009062040865063237 -0.5657976795488264 0.3972191908717724 -0.946710347204033 0.7762290535567582 -0.31804870171559574 0.36138605025174964 -0.5725778783817983 0.23435045711973523 0.9677554438246512 -0.3070587979746895 0.3550911601365423 0.5348588964827923 0.4303758995990776 -0.9511582563963672 0.23456840315885508 -0.17345227716469047 -0.6573688934049509 0.9860640094943651 -0.12879982282306757 0.9371972260482713 0.020698626500105233 0.6246764019513908 -0.05899128834970191 -0.7555727028254824 0.021107143159708963 0.00773706299793564 0.49299059701897274 -0.32275671217202406 -0.36426470963368907 -0.3526647432194596 -0.47515687304600385 0.4010709213746848 
0.8845840926514499 -0.36132606261494216 0.38754974755053917 -0.5870966515364802 -0.04195492403315959 -0.3208319541941176 -0.9425402510199827 0.009512611376639502 0.37483774412792825 0.34711194856622263 0.1602016847194967 -0.10949558235962642 0.9987442639325996 -0.9254524336570493 -0.9610295314679018 0.5193251241664776 -0.5032781365525518 -0.6084576773316346 0.13043388879867468 0.289156284752514 -0.17707379640272158 -0.7758352905092052 -0.5552936365049026 -0.9730389340698973 -0.12236646836721676 -0.7039766806560117 -0.9584604654642483 0.4177751298646708 0.6170001634499083 0.013312811915627387 0.053085505931619315 -0.9573382287546433 0.5790538598006973 0.6058890454410988 0.02428825859057704 -0.10241948428106706 0.04326187270541504 -0.24802627755939644 0.1251646618029878 0.4967455104640466 0.8554762273366632 0.4316660470401472 0.13493769946194178 0.9628783796457538 -0.6729922893171401 
-0.665481505262933 0.0061887268638014525 -0.1319112643460294 0.5560347040843368 0.7890106693843868 0.2878984501842614 -0.9870569310775015 -0.9784945083917198 0.8868341943516991 -0.280550753665203 0.8176116391311916 0.36414538437457433 -0.7575209508075844 0.9033646542927021 -0.4521899599382302 0.8961343528747887 -0.34130956828052006 0.12276531056028794 0.20958142202826657 0.570472682715941 0.8609430418037136 -0.909776950750016 0.6207925188923973 -0.10699418479166689 0.41915763093754 0.6978989044118042 0.9035453664925532 -0.42546663632501924 0.9924638433378068 -0.31544714825383235 0.4405342634559719 -0.40262122390848964 0.11288934954878904 0.5432173618942691 -0.8002938000105309 -0.18974903328419535 0.8664363569981266 0.9640288569309805 0.25541066859935735 -0.8328187351469354 -0.9649185511280574 -0.36008474296392223 -0.6794474245382838 -0.7092273316296291 0.530816197811651 
0.35854030990276486 -0.8469085579291644 0.1669509608162385 -0.7170793761580727 -0.03789142376548971 -0.1884434253259304 -0.5321385339735698 0.13224278726674776 -0.02266158674807528 -0.09192334113335887 0.25150687077993195 -0.2586656084572885 0.5011133094227511 -0.756248568976235 0.6011760386288956 -0.9531301788073057 0.2730243286283711 -0.48998121711439513 -0.8553343873615236 -0.6391440734349474 0.7742212307241345 -0.8989985165457843 0.3327508556572243 0.8697166666514264 0.6626906106366564 0.5056437590396952 0.8583134348152752 0.9854149035980511 -0.11171491953430035 0.23477709581609818 -0.33801118483123527 0.7703526417372419 0.42652842276661196 -0.21291711429034055 0.5971476418335364 0.4878681377183538 0.7284260235248032 -0.23075328277369533 -0.983520675002634 0.2227268548865018 -0.29578686906352747 -0.040571563416896606 -0.7056006545391087 0.471081793733509 -0.6578245978342252 
-0.1605008395044858 -0.3860461454225401 0.6169558705174398 0.9093808180714009 0.9203254123164715 -0.7761499356382833 0.2923779268631923 0.08936397126474982 0.04570805065746253 -0.18930820302289275 -0.2391178988804581 -0.6174921466416052 -0.21558798147077196 0.6334549708624575 0.6691575880507992 -0.37192970864704344 0.006051267350919209 0.63168904113925 -0.22078491169552428 0.6025064619318423 -0.2145790325503576 -0.15411518397454405 -0.37648657989809853 -0.6930586965361778 0.8911975566048715 -0.8220984276259811 -0.5819316207770615 -0.22265137765419318 -0.711245159529587 -0.2287004746483241 -0.9763560071567781 0.03419775959196891 -0.6768266109023362 -0.894122887951055 0.2627042949698535 0.13403068624434122 0.5473473258114656 0.27766563041827674 -0.5201178372513067 0.193636325755413 -0.4785780426814692 -0.1249134666253604 0.8762992824811213 0.728191449917263 0.3336230470075201 
0.3639302158470463 -0.1468495646168444 -0.32205859600193354 0.078866896963951 0.9582682579478874 -0.6324577789498358 -0.906304151364725 -0.9196313840183699 0.5813637108224157 0.13365551180212765 -0.3903808391238932 0.2507938021889953 -0.28990216811428615 -0.6051216697360169 0.5524972269692794 -0.336672537490488 0.6483842492585503 0.947634565124533 -0.18013404060087246 -0.8606386101108019 0.08949497724153677 -0.8847889048095481 0.5050902218773203 -0.541669507309416 -0.29582420627620953 -0.5500342884611189 0.6556839352893744 -0.34344501969822705 -0.06911883309684619 -0.9151256957263967 0.5218670478512297 -0.1942244396357944 -0.853587059062971 -0.13954452472047985 0.1855560486404324 -0.35160506113675605 0.9596994971230333 -0.37931202822570076 -0.4443103469599168 -0.48473182338393195 0.49840458904314033 -0.5983847501025328 0.37399336673982675 -0.9367873874981358 0.24751024860736748 
0.6289086755911151 0.09599001410190278 -0.45676449745992875 -0.7490312264655605 0.8957396000659175 0.2952667750264568 0.5468060029705402 0.30197368679693626 -0.5901112173465923 -0.41528846956096865 0.4763268401621794 0.12435199941469333 -0.2209010424121003 0.9566358272438367 -0.6527122150955609 -0.5129667014488528 0.4462557334713255 -0.08559661676273755 0.9534126517904329 -0.3044955324981631 -0.20894120411303896 0.8013872148821284 0.9124384327496411 0.9686116864205527 -0.3175755575755803 0.3287811328885366 -0.3410054968662617 0.8360246565763616 0.09593835818898588 -0.5380049247683778 -0.9376235168982763 0.8811315279576668 0.3032552817746379 -0.45393468409084226 0.020838988633741673 -0.09391499800176306 -0.9045789614227999 -0.1662837411094218 0.12035874130412805 0.9101745216059591 -0.4803301135785083 -0.5745890873980086 -0.7553525467928837 0.14965187917959644 0.6893287609715619 
-0.9610677156882348 0.8845230697928002 0.9865903242854934 0.3690376795188579 0.9967402363361391 -0.18142538645394368 -0.7636882631558297 -0.7574262483843877 -0.6474489146705469 0.8233857176707708 0.28736797008141846 -0.9618547483369264 0.17429165375655398 0.12040817629636869 -0.6049835754520703 0.016098694116325918 0.6587808007918337 -0.6220935302509041 -0.7614168986428778 0.7165613596613343 0.9741964930819986 -0.7397780248843338 -0.9149404853115615 0.31961945238156964 0.5095879522814024 -0.24706700660746184 -0.2842678841097357 -0.5117901584971705 0.5563968031235467 -0.20868436709810512 -0.3504026957726947 -0.8560182769702545 0.3551530786121502 -0.9191614892274036 -0.8632326786872779 0.2689630496288524 0.9112166033040956 0.4222523920261767 0.8970255959986624 -0.46905591101731337 -0.9833644676638436 -0.659836495685989 0.6431439769352463 -0.7019315879512997 0.5108987657704493 
-0.6371915980177283 0.0555256617059976 0.4382011454963639 0.9715605516519235 -0.08792475978935332 0.06419326953437499 0.19122032106625197 -0.25357984502272557 -0.5633545499866528 -0.9539081873163893 -0.6425424538860907 -0.4778591059076731 -0.842542945406745 0.8601323863044701 -0.9369098769231854 0.46989798539835737 0.5935199323900342 -0.48064740528296723 -0.5566331068847525 -0.5831544357607663 0.8974401590449002 0.7390252398141011 0.7271266327165382 0.46289887535505403 -0.046159545768184485 -0.39850129644906795 -0.5888529200929356 -0.004472093058491389 0.18018998455235447 0.14300552971028324 0.48043972130657675 0.15096443678586824 0.018386483016694655 0.7946297416869723 0.9606849817472849 0.4284260602194474 -0.7832395982654672 -0.7009247063215553 0.48157906014758645 -0.615335523384301 0.1760006671886063 -0.02316763824281365 0.984942921811649 -0.8806520947780863 0.8688274043026007 
-0.9702092036856003 0.2290214775775703 0.607491664449854 -0.8579325314750637 -0.05269750177938737 0.3204794364675314 -0.15664719293535634 -0.4288846597269178 -0.9808507786594096 -0.8518217794128808 -0.7690910938358575 0.4605900491213606 0.46182383033740737 -0.7021034269524988 -0.3107566581015686 0.07132806765014554 -0.27101277393867207 -0.2052644051937833 0.5368632036103405 -0.2973214168029912 0.2039154612902463 0.8500268549353684 0.37717884209966934 0.8703973889414967 0.661205523843875 0.6821410336158842 0.9280770760955654 0.4942622176992262 0.6369607924944494 0.4356715065072907 -0.9782765070040389 -0.2541384266422688 0.16113047901429267 0.2410469526117367 -0.15356833341843812 -0.9941630570598916 -0.8173694965391611 0.5367033558627434 0.9106417219901048 -0.758814140876422 0.4573263882165728 -0.0814743528332138 -0.8202478238712374 -0.9629377024013419 -0.3290880410205246 
-0.013653708990009283 -0.630247116661725 0.5038383258961727 0.13317022238552578 0.9248665015358 -0.5226898481375233 0.32901918422189613 0.5070573728429899 0.8864439870862899 0.2841581731607927 0.3549327167944085 0.7255015646087868 -0.3642307410131378 0.7943533166895536 -0.7630589509934738 -0.4992361305584765 0.3715304806320343 -0.6538478197273363 0.9732515255286949 0.6456602481853091 -0.8422548868592301 0.4859764676650722 -0.6037682698253908 0.8028968038725202 0.9775148167607521 0.6001311878484106 0.07646121125723893 0.11822429604525864 -0.935461956199434 0.7706458746732694 0.5145814091609746 -0.10492972834107905 -0.12720728222680178 -0.6451884595207906 -0.017667694684788904 -0.6672394086671292 -0.18762015871694526 -0.6163107390903844 -0.077006105579976 -0.9226040547984111 -0.29040275426228845 -0.96693041931075 0.43277700259980945 0.5039003289742192 0.8418897971219643 
-0.8589357710380714 0.018537700249777078 0.3997137955304877 0.3534015118932057 0.02971651417281196 0.5635166590308791 -0.9649471745791289 -0.12556703290939897 0.7337174374948519 -0.768366907541634 -0.5183834929673095 -0.7518148181204507 -0.8524798004427037 -0.09780846544964072 -0.5189311725794554 -0.589251047010861 -0.4271529503911218 0.6506874887650265 0.1665804433671696 0.6753783809946636 0.6817864321921621 0.7777255458069205 0.5051672397324514 0.9396631868945919 0.006381279418892882 0.9368928311734257 0.45551546398276255 0.6642942865471013 0.7238125373328708 -0.9762417661213838 -0.4745637214720131 -0.13530562204784968 0.7269849171734779 0.6619954853665484 0.6650462557341683 0.8118637283813677 0.7535252312721807 0.35895690489500587 0.24622292569097137 0.6563694348536764 -0.3080932064295927 -0.29814680666818494 -0.7441622080632424 0.7694841426271946 -0.9083841212877177 
0.3270208955918319 0.7697224507173224 0.23805930056462477 -0.6250192956604934 -0.18140978458906143 0.276276733988857 -0.34520503704634886 -0.7185150589826628 0.17919072794461544 0.4830802213994685 0.11314738497420596 -0.32890800421091804 -0.9358363766387303 0.8668223862800968 -0.8538073562545145 0.9713089075526886 -0.41792516492885134 0.41631931343124995 0.24134392772193647 0.2734223770905797 -0.8618466441619057 -0.22966144242151731 -0.48210282403483373 -0.6334585697554993 -0.46639398839835833 0.2664054695663549 0.17195814078816518 0.8437859199569009 -0.6674116130629744 0.29371986510897496 0.3733829473913115 -0.17683821034667968 -0.630059684590017 -0.217237811690856 -0.5580593266598266 -0.20363197827251445 -0.8033786639161105 -0.33387600157099095 0.3349863891422573 0.6519828448289928 0.24611079742229158 0.7095487593696106 -0.253490335968243 -0.9848196925832413 0.5538645106611781 
-0.760876684599032 0.4475029472510712 -0.29566907531182873 -0.026751288109584825 -0.019986734097890535 -0.10982840295546348 0.32554385768665717 0.005199396734087092 0.4740876896983923 0.5535854784740546 0.8094105433387517 0.5951843901314526 -0.6417664355253014 -0.9740493407974187 0.03991336577079818 -0.4501277832638213 0.16211131159368497 0.39875733925593715 0.6336659351564746 0.5872409218592756 -0.7764420203333406 0.19063848500084757 0.398354356991274 -0.5423116705630919 0.821795942609383 -0.2761479862859324 -0.9675476036538466 0.06003212675455649 0.693059364990976 0.6438768394896008 -0.7760135237730186 0.02511762911505877 0.7202033108795933 0.10269199822184039 0.46432941389160987 -0.14892154786240885 0.7773136560917284 0.018885677198292816 -0.3862950677290129 -0.6518764148501279 0.4622885964606971 -0.21718066020337523 0.5382886431325851 -0.11294743748751324 -0.23518338738333622 
-0.20735023220901128 -0.015506999872288985 0.7445284812852719 -0.40587193403304767 -0.7129090815985322 0.2642289085877969 0.6994670498529509 0.5303506346741196 0.08337494082882713 -0.704362583132313 -0.04127290655238558 -0.8347467620962226 0.03394963356945779 -0.9230095899060959 0.47661747581088343 -0.03738591632413546 0.28302825791869846 0.7671600042243598 0.7815618571106828 0.6954037887081477 0.7341857924540756 0.20426169468754285 0.5345925339680777 -0.7935739485425242 0.5327730901178147 -0.08522248253655262 0.21817121174539733 0.49101210240953774 0.8219995765923609 0.4486704587131005 0.5901640217715916 -0.0851812458419261 -0.45088770871372863 -0.7782978552615039 0.8366246054816298 0.7567315994150345 0.6781779755133814 0.9543719044961672 -0.28163053174446184 0.20632994340807387 0.8085521886931315 0.26759541642238194 0.4301555047928882 -0.5526785357900132 0.9031986887054109 
0.028446565431521575 -0.6224005633623955 0.5228083904752838 -0.4014008340421813 0.6349880827388292 -0.3741937649420315 -0.6947992729583148 -0.6019271209429835 -0.41257997257543644 -0.6149977862174043 0.08304407595878738 -0.05709785922236299 -0.5865218619615802 0.5722958626998862 -0.9710167386050041 -0.4892599607553165 -0.7007824814825054 0.22501848676660008 -0.8724635165923522 0.9083525784127553 -0.3779803158463857 0.3399244828201904 0.018306995054142572 -0.9941730713120107 0.9908651538892319 -0.4261416241926337 0.6497129423782593 0.301955596699208 0.36961518370628177 -0.8346738785932291 0.6402695671118199 0.1155834104112714 0.3922513296009942 -0.5772667997229313 -0.1910904300588092 0.26528369925313 0.07472339347091506 0.17388291567868608 0.46278290915596587 -0.5701927800613866 -0.21374043946177324 0.682654898406017 -0.27957239448246307 -0.22567412692709277 0.5636959608006995 
-0.2873875610805863 -0.5998407040802414 0.8825710171017345 -0.3644137291780327 0.6536151048644554 0.8179772559219498 -0.44745472896632665 0.36855424306271223 -0.07365828746943603 -0.7837588500899266 -0.4064367686530366 -0.24344425888885035 -0.7590433868840865 -0.516178109804154 -0.5950432597341182 0.04442024206025552 -0.2900203624529938 -0.6696123927640403 0.8218558875081097 -0.8897558137506532 0.3017499568861517 0.14193468620680338 0.4810378490460534 0.8269124534293795 0.6697003303630018 -0.6283701837720101 0.789911533579021 -0.21877368493313942 -0.9960128627134137 -0.49051908867565164 -0.5257148052679266 0.4498208657143028 -0.7741494298747453 -0.5736922474473789 0.6356422637375481 -0.7857436989118243 0.5814053044420457 0.2019373580028634 0.2662286767956592 0.4433722220331753 0.49039290376931755 -0.575499194465513 -0.7496674143743294 -0.7208041545965673 0.36675270328380316 
-0.6128375406914792 -0.9772834841378284 -0.26660101072265374 0.051697750265714104 -0.38943476768485885 -0.7397608003566851 -0.765498247807743 -0.5136901437294903 0.6837287095291027 -0.7497170273465055 -0.13827642011074337 0.299496303371956 0.5430900342065972 0.909680288626805 0.1595856832574365 -0.9015221692380195 -0.0011693980207736487 -0.17958813933145779 -0.3519282072972396 0.42280747014868636 -0.430415245800462 -0.8965739703361941 0.9263582885393671 0.5592462210817462 0.5010799922618996 -0.5304921786017254 -0.3861739506844828 -0.28634954917896405 -0.7787892053119783 -0.6337960156018485 0.2802709005094013 -0.6026459211986868 0.42350187558150587 -0.2176116483983439 0.9879327948086138 0.3093564803654816 -0.5271304691468599 0.9771306772450568 0.10116587182592918 -0.5180447559096841 -0.10795729011343824 -0.8328914336593993 0.6152752502306613 0.006291233095167881 0.3139591316918431 
0.03688282415501587 -0.585749870040682 0.2656011477527238 -0.5250959798823922 0.828931732003817 -0.4121753809371693 0.27780118710656443 -0.4248869785933247 -0.27457971869389475 -0.7784977019873609 0.48535365438038136 -0.35198642074865427 0.251257597721084 -0.08111791752851927 -0.8708040584012651 -0.5437679727469111 -0.4919270604333852 0.7238275829152845 0.20484016687785656 0.871947035526837 0.19132133588045264 0.08072416402420135 0.9225792325851321 -0.29887668952714397 -0.45219530790983065 0.004271778594194808 -0.41993636270432466 0.47561196862048827 -0.30152438811177884 0.7259639625886973 -0.19565883845016896 -0.13594209710717786 -0.9185333736205417 0.7426076763289706 -0.7682200424543353 -0.9579928601524894 0.1628678339249625 0.4129404615613088 -0.13187625818181292 -0.3864400392813132 0.017851838023840827 -0.9683942783660877 -0.39274475917497154 -0.5086302314772324 -0.097674286214944 
-0.3445509759077998 -0.3139268734399816 0.5187397220158265 -0.48463540140777717 0.8653021651697699 -0.7857845475782828 0.5570226607855422 -0.7047367955458361 0.11712485032033881 -0.6588101069616019 -0.7365167950989591 -0.20288376981700207 -0.630423795698454 0.10980103483816772 0.8492340081199776 0.967419513378436 0.2707924913841364 0.5935908513302885 0.7338105286291075 -0.03873971499800599 -0.654650234863517 -0.47266123761144674 0.20240285906745492 0.040243450794969826 -0.6569063120408083 -0.6865058157342239 -0.0762841203031368 -0.9556205430239777 -0.8052783548240057 -0.9762564850898925 -0.4991183938522934 -0.051263874998300984 -0.13529419147485844 -0.18625883670528287 0.10480149688702167 0.09573680887181246 0.8003484296192986 -0.9696373323203415 0.6787492216418254 -0.16343636701136854 -0.3535361743346852 -0.7853340062921812 -0.7949822712010359 -0.4797963921825221 0.42838546607443173 
-0.8099250919925771 -0.9111531028216475 0.03625339905853364 0.5016980310953891 0.47412704882212475 0.8418225361665119 0.4476766060160353 0.22529961035982615 -0.6365432134531903 0.9363889714094196 0.6422854075276372 -0.46489991500196504 -0.7844882530874977 0.9550720901785699 -0.6132031043646489 0.3788667152277485 0.6868292161236342 0.972461590479667 0.6848919374309792 -0.6815700867158634 -0.013472369855469513 -0.5150445930310306 -0.07921675083015822 0.5136658578148414 0.5649959595247878 0.14272143423195227 -0.08762273115963537 -0.22662426456681284 0.08159173537760767 -0.9597145407470531 -0.2968081194567924 -0.6086163498199035 -0.018512652770109383 -0.6133927938276889 -0.3102288077630102 -0.9181197121235887 -0.4393685133540657 -0.9975408162640547 -0.48858405942112126 0.48624010719485833 0.009121311229454587 0.2823764734579237 0.02162703058748683 -0.5557549661631083 0.597109035273417 
