50 45
-0.9880822318581146 0.3240061846710822 0.17762712447705065 -0.12798704008596307 -0.11109739324267043 0.765862790657637 -0.4489973649134993 -0.5674759041348703 -0.3184128566806208 0.7639576771963501 0.9310160640103633 -0.3382875421992697 -0.4010150838036006 -0.49296163803679227 -0.6601426687378757 0.6969840911773304 -0.5932217979878305 -0.7826593430692592 0.7764788812823737 0.44735800446170604 -0.3629257237033905 -0.47351488252343876 0.35580426140305943 0.9587892763403223 -0.45046301765419083 -0.7337227001100946 -0.8338610432376508 0.7893969912666445 -0.5110256962951101 0.8141209769062943 -0.82947137757003 0.5040331952967683 0.2864150933072849 -0.6621679319946321 -0.9889877647798466 0.383956764626199 -0.08483784589620558 0.5522192133842645 -0.3295789573813015 0.496204790188034 0.7402618097852143 -0.07012567005697234 -0.3954224392422123 -0.6214185214759356 -0.6107178116379499 
-0.2988045113270621 0.1784512839604695 0.7700135725230215 -0.4757523703773161 -0.5662575174763949 0.023031956859794755 0.05234862727887801 -0.39097264994253744 -0.5013975772667838 -0.7246168266403945 -0.6314990623249184 -0.8565683333950629 0.31152269265661636 -0.4274569441159828 0.7431782238479918 -0.22527911466058104 -0.1208548657859918 -0.8593576997367114 -0.043749989400953204 0.1991856481848857 -0.11424595395446002 0.353810740853183 0.40514664276142365 -0.1690893140790688 0.323529348131405 -0.26684982846430594 -0.2584932540634386 -0.1582133316487604 0.49937290965138015 -0.4857489168626774 0.6786178694806091 -0.6337113969546015 0.143955552002204 -0.36756389214870877 -0.9599754339063777 -0.5835085206566129 0.3037096203756324 -0.741884958781162 0.8560048160201927 -0.6327521076134515 -0.2859294268177799 -0.13965974050474728 0.11344530516198548 0.7484048153445293 0.4323486231186431 
-0.8151463518754356 -0.3740271961224515 0.5203904075698287 0.6511901033776175 -0.4963801247880455 -0.5849716004583487 -0.9885459598811204 0.8186661094475232 0.02604353852463026 -0.02110202158360397 0.25929686618648606 -0.5413959055773354 0.4577715016349322 -0.12445820650934536 0.6267827160325627 -0.5851436454645849 0.35118384272788505 0.15639327728984842 -0.7491279108893301 -0.364222566294949 -0.8876187977642056 0.36212582990712217 -0.8641241218376563 0.07026019265866101 0.31267807505628187 0.027713957090029773 0.5165778664385383 -0.23574085046448 -0.701683975331582 -0.05705618191276152 0.49372867215866134 0.8268074100589617 -0.9996870173988641 0.775855881954892 0.883866259830538 -0.42288850313949067 -0.6829316564900656 -0.9095690787068855 -0.27262768324116204 0.889386391148943 0.47554686425656034 0.2761584144065927 0.9631255624421651 0.519672575945906 0.3725664711876018 
0.45595435551962504 -0.5949319487608653 -0.9710476054631316 0.05592017539918759 -0.9497752901792902 0.3454511450790869 -0.190535822842685 0.2257630895872651 0.34869691482323373 0.8614833714282328 0.6761881077732996 0.9199004959758026 0.17797210416684828 -0.7834456514649104 -0.4969423150989185 0.39231499944063386 0.5515770977239434 -0.37583838309783535 -0.5364719191871397 -0.39752542694013404 -0.9493753039346695 0.08212160604524654 0.5777104640083668 -0.2963341557048018 0.6070175371189965 0.9865981848031495 -0.5266396258304771 -0.5481997542045445 -0.6525392617052723 -0.2000643405882494 0.5355854573183865 -0.44815524517894456 -0.7946255133211746 0.17323587831499498 0.9502169174504398 -0.38277009419284247 0.11912775935878495 0.6140729749845977 -0.4616340441928819 0.6382934494269792 -0.1911586374350962 0.04169148804578571 0.7347660185548743 -0.36098093904634343 -0.6396628489210128 
-0.6135121925557498 0.5800786127442894 -0.45296608262386817 0.14363797585290383 -0.23247369193438594 -0.8225809592361109 0.21003155119542805 -0.045248574056616864 0.7212972112835676 -0.2940630536529796 -0.03751043689953537 -0.3067014709933782 0.456873295797684 -0.21063628056812878 -0.820245239063137 0.37487622290461897 0.17707850591857088 0.7850177914653214 -0.14772780877605562 -0.17412896003380562 0.13223281755132255 0.3888368060578049 0.3709363617120707 -0.9802302859851597 0.2624916316801855 -0.15541680191244223 0.43524721925533205 -0.3121602378212087 -0.9632495809478709 -0.999551384244497 -0.7208439065125425 -0.4266180176712737 0.41053985466864273 0.47386052032314985 -0.7448101896149608 -0.5024154692659937 0.7022878624032167 0.2653716145577387 0.225644550584007 -0.7336633192643889 0.6267799911239802 0.30509279131926403 0.18034423884097683 -0.6288119484108314 0.7266010923501995 
0.6202057864862645 0.03366109468436651 0.4239676166577644 -0.993204256595221 -0.920327618911496 -0.3508009538725225 0.31340469151776684 -0.29506304557083474 -0.9976665616366973 -0.20125548504344604 0.18342261697926432 -0.18175380260291818 -0.6928301312084124 0.9827908221428434 0.5066028735509733 -0.7386385214959073 0.33957563095352716 0.8231477381955326 -0.23735248814236543 -0.6571981931530695 -0.9749288884491476 -0.9161517692735544 0.5304934583537304 0.625131803592704 -0.4180371204890365 -0.7152301635145686 -0.8359376615370622 -0.8267192957999872 0.6670347244606418 0.34308999279944263 -0.3545431727470101 -0.3025748613675092 0.5334324762325957 0.7108976336614587 -0.30425770962789 -0.8387022322500173 0.5474827303529977 -0.9270118364720263 -0.22771869932068722 -0.9462641036872517 0.24126545022214096 -0.17293087010583097 -0.8070835475636156 0.7107388227429463 -0.02966356992806718 
0.289310133550837 0.3011247881755521 -0.17274505403267248 0.20107493632049067 -0.14862825397029744 -0.6774040919235631 -0.38762748945219183 -0.5302894948655434 -0.8392487579565273 -0.637487085318565 0.9185424057759946 0.13515886409815336 -0.19551228868321324 0.8541447207590944 0.11491233765042175 0.19037771645600632 -0.05302947731057639 -0.3068144360487495 -0.5231928694924315 0.6020294685230942 0.9057987169856099 -0.7213945488839548 0.4278415130870399 0.9158162722453049 -0.2546571438609091 -0.27039522911092373 -0.9018950441973435 -0.8050678687320449 -0.3741371701383909 -0.34040778027992435 0.35131286255759586 -0.24834704109680228 0.8667388132305724 -0.938063992033124 0.6857684528978063 -0.4128341991496889 -0.534424077410266 0.09856358792688025 0.22843659174708386 -0.02768575785906391 0.16064559666285527 -0.1186841875889375 -0.5816193726820764 -0.8179822461103137 0.03233030172784135 
-0.30271219513803094 0.9152682019967264 0.038697910611820374 0.10994136377395103 0.553217844026344 -0.2293948484739985 -0.3748746817959858 0.4834826561743353 -0.5996868749056017 0.9638087497079153 0.29467748417283235 -0.9843646006589144 -0.050269724361036605 -0.9678145988557618 0.9370762918491429 0.907444349915411 0.6002551639315614 -0.28666901058300764 -0.649747549191511 0.09188616773579739 -0.32644334926836893 0.27042501884603753 0.5240618262134855 -0.28729389294878604 0.8887145164174053 -0.5146574064539473 -0.34084352017226216 -0.20838907965489262 -0.19344699405586652 0.18146237984110014 0.8243930155330945 -0.40489019983811336 0.8356363536485703 0.5774999440643585 0.29873582599994264 0.1829978594114967 0.31561352712236923 -0.22434842125503085 -0.1513053817874508 -0.8463202076958336 0.17992538640359235 -0.7482157297891714 -0.5400890783930337 0.6972347875225926 0.7487174322816652 
0.3423622968540778 -0.6284123261424164 -0.27467347120165386 0.3141277755892147 -0.5877465364005794 -0.34496616698660465 -0.9322343835676703 -0.6460505753270667 -0.3604889346904634 0.032674307294390914 -0.4912656328397371 0.44599315598152867 -0.8323189680665153 -0.8485469262853675 -0.2186122445263463 -0.7456938440022252 -0.24686343370723396 -0.8953636804312468 -0.45225325633051927 -0.6802710958910425 -0.02560416442470692 -0.36140058095961924 0.861503288064138 -0.18889837589361558 0.5723314728350528 -0.8137389788872855 0.6445608884457488 0.8797594740280914 0.5546339042840485 0.6364044975953078 0.3038351535240773 -0.19121651671163709 -0.6751571117611468 0.5782058623684576 0.7730444871703257 0.7598030063451988 0.2857159932697364 -0.34713504475177537 -0.01507760990216278 -0.40602703202712886 -0.8813453543478653 0.5993151531443281 -0.9375130367397524 0.9800777213100322 -0.7446375111994847 
-0.4014353328938556 -0.6362942094915227 -0.19845883209254445 -0.06513675432847643 -0.39869905246668935 0.9220978829402602 0.7354510016893323 0.6784587115633915 -0.5340326090467953 -0.20348294263905276 0.8005335360681123 0.017160468998128398 -0.06039946369728777 -0.6234350962992488 -0.3426572029218613 -0.12941739945508868 0.7812924717012664 0.7857836590900662 -0.5072438428685344 0.10323460593458011 0.6582235027538683 0.1829837238829215 0.43219725373410767 0.4736081385559967 0.8367859754310139 -0.017237958365097006 0.5968348381977588 -0.5565963771307767 -0.853599797184661 0.7994727071992676 0.15933329262211782 -0.8713040789776283 0.21119996687849785 -0.7353882011328763 0.05056104133385353 -0.9482082245976771 -0.475155300125784 -0.22421549417983266 0.3309882930740986 0.2919842440658711 0.5862921748354937 -0.29387715399268255 0.6643362113632565 0.1353630329637059 0.019444506847330123 
-0.36377262926419784 -0.18263369489405723 -0.6117072755543211 -0.6328413151871883 0.7664088100044713 0.6585270432574108 0.14612319710572885 0.0801894060377577 0.8252082793091091 -0.26049628899994337 0.998151246239511 0.11421230576628316 -0.4891215424048101 0.21754450915397117 -0.5981963836149995 0.5031521016097666 0.7857109114557064 -0.3872352126244669 -0.7265334402418302 0.29461863928695164 0.1887979428841553 -0.30654076594021484 -0.2796611580472599 0.31333313914037486 0.7410205298606793 0.6437797158254694 0.2771390146490984 0.36100287058421987 0.9867566339355782 -0.4080348091018897 -0.9865493947734381 0.6661827725748561 -0.7499914874538947 0.5636373294306427 0.4419420060021064 0.6652395331809051 -0.721651519346729 0.9735046466844981 0.2846508640949208 0.5256116617014011 0.1062889061235941 0.8801453071418395 -0.15602336968594477 -0.78486219528705 -0.8096182122527811 
-0.597633177770805 -0.023023656269511417 -0.6236963979870889 0.6515595841329453 -0.06802967314253205 -0.513985765566199 -0.21816530993912675 -0.1940701531973954 0.07657258620287899 -0.8842333222862309 0.7281426916117737 -0.9265595466929941 -0.37252945353795686 0.28603865398960937 0.3657088131184827 0.8245349485224505 0.2713576906670676 -0.8082003664743365 0.6705668406245724 -0.24187884194661957 0.25103287894868886 -0.03369823680650619 0.5286272777340582 0.9998780354447392 -0.2709324903440513 -0.7699055298721504 0.2346607579394826 0.2681310389174607 0.2197278630249233 0.5382037301933411 0.6003378869958556 -0.8247731708704347 0.1282749087424564 0.9896975226372966 0.8208007528669754 0.015543571800009648 0.17309410358655142 -0.42168871305711053 0.26681934530991325 0.2369746772160115 -0.7350654500979468 -0.26023874447112694 0.4496637861820061 -0.7990722990329415 -0.7211345440120394 
0.9908259293010631 0.5484023135872957 0.8065828500361785 0.07838595996161746 0.5572297021806374 -0.9055870557644583 -0.9116409176131031 0.13745279438319247 -0.5481849565936503 -0.3245269669820754 -0.00876151251742252 -0.844982659256454 0.5914434544455605 -0.14812723102860326 -0.8131969009110509 -0.8320066854513315 -0.7694817534332539 -0.13042741853677087 -0.9864589698755581 -0.15759679084830203 0.24097525741912174 -0.7894941722253099 -0.5918174094264901 -0.14122023719509147 0.5830409403331636 0.5377044167179175 0.04052929056568333 -0.3932716331500694 0.6880101032434249 0.17300382187744745 -0.22755732049222344 0.764881870895866 -0.5862511309858993 -0.11233796612327396 -0.9676378370471768 -0.233689859609564 -0.26441818210956614 0.4913051983929404 0.729925086394186 0.6357727311699215 0.3996747425263134 -0.5278100874029135 -0.06903539491501842 0.23403206199488835 0.39297817211982244 
0.7718524007915168 -0.3286355504430589 -0.4442272057474821 0.2732500462870422 0.6697898348133096 0.008952591388831088 0.40150082753748206 -0.8453721930449389 -0.29109944102325525 -0.30418052673358376 -0.5198766258117131 0.458675198106252 0.6099851973502624 0.6991484476931813 -0.2022600149450695 -0.5822191292372114 0.2036905302571994 -0.7931491299956432 0.049502834980967636 0.7572389843137497 -0.4491441082695451 0.7249995657115238 0.6552315197802523 -0.015703684447619493 0.62729873312265 -0.5927409760023097 0.06579738821245651 0.27690152286440184 0.21665627131438647 0.8522130555566134 -0.9838809874571643 -0.9081520269018202 -0.015023866222986015 -0.7373063152494228 -0.4880603988365231 0.3014517601621227 0.10332846514368166 0.08191872324781069 -0.4886153746836275 0.9198621349838858 0.23978925947050667 0.004448215371160025 -0.5013734697839498 0.2945531383982489 0.25972369273731677 
-0.394327232377514 -0.5541885103065758 0.015499070095952527 -0.4466249527596091 -0.2582490720599384 0.02073029583819408 0.7339892895111548 0.5523443011464648 -0.6573852822773392 0.3215456147133602 -0.4150089602472846 0.7016228342364301 -0.7461338947771048 -0.09378640492368584 0.9714223047779618 -0.07858137282470512 0.37909052660882914 -0.5669318105321415 0.09564913968797306 -0.5769045676491011 0.5323166598285496 -0.159637404673314 0.8129763451160255 0.6361213315674468 -0.8689463874847654 0.6663920839863189 -0.8661483070114848 -0.041998077222998864 0.14354211790028204 -0.1518504287989555 -0.9840410824123622 0.056751829606163096 -0.4504430429863553 0.13529391556369852 -0.035673521499161476 -0.46446512682522756 -0.017697090134099147 -0.8824617800040051 0.3970324192728545 -0.08831657977569041 0.18964839382660226 0.7873953499226769 0.7360396827193163 0.0673840617253485 0.4861447000375587 
0.5465434960406199 -0.25285188990889074 -0.4031050218869512 -0.5370181745718337 0.6129051086807764 0.7800033679327427 -0.1947602763229337 -0.11876541304637822 0.8968590633447737 -0.7514443627228267 0.5058984516753318 0.8944566053812522 -0.4111652584332548 0.9443146873682269 0.22009741956543838 -0.47011806232234044 -0.06313533124156812 0.5892000197723744 0.8978744634466398 0.7031979874623555 0.9915005736299833 -0.5882609575592916 -0.1388228318185658 -0.04994367130304389 0.45682562609375554 -0.5301811870947166 -0.6881719809672302 0.5281906262030287 -0.7898758144672626 0.9451495634808817 -0.5477307436054974 0.5772149841065501 -0.4609024670158963 0.6990523003959432 -0.9654222314234966 0.618878014997734 0.6943441202909124 0.006135481578831259 0.9833196222244995 0.8387522880293397 -0.03385190199273169 0.5718782568661063 0.6303902754599884 -0.6889596022495934 -0.831548721138647 
0.6920922348521608 0.055066493112062576 0.6113839556733509 -0.8507910832748948 -0.27331484393031946 0.04007245313261243 -0.8917368985638046 0.745160146598477 0.937105176421344 -0.7654582132707937 0.6317781866569658 -0.5396301956762721 0.17629487628753404 0.25733480196292957 0.18930867491690462 -0.9282708972603408 0.9219399807208213 0.6792489115761899 -0.06925357029330348 0.35092779334954494 0.7082486737927245 -0.9097627788035687 0.6617045876715062 -0.8587585665983934 0.13845189855062667 0.7878300425727642 -0.13869387293822077 -0.8611965212688888 -0.6503321516406626 0.015530519656040243 -0.6181410053882632 0.9018603449506011 0.05372634654946751 0.13503500062816443 0.7909281719983052 -0.15216248106335062 0.0920027078082244 -0.36629401858759825 -0.33798202532695587 0.2968697323393108 -0.18073625854673936 0.4488044388689263 0.028281373301358492 -0.018220575885749657 -0.4290190275592367 
-0.26743456049139414 0.6843754827521895 -0.13168607523276799 0.9705203346631439 0.8872800456541801 0.054786496185103895 -0.3842191410806821 -0.10293043091936216 0.4671241692629229 -0.05735053261473988 -0.4429516132251152 -0.43788143156541803 0.3735533196680856 0.6312923374020629 -0.31179311272270405 0.33176114928985645 -0.3363404540274908 0.5314360642896496 0.8320141351928274 0.6840383068802303 -0.7540330465775862 0.8501863295357226 0.875576895047919 -0.9950013890732479 -0.24428247477807408 -0.39634508416759195 -0.21845192642697286 0.8041022991854028 -0.01822008147706522 -0.29674752505558 0.93344753005426 0.3690496877690814 0.35988972670665054 0.8163974520427142 -0.7004576527496347 -0.11793183299803656 -0.7479905305312444 0.23558840399606584 0.886051168680998 0.5841440370037787 0.9991734926998148 0.0854913173413212 0.9992644289234895 -0.2993607845629591 0.06526230672768141 
0.8558950286139124 0.9475012203250555 -0.46881396330410796 0.9817274487526031 0.4690929127151817 -0.012348887591399516 -0.6412935360894831 -0.7416322268699684 -0.12654975695378323 -0.44262229560277433 0.6468546054511721 -0.057164987737645 0.5006208649810697 0.13288858639138135 -0.6278648351268366 0.09162495179495811 -0.16791993162580332 -0.5864950971037459 0.2764038375301212 -0.9421113105768129 0.7913426759884727 -0.04190902393088414 0.3274073572931928 0.20647685255607962 0.7114394228280339 0.8847340315156795 0.7394760189477196 -0.565793034556749 0.22292746771369565 -0.2061097751372234 0.5334332311647738 -0.29657648960300165 -0.43408567999892833 -0.31345659714285 -0.19576021036349012 0.6894969414678243 -0.44972341564286866 -0.6772505790309322 -0.3831553470132152 0.597987227566996 0.6714595992817554 0.2022682051466549 -0.23483383540332903 -0.7752250149716509 0.7349456677502189 
-0.8521873653526968 -0.4939184129937253 -0.5874583810253013 0.750682932611016 0.33277301077731813 -0.18024528282523478 0.19955778749739594 0.8294692966317863 0.51910267065652 0.7495860585759211 -0.8381820541502463 0.34648883935562047 0.25737879534848696 -0.06047770533192054 -0.2828633532873719 -0.2670977915683468 -0.15011908067519397 0.6134141709025438 -0.510099677235502 0.9145945113876308 -0.011142373771752201 0.9305672101461806 0.22774687651142944 -0.3621118505822931 -0.8440201685022732 -0.09641990862093608 0.2165226720580522 -0.2947695797987262 -0.8946929155688403 -0.12097903223778417 0.6574455934729406 0.4895700291176175 0.050922305155958414 -0.0415562146243349 0.05048024755120295 -0.9956620597089614 0.5417171467046689 0.6767000333119084 -0.7294901428850229 0.27665327423759756 -0.570360552277829 -0.24354479331150714 0.7279675734143791 0.8045763198723759 0.8240419045403773 
-0.17772929430942508 -0.22683225670968254 -0.5250652086093335 -0.5264008607978874 -0.4154324579144859 -0.6663440968008483 0.4764521719419661 -0.3714113765137903 0.1932386324306381 -0.33352494281326694 -0.5363894187537603 -0.8898411281632914 0.21263172740955327 0.06232223861065944 -0.49011700280493353 0.0495368622023602 -0.015923304477780675 0.356150012355511 -0.7653261975341068 0.5589541440207089 -0.9809149140021332 -0.8211572700906782 -0.1034916858717394 -0.5426002774966092 0.5058023487632817 -0.9728215519376129 -0.7842832994338489 -0.9018642797480778 -0.9867537676275329 -0.5656371597540466 -0.7769401666606923 -0.6687598564555441 -0.9576816436406725 0.7910018964844816 -0.47355232146749016 0.6832683014652801 -0.8004709229406037 0.696456574278 0.04610426625358044 0.9474546541207298 -0.5411718220681014 0.11310144457618354 0.4892370882383157 0.55170214427758 -0.7711117903983902 
0.05108782392326017 -0.3815299586239842 0.3079367660811203 -0.24236069109405411 -0.971210789610744 -0.2859959523271687 0.44523152950281975 -0.2171917874983864 -0.8658144197441482 0.5376718014201285 0.19043300397062657 0.27666684961544075 0.15502081080378516 0.5777559705846407 0.5838514545512057 0.6351494364782471 0.9506461687089154 -0.6133560902904718 -0.29609643981267264 0.7259496733241433 -0.9939596128644956 -0.5809055304496067 -0.9765745781083841 0.8371628344772428 0.938574748327131 0.9370962878605271 0.2317005558672025 0.7574916900183124 0.6206713718610175 -0.7320007554307706 -0.46992276698979096 -0.029014047313715263 -0.46342176614425723 -0.014195218283243216 -0.8546238796998127 -0.7362588724887602 0.009065322885679183 0.4312030668499285 -0.39588148734445094 -0.08306686206981517 0.011922909589288988 -0.605851293007875 -0.8280671928453349 0.10001965616413977 0.42672104002017464 
0.7534697530131813 0.7863251261226718 -0.9201079254019335 -0.19263138935532975 -0.5987924817267081 -0.20267115656413526 0.4262144128737251 -0.01641306915951235 0.8750882542771887 -0.12062547270914736 -0.47986060244621087 0.16449215943646656 -0.21926965937723275 -0.4109489576202514 0.36304512316003335 -0.40394144252475983 0.30589491976176286 0.21725688724311576 -0.06611249091733806 -0.7186876348471924 0.9122892196490335 0.8205671758532842 -0.8417809359195516 -0.2103153257782029 0.636136656147781 0.6154724137112735 -0.07112454936619028 0.7620298253526769 0.3369299931975771 0.28047100999171515 -0.4422140077023282 0.3603933448084118 0.7044872067399401 0.13482707042460373 -0.4596835806527635 -0.38330722049949406 -0.1323673610929721 0.6491322913820421 0.5780060035450132 -0.5979488041159329 -0.9564703851036296 -0.7083604016557248 0.43251390095644093 0.5686029241111921 0.8248934361623645 
-0.6743362300637583 -0.6269575074797671 0.7081683045241198 -0.5769833670629418 0.8471722117744016 -0.26854055881069994 -0.0727276351844095 -0.5322579069095867 0.08801845473426528 -0.6062074314963011 -0.9444390730327854 -0.1887777839995568 -0.1909027992204213 -0.06627560021289325 0.78474527229291 -0.8094944040156962 -0.5309707663161682 0.5331681835168574 -0.6222151505063607 -0.42530382511547304 0.7778124536497182 0.836957919502938 -0.2069039716723322 0.5556318870986352 0.23120290588764125 -0.5468603720377951 0.3361516729687146 0.2367347548128238 -0.729582092675384 -0.06269587524851317 0.2809167583853802 0.7328853517194271 0.8230823519892732 0.7888539502061838 -0.7038594413583497 -0.3851205325187659 0.15516574580397058 0.23905061835876484 0.9666066479122553 0.4152270863401595 0.19998786320827233 0.4251418474936599 0.21701823846178092 -0.3422432205866017 0.8291965779727066 
0.9218208887524586 0.026275447014742603 0.7816923311793302 -0.1080484817515377 0.5407238710218691 0.462479117148036 0.8015711478933845 -0.7276255404291934 0.8106232771866282 0.7740735756253696 -0.42242295950696707 -0.29834432650653 0.615430043905453 -0.9598811197788317 0.16656363497423565 -0.38996708376830247 -0.9059312551874963 -0.2872380062300619 -0.1177530873088597 -0.08481035061140352 -0.904255862808174 -0.7224468776897925 -0.5862505896049017 0.3174446088009757 0.23607022329952176 0.21233313145542287 -0.3651189525743135 -0.5915642768734957 0.9139860321062372 -0.5570057539701081 0.5822453457253354 0.6988270809815829 0.5263358931264805 -0.42550334625874653 0.48846210624740594 -0.4681022792256886 0.5564440842380247 -0.6819010346955889 0.7275014725043398 -0.22630260557001236 0.21496871131096174 -0.25915821235300207 -0.9376731125651254 0.15678449615129475 0.8757701876905264 
-0.7691014541528796 0.6807481474453871 0.2033874804018776 -0.3235146179369135 0.40248874966274784 0.16358822301673737 0.7651607700309304 0.3429500658537552 0.5566246978168508 -0.2500287479403971 0.39053353461255647 0.5485659447423401 -0.2309578222930413 0.0477417956670807 -0.033022189308431926 -0.0658387068927937 -0.8057565231221131 0.6827286257740566 0.38435123970706875 -0.7091518290186674 0.7546586145597267 0.2887700202908148 -0.673203466302406 -0.6521685898008698 0.026509765957536402 -0.28888046164058623 -0.275490200721459 -0.8909220099412853 0.8390410211220596 -0.6709444402009992 -0.11698448316345633 0.7472089803363489 0.8713545598179082 0.9992201176190929 -0.1435829702342455 0.6899287187748029 0.3611720834070633 -0.7205835142194634 0.24241634418124258 0.7237593675856615 0.9324179972648501 -0.686703059513283 0.2507281514417361 0.6918020583479916 0.5035999919681755 
0.039576622145616636 -0.36716118009407817 -0.3233012150245098 -0.7434598902090674 -0.764888341219683 -0.14010940066981648 -0.5630770955713931 0.7250875486995341 -0.690617379488623 -0.20320131065719615 0.3039781107767552 -0.7939775748094862 -0.26137114714108 0.04453756976732093 -0.2499595291877128 -0.10056110933877505 -0.4389195439610398 0.10886009498372129 -0.5999705011890157 -0.5465276795620269 -0.5495604179013767 -0.3974573914551609 -0.6109513180796271 -0.08168488200183277 -0.4570355726879922 0.799575390012101 -0.3444115713459439 0.5070430090474072 0.41421349598604396 -0.9664520287473246 0.012837634274815546 -0.9841485086211876 0.3847102611810518 -0.3311948519825141 0.6549031039964994 0.27388139993158056 0.6794915128102494 -0.3282209829461922 0.13168927575018885 0.5728891400513083 0.8747057786928409 0.17122996329780693 0.7656441281508026 0.6695966682749457 0.535132004256857 
-0.1800428570076018 -0.014470643849955112 -0.34136645638804985 0.979690559116301 -0.7431320318136598 0.1168272143328486 -0.2184382990672864 -0.2922771941901965 0.5171240714104208 0.7953485147681401 0.06755211763596303 -0.8229817481007418 -0.1505912471622679 -0.6399395261000616 0.5938599439464074 -0.6547287388924339 0.07318962504508608 -0.6668953968147437 -0.8906763717985662 -0.33014707113585406 -0.6548218943516526 -0.5905699614496851 -0.21830936574825266 -0.893514381462861 -0.9969843615305789 -0.74458093574134 -0.09034801102614454 0.05561305197101385 0.015544423658092832 -0.14466454464147427 0.5830440640007859 0.1759591388463606 -0.5071513976156892 -0.8536201917183719 -0.5202435642747991 0.5179744638572206 -0.30441957865256986 0.2475879102969576 0.25546017249852704 -0.4744295742270146 0.031913197686046724 -0.2852370844682317 -0.6876484590741749 0.11274581256936012 -0.3582080144454671 
0.9430836280887167 -0.8743174834926968 -0.7575879015696763 0.3419798671606469 -0.909014200099344 -0.23807163707146284 0.2179285478536963 0.9417272237810108 0.7133650421061888 0.7400203923784994 -0.7564400683601522 0.23771814959532156 -0.3308955242521001 -0.032849613901767105 -0.281726336375719 -0.6417225804992939 0.8073820672592902 -0.8767688243339393 0.19799570053767623 0.550648700640932 0.43916698152687506 -0.42682420027382983 0.9946484117597947 0.9914833440713411 -0.3352339155110897 -0.346263916184953 -0.02400436787207938 0.7495067831982578 -0.7447638761341258 -0.9882806004467466 0.2885247893192553 -0.3593414058399673 0.9749292231292919 0.5629809060390278 -0.553702761826192 0.38982885526089905 -0.015606747074791816 -0.4033341167411786 0.5119028604148632 -0.7503568788396051 0.27730111762117726 0.566755457322548 -0.058643105964441444 0.025575708539880893 -0.017963662977862782 
-0.8069523103711453 -0.9270192702667128 -0.6820011251680171 -0.2019839324338255 0.6362826599125242 -0.7889890770552266 -0.284395841668182 -0.16121572913841797 -0.28280041510622467 -0.21211536872498904 -0.33903958528458533 -0.28163711808770264 0.4168915903800894 -0.8151477327977523 -0.24220023061976992 -0.15569983617614858 -0.7740978226257267 0.44877075558795276 -0.5990468880914979 0.5703097849181737 0.3020850826923607 -0.6363643004959425 0.7836830205232124 0.11334624300191343 -0.14767237809222067 0.11861148930343113 -0.4265092036210758 -0.045582992587419824 0.6708161806721635 0.1600236707840037 0.8463023018478923 -0.18061764251977364 -0.6534006177303666 0.7229792548726162 -0.7697337676420024 -0.724550126869528 0.29578449222118586 -0.9910144459378423 -0.36577532807008506 -0.5189787003070572 0.47877858290466824 0.009139357712837137 -0.5777537677124078 0.6910042138806234 0.4305659489230511 
0.5681628128212699 0.44443832022134955 0.7466528856500199 -0.9379099450203607 -0.5572347478206947 -0.054415789280536364 0.9684570872388234 -0.41661230604596344 0.8285122424531808 -0.9530214586662229 0.6225493393167922 -0.1458003605032594 -0.8874117256784475 0.23316262938897592 -0.554444639321364 0.4853614380051545 -0.5444597545693373 -0.9259102791326912 -0.4102349594773651 0.09435607599605578 0.21329443327627762 0.27457773253113804 -0.21004568373019294 -0.7390130981648066 -0.8185595771427103 0.06673595909616514 -0.44485778689120736 0.9342096803371174 0.17698083079654814 -0.05262063361236402 -0.2469810260332228 -0.691261478754337 -0.43155319769917155 0.8112731748882711 0.08173598522003234 -0.47988000730199243 0.023484017646981048 -0.35762197134696017 -0.38679945906287805 0.8995474354285942 0.9637155955103558 -0.9009058014175935 -0.1560293184277417 0.984765329439077 -1.0697972237605491E-4 
-0.4341682817085464 0.5043008786674763 9.919195769751976E-4 0.9660476420098276 -0.45793930542182726 0.7528399004322373 0.10586682230106392 0.07955957002358205 -0.3986745085689958 0.32393678434915407 0.3350077015634878 0.22476417884855882 -0.4234668607597556 0.6964635911472414 0.889838820602245 0.3909176274931787 0.1141555338082203 -0.582482947213175 -0.8230680952773861 0.8910486438443057 0.2888124117501083 -0.6586865816379472 0.8381787912473673 -0.853574982486244 0.5810308491847909 0.7330450243032955 -0.09630801796403166 -0.4579335179528412 -0.8051954337665317 -0.06058008811679749 -0.8455910650603036 0.14194002725712584 -0.5720952830645378 -0.35794171151727205 0.7989530112268981 0.8981757670680608 0.606722089476772 0.5868736867056872 0.6493821020659696 0.39684442690811017 0.9587485264912419 -0.8779807523968519 0.12303529720949236 -0.8464583648197157 -0.2803663851076046 
0.8789327867494015 -0.3972357584532522 -0.9947733553333113 -0.24191927701804117 0.4954677178622555 -0.04458478073563232 0.24046601763433784 -0.9493250946923786 0.4070491669774243 0.33850645786027544 0.768436749162291 -0.5499372285922304 0.42124919774157754 -0.18237877531711155 0.8477458032050813 0.3637331795450718 0.04312653135617328 -0.22788143319436505 0.6793258832859823 -0.8030248133919571 -0.6668693180324385 -0.4156619000327164 0.5133718849870015 -0.28758200229891306 -0.5436776523855289 -0.31244299830411415 -0.17151690107989537 -0.18011388249749527 -0.978883467172446 -0.30946817634032775 -0.3881181192702805 -0.26586962224164146 0.8077059135348266 -0.9984604881100594 -0.1972186127950668 -0.07567561451634197 -0.4492226547182905 -0.8575930155019542 0.5566777439333024 -0.17195674586882093 -0.9319143317369931 0.7730989540109032 -0.8534538928583479 0.9137704340108419 0.21590355766955183 
0.340010335570921 0.03762273882666345 -0.650194289261163 -0.09568212331105586 -0.7838109203043824 -0.04434210970672847 0.27377665715126587 -0.2802025849955132 0.21929179761646034 0.6142286239195953 -0.5442171971955043 0.5794092694374418 0.47315433710109134 -0.8250976249833994 -0.9904694507827754 -0.7194856338972622 -0.2785637115773252 0.48474622085070007 -0.27035512480995494 -0.18827400996085575 -0.5931232162723628 -0.3311202132399458 -0.3803276928423971 0.8553678144643848 0.09727842163140621 0.7514720460645787 0.2241169546678845 -0.9613782254530583 -0.830588304349279 0.636786702959248 -0.510819776455254 -0.8199913829226364 -0.945387039835615 0.002582975046495406 0.05070282429469786 0.029797223429952613 0.8049255816689702 -0.5586180985219305 -0.9158643044700974 0.8173924613005643 0.2562127248473518 0.5308118699676159 0.15019446159631555 0.2957032847253551 0.6447478745359456 
-0.577550340692699 0.8311806660676695 -0.08805245782299087 0.17636766301440465 -0.9907233975949676 0.37678045035091734 0.23630118080923523 -0.24765015612964358 0.7650727133928688 -0.9355198874558053 0.8442547017577657 0.8237565541511442 0.9447747612397441 -0.4714344175007228 0.47549092919124836 0.17606246484831867 -0.006973105699875859 -0.07699839065197889 0.48155285511893475 -0.661535762205089 0.7288566413095772 -0.5426862748502987 0.3265219860952868 -0.7326537342683026 0.1576106131617101 0.5809250712566463 -0.7806177032139614 -0.0290430714645471 -0.3930107649461103 0.8902274060027358 0.83369698603921 -0.17757485834413167 0.2922213467258681 -0.3060052511188345 0.509677862881962 0.4508281308052926 0.38612348000033725 -0.9034246572028863 0.3356826575188028 0.3050971428297842 -0.797008160983256 -0.555373938498567 -0.9293749357465828 -0.7468727734351925 0.2009772608131264 
0.03198177243336353 0.9957392903403626 -0.09146540289929406 -0.8342020292915511 0.0685799196793917 0.47359112118859303 0.7700840383328382 -0.8406534769388403 0.09318893948700335 -0.7558181934730379 -0.28611421472505705 -0.4000483445256311 0.24601686966326808 -0.697555672094645 -0.10395905107048042 -0.8132420041966977 -0.8838941899938015 -0.42161539989566554 -0.2965090387193603 -0.7111093302900067 -0.7602563923378436 -0.4194273507574733 0.0334060144925985 -0.10922589308901243 0.7499556667068312 -0.33435693641902975 -0.1134749005232798 0.21817774671063273 -0.8365356102812205 -0.3390841132955458 -0.9725616309881286 0.7652646760101609 0.8403345934774149 -0.8057961676820729 0.2948800270835814 0.6011221977079693 0.2628498405564703 0.27432256961112556 0.03767999769293762 -0.445043628705867 0.9539935202079612 -0.5822232608912525 -0.8929018994777707 -0.8376641604961597 0.5922357318316447 
0.9315446717076656 0.8538448942728376 -0.8994267515093619 0.6781567448260706 0.8388403760545309 0.6581703071548635 -0.7504640006331178 -0.030236109558899438 0.3741824563748921 -0.3360209909534826 -0.5151194645735986 0.8271887541881584 0.9760543603626892 -0.40698888487362095 -0.1560917439010534 0.5937782692514117 -0.7301078217342776 -0.21729699889550846 0.7999441311063291 0.18942236501722287 0.6610904842764909 -0.0785774793338816 -0.9606589528130203 -0.7967117932106975 -0.15283118960133169 0.34735070980232385 0.3559185936982272 0.9469602896571279 -0.18980470557904128 0.23235974965978956 0.06084490525541231 0.1653117443474954 -0.33498346056563744 0.4898155526773953 0.651676011834359 0.40126322234060674 0.11579650428964627 0.8253114949845588 0.39246888586842044 -0.6280889282515978 -0.787180548513895 0.991917422106869 0.9275877736615306 -0.8626638217880587 0.6034660980822415 
-0.9833932261117919 -0.9149735716435377 -0.6702669254717177 -0.46427513193169734 -0.06789748856025879 -0.3792273735711924 0.25932598708641685 0.499552276297784 -0.6215392346352824 -0.18605671377773714 0.32486739651094054 0.5808520078535311 -0.6687111633880161 -0.4568770930658934 0.8303428513792461 0.3547925499504778 0.16857303801051415 -0.24245985867032505 -0.954166216460463 -0.5403617896753212 0.3056695710532813 0.10242145645025125 -0.850682634831216 0.8692213408069445 -0.29191061907566707 0.8660622851108524 0.5475125379458912 0.3216353820917359 0.7342870344001733 -0.6131379905774299 -0.002293187202446756 -0.636316425051968 0.9657407524430603 0.5917686084661327 -0.06117052300317671 0.03506912547710894 -0.05081038326311971 -0.5667145943541432 0.4888621290747466 0.3432674333389314 -0.8940285019503373 -0.3496070160533604 0.6770081967167958 0.36947313563321793 -0.5440158340457608 
0.4994439234744432 -0.3471312416615613 -0.9020316125393577 -0.7411309441554572 0.8842901775858782 0.8512024797390294 -0.12428865930258404 -0.8074034479183043 0.6606068139301073 -0.6103264754019302 -0.2141024802262288 0.26970835889887557 -0.20242144559353692 -0.6616791113748615 -0.8413000906880075 -0.6659475555555328 -0.44918136709300316 0.923310168870147 -0.055654264472937864 0.6859223333173976 -0.16640731645626716 0.21385642800894256 -0.2618575506195109 0.15109156684378644 -0.4308760867257231 -0.6099638721362739 -0.12598249356843083 -0.26068738969996397 -0.03504211650502764 0.3005331828940505 -0.8074100587572002 0.9304268556647248 0.3710698187791719 -0.30680737101666855 -0.15825444100221908 0.5813108824543725 0.6665991726860654 -0.7624164831845541 -0.2178612261562285 -0.5355378413614575 0.9657998298127921 -0.7423986834441954 0.5470000735507992 -0.4708944856133519 0.8419976940444192 
-0.046533052566870126 0.24507850158358013 0.11828012268147847 0.23905041586579623 -0.1836907392686722 0.797503553401139 -0.41955578964766516 0.7730062592061215 -0.07515558262149846 0.9638027947327277 0.9817132677869969 -0.7776359721416546 0.862495161633756 0.8392654815292178 0.9549262314068903 0.6635372449589427 0.10461965906681536 -0.8047047541965817 -0.8856895532636317 0.9288300522470143 -0.10065081864420988 0.28634776034833 -0.08040341093571213 0.847435009089784 0.9018605517325338 -0.4384969571758377 -0.6089886551221091 0.07566650875015002 -0.8792611263525774 0.09567453036353069 -0.34334606533423573 0.23084538768593355 -0.9035871898491581 -0.5050893065499904 0.9563415028616997 -0.4860444805976629 0.6554738972129224 0.5321980636457995 -0.5689144003535089 0.03939448576221416 0.0710187095870507 -0.16537335305751522 -0.2050595877276662 0.685844093983079 -0.9920183900642381 
-0.4302659849854731 0.8160420274432585 0.44049017262957 0.24375293311741442 -0.7317051361588243 0.4262350627378835 -0.07047645734758445 -0.17179342732653624 0.6727778609581421 0.23376248760895324 0.11105737629009016 -0.9164114412125302 -0.184855774935464 0.23107129674279459 0.9522995823792333 0.6435459854359624 -0.595384950773296 -0.4301344801290292 -0.6789788603830216 0.5919051684432999 -0.9545117376044805 0.41811614048469115 0.29206580724505216 -0.31436622833492933 0.8070384027598143 -0.8811843142250346 -0.39715142269204984 0.6327522000099568 -0.768012747276573 0.13784261763610828 -0.9125068892503125 -0.5552140556237435 -0.0030165617614785756 -0.3816199094477677 -0.4225363185305919 0.9946793015350255 0.12798582854983254 0.751910497473558 0.977247029846998 0.08491941853736007 0.9253958432791516 0.6308862379509712 -0.9931540788952236 -0.4330532955365627 0.5682381322288081 
-0.23424523264311858 0.4485463587963383 0.35175709716054615 0.7436426815285699 -0.970905632254665 -0.3563735507461001 0.512928223827704 0.5873330555017102 0.43219481908531643 0.45537486844747277 0.1071315593948976 -0.27721990553614995 -0.155503639796843 -0.05200637698389454 0.8235186958256211 0.2511325603722161 -0.466123607567029 0.6266588680969645 -0.8778001944330851 -0.8290102006872506 0.2358541635111644 -0.7577792587669996 0.1333591906265137 -0.10346537549591805 0.3523593100936173 -0.11527700312324085 -0.737618299619287 0.2944971667991343 -0.1642101566602665 -0.6268717733957525 -0.8173082636277358 0.9748744777395602 0.3316630324363343 -0.20566288407657463 -0.3031655350829474 -0.5527168069690869 -0.7667602513900023 0.4527929036926486 0.8076569965223248 -0.8057244015848597 -0.5559172466224718 -0.5373338928565099 -0.7347239178395877 -0.2850969550735103 0.8495855929999365 
-0.25218311728615794 -0.15815391483400898 0.1562635549272684 -0.2339114424908204 -0.6895639988337097 0.634969415350277 -0.72227673002012 0.9662749313510985 -0.7125314037411823 0.8119203945848135 0.1819551298001849 -0.7278799233332152 -0.46537216203157117 -0.6193197533874444 -0.5011092181058214 0.16174304075104362 0.26100824552481083 0.8101109326128069 -0.47686497805300787 -0.645910938231292 -0.4169870937213256 -0.37957859230366386 0.18234548936610095 -0.08455067379691239 0.7745103075109099 -0.573589686079564 -0.34646727171113434 0.07440256143015422 -0.5391591006421568 0.33979542051034106 -0.05381030554755406 -0.3631594562195042 0.037495881294582256 0.12326930510139489 0.8356122431502266 -0.33968089171767835 0.18999414152418348 -0.962251569768094 0.1567260234930805 0.8770528137872997 0.5496866754792613 -0.06438888760836692 0.6581868636704067 -0.7525496488198038 -0.7590800256382368 
-0.17345228542760527 -0.6315227892636168 -0.018833927171450382 0.35819408548145626 0.8789752373938471 0.7401716055391694 0.38022069814232595 -0.742346004953613 -0.3812047311501956 -0.28450039805012217 0.9388222965622481 -0.044545179979181615 0.9486039853287604 -0.704213901558093 -0.7229024278811895 0.8962467870695074 0.534289973969897 -0.8006968233786471 0.6910205012858437 0.8882264211734969 -0.9077163849008199 -0.24348011562340854 0.36840450170412997 -0.9030938645599229 -0.8404488103066816 0.3186904179691945 -0.3490986090508672 -0.35204516229320393 -0.9602469184222924 0.14517300312945713 0.1145299320131199 0.61016800739474 -0.2071843604598922 -0.01317330474322187 0.6963331825314942 0.9128263976776643 -0.6285075362877828 0.3972843096121381 0.6123437841216162 -0.902592230844331 -0.6926794063781687 0.18085480055403003 0.3921122959391665 0.7118170403676047 -0.2902960456458261 
-0.6747399055771481 0.9976347824005258 0.6260054115047633 -0.23431435211358043 -0.7306345449251819 0.6995902774477185 0.5810509598214415 -0.5857023008809996 -0.5794850096016464 -0.8486193473493431 0.8794760311960972 -0.5817942068584412 0.46303715739018125 -0.06845964027663398 0.2827814753590485 -0.3333052507640444 0.1889386454900881 0.7176638080357112 -0.09712118056530716 -0.7821323895942873 0.3337574121634732 0.21007545958195362 -0.8426936739690423 0.32426035446989077 -0.7850003470070566 0.941045117459089 0.7038170114375624 0.4849023439350746 0.8475377729342755 -0.814569147393515 0.678130129881148 -0.5718205412590094 0.6497999363379696 -0.6687919097401502 0.5293409903226494 -0.14631286286743683 0.8565353485447658 0.2734231022646014 -0.719313571494651 -0.2524133440506098 -0.68160851819118 -0.3373138238183926 0.13906728246367783 0.13480721411168006 -0.5045065399448654 
0.16939867636198813 -0.9650683743655109 -0.7572357283287194 -0.8583311898916273 0.3174855889955053 0.8948257716669885 0.2250923931850728 0.4279134867941292 0.8964840519905259 0.2321237319699374 0.8302198298555903 -0.931851381800705 0.4784158609927345 -0.01285211579046841 -0.30156105818756074 0.3872706926994438 0.1459502202665246 0.4560980610873968 -0.6675440407597504 0.21094996744384353 0.18094138609392796 0.6189080273906129 0.2102305914112934 -0.0414131684467407 0.16750382415153253 -0.7906474348813175 -0.00475470498185282 0.38528697100730924 0.7313654584363167 0.4664308697237909 0.34817060073373596 -0.9543289145287301 -0.03268223385474878 -0.33574494066363036 -0.5447771804758224 0.7417866859981432 0.4991602579010752 0.2383767007180333 -0.9376628486068519 -0.030656896174023007 0.07161335523027668 -0.3903147819343602 0.5406078249444617 -0.30905516613857587 -0.4087455764478036 
0.6527181587291124 -0.6927246797503794 -0.35805052655482683 -0.3863933042522538 0.1634235463448257 0.7878684633597735 -0.18596825842567521 -0.583908348451841 0.6521197452664789 0.028937331092750096 0.7634869253303951 0.0016321475428318077 -0.6793999839561098 -0.9428587987652861 -0.04423936457808586 -0.3547282650196879 0.17803330992846433 -0.8707159229891239 0.4846444879047822 -0.07374537871399545 -0.09148541423650025 -0.8707824076783022 -0.8059684409295385 -0.41941247309727947 -0.6761778686548876 0.5413604056469281 -0.5179232255519699 0.9641840598496543 0.018142427334377764 -0.3330892394029017 -0.11793735461476729 -0.5657302940566049 0.1872253030865274 -0.9523438098455141 0.8912216727103168 -0.46319632406910927 0.4826363315593398 0.42361464794854964 -0.5417780309935429 -0.4697478149882799 0.24247595888687323 0.9745664380134398 -0.9580258971777467 -0.5188744796824698 0.4731383560584741 
-0.9181321629145365 -0.7811284547823194 -0.0657296743859368 0.5523850908453978 -0.6042378226032106 0.44252897738228425 -0.009015183122358161 0.7822138584121232 -0.39526512971868644 0.7495371938585094 -0.4793950079925242 0.6407034071698456 0.9772852689398446 -0.04329462743470325 0.18628629594295187 0.8652199923632937 -0.5171825742372997 -0.7902846579223659 -0.016715854232525418 0.3450746073502051 0.0971791657254244 -0.37993514958123176 0.06811481153266818 0.2099211695242147 -0.24029215977991858 -0.8333691725951522 0.7995555365404516 -0.5291084472473238 0.3724683074003232 0.040136134905307985 0.11752256511718606 -0.8953357054944278 0.21869765217956583 -0.8267432697655337 -0.34655833198394026 0.5663683677950964 0.2262987821842497 0.8260587987358585 0.29580574290888584 0.37542584377946686 0.6135534013909121 -0.21409028394642426 -0.6728089133715522 0.6391407096529322 -0.3719474298425234 
0.9929581784535746 -0.29591718512632625 0.16204373030507102 -0.6738277453369979 0.2167331533038952 0.5684370379112325 0.1347072863605574 -0.3607523113359794 0.7863645175393514 0.6599870193284134 0.30394615833848504 -0.6660696957504564 -0.6836199283996336 0.9408768674628329 -0.002975779493005204 0.8980374919897494 0.8719884208885718 -0.5507141077344897 -0.5943101706895213 -0.13046471034759888 -0.9177908052292654 0.16628447804575774 0.13156541289664614 -0.3248796416325357 -0.6638346924943439 0.510239724519864 0.1526207015714227 0.6561971700905997 -0.6126939908688933 0.9656683704102753 -0.9088386174572984 0.6338738956368679 -0.5577188615189186 -0.6914880301677759 0.9469688453232279 0.1009283432058834 -0.8743585094858606 0.9073872664416804 -0.6950712908163723 -0.07247553352221137 -0.4115076693851272 -0.3395562597560957 0.43469058063643273 -0.6712138227063511 -0.5313189683898691 
-0.7299631594006162 0.6706027782078423 0.7661658814225127 -0.5879480013592211 -0.23749454341962317 -0.0066297107615471695 0.44087056160097493 -0.5712438217634916 -0.5720811123052172 -0.1694133454684439 0.08643893973410188 0.485555034083788 -0.31526288009355774 -0.24850602961596557 -0.12111114114149935 0.424511492578566 -0.23309347251805135 0.9520278763440528 -0.5433152128119616 0.5504149534667335 -0.41400899813259917 0.20940781066244285 0.2791006516634902 -0.9562610416981498 0.6385169380208602 0.33123630818977134 -0.14961573741760303 0.7328842639394295 0.4087880558861463 0.03227334631410539 0.6984548307936098 -0.3010870838686992 -0.639995035032521 -0.3572446341578912 0.4206959486941395 -0.3120683186225641 -0.688398465793779 -0.9146674673852782 -0.40426818059989444 -0.6292626959523853 -0.23171046911592796 -0.846601275741818 -0.09109458756887423 -0.8837121254819151 0.596379455477462 
